[[[-0.007148973366734632, -0.001768648529724874, -0.008599882151687456, 0.00423506432856838, 0.0027257300369863914, 0.0009870904116214068, -0.004092372532706181, 0.007013816328518328, -0.008541446984403695, 0.0030501293214445567, 0.0024078708889774605, -0.002356788937013394, -0.0038760187959727866, 0.008185945102395157, -0.0006214808442515503, 0.004683929191922373, 0.00028548407400266654, 0.00035101842296674966, 0.004832494963692542, -0.0003092349401438072, 0.003507753720430711, -0.005065729085322953, -0.0030501325312736922, -0.00021293555348533412, 0.0005298339164579312, -0.0029827284865003596, 0.004060741248519292, -0.004119649056100132, -0.00022458881776654297, -0.0010772830823798179, -0.002713627314155099, 0.002588109314635463, 0.002017565050518188, 0.003517917190732951, -0.00040164936392273317, 0.006536143999587722, -0.0030789527120107557, -0.004919110504853451, 0.007438004432927584, -0.002245840160173278, -0.004504184954825099, 0.0012855938926785151, -0.0018864989790041613, -0.0014171665400376538, 0.002140966596921356, 1.6814920545410012e-05, -0.004499866368213859, 0.007694936663031996, 0.0019783194784991714, 0.0008890211594491415, 0.0036833416612421935, -0.004030363281947597, 3.149914037988618e-05, -0.0005901010085399601, 0.004349693241729447, -0.0016617759472457928, -0.0019652694288088707, 0.002288418732488093, 0.0017267240083692716, -0.0006342966012216252, -0.00022703299898946174, 0.004008782094275408, 0.00475274237472636, -0.0009570910805685439, -0.004415923000732978, 0.004416726617556911, 0.00704830159051721, 0.006184888141214782, 0.004658040572934017, -0.00315840226367363, -0.0019103733216625277, 0.000833475334029298, 0.002819794540271454, -0.0014573649257910452, 0.0033994537476170887, 0.0001623630458208008, -0.0015195809796648067, 0.0010953495154690338, -0.0016781993838074433, -0.0006796527352450174, -0.00021439957398860108, -0.0009475167808423748, 0.00014903110494038447, -0.00586665603764303, 0.002936663097793553, -0.0003032209415524304, 0.0011989996334948326, -0.00040765737107432395, 0.006588712082663526, 0.0032230806677572997, 0.006691723005526899, 0.00023865048814628755, 0.0031618550567890594, -0.00029731846802458396, 0.005452787494682412, -0.005851350920805692, -0.006860033155930236, 0.006892738089781783, -0.00402059036273317, 0.005014168625431306, 0.002862185890126466, 0.0036246498002865334, -0.0037230356171770703, -0.0003175597999495171, -0.007432630235011354, -0.0007219176834916434, -0.006628151689044748, 0.00025773907095255063, 0.0012762366753724787, 0.0020001052594730913, 0.003292430437523553, 0.007513151670373574, -0.004407298638838009, 0.007984899978550963, 0.001185018308662226, -0.001493099772733464, 0.00446180945810131, 0.006027274654384441, -0.004199389384492778, 0.005173310003280101, 0.004681263083809315, -0.00048734756199947794, 0.008913195202245434, -0.002084753416606288, 0.004244853391267381, 0.0065745682001737025, -0.005915103826770679, -1.585539723034789e-05, 0.0037555572072579956, -0.0006133090373878468, 0.004154848637707073, 0.006044801152491597, 0.0007182578985744309, -0.004017816823405779, 0.0049090619857053664, -0.0018494653324988175, 0.00422926912074205, 0.0017916946713383672, -0.007548273394599387, 0.0042474997913158705, 0.0028785237228168576, -0.007473196765881101, -0.0006784195072641833, -0.0005437791001318844, -0.0045356042703768385, 0.0033963263941613918, -0.0007614658752229135, 0.0010335608670367933, 0.0012810702421572466, -0.0010236116327058738, 0.004147260853070931, 0.004477063662193611, 0.003245693015822467, 0.003913050077804753, 0.006213248990834203, 0.0027382345079904535, -0.0027427051615846612, -0.0018997361525447437, 0.003081597540283152, 0.006874155838795454, 0.003994121373610129, -0.0021930211954860586, -0.0002698153277787865, -0.0013400420288228775, -0.0018419214412373369, 0.00025749648672773837, -0.00016940633525496106, -0.003358670262948105, 0.008201151270527677, 0.0012355773985350251, 0.001782485440003881, 0.0005424893348883929, 0.0029691821935714617, 0.0033602807762606753, -0.004665753370763428, -0.0032489501125692074, 0.0038031206515998497, -0.0030656535964616403, 0.002008532222245701, -0.0004511210733951482, -6.1908680534516e-05, 0.004328805705199455, 0.007620972746803317, 0.0035724190562368236, -0.0013266417103335862, -0.0021429264687452885, 0.0035447694821098487, 0.00029082019582796025, -0.0018304401046549382, -0.0009595133559606394, -0.0024075284083715986, -0.004870792521139599, 0.0030851683586341824, 0.0020040608718156845, 0.0017086517135303152, 0.0007946994764957293, 0.0009205976339364541, 0.001947002063063212, 0.0031012574521662828, -0.005139332148891195], [-0.004602550782765308, 0.001505572404229507, -0.006353006116199252, -0.0021832346215158813, -0.004220547550455435, 0.00455406633019965, 0.005152245605998581, 0.00462522645343961, 0.005076423863352846, -0.0012735846449111906, -0.0028561009366275224, -0.003850708416821131, 0.005292821007579806, -0.001404325537883432, 0.002387830967388019, -0.0015634250747309409, 0.0014185114627314605, 0.0001426807595053282, 0.00464564049587102, -0.004372915924372111, 0.002403574391834169, -0.0010744902588522818, -0.002285864429102994, -0.00039278697506930194, -0.0016761050926401386, -0.0037364558236185606, 0.003042027347774129, -0.0006653216732483826, -0.0009118245583149024, -0.001987606262606406, 0.0023441354107371732, -0.00040677610198541384, -0.0011383017243149964, -0.0008396379861677154, -0.0013551761512852446, 0.001528642452465692, -0.00034153507781193904, 0.00528807823944608, -7.460340685435987e-05, 0.002842524606917769, -0.00038919114308231444, 0.0006589438666340994, -0.0004778185735314384, -0.0027221785023890574, 0.0014449897589453805, 0.0019192098512943654, -0.0004343483033879574, 0.001329909908875102, 0.002532025160394122, 0.0013945334855332782, 0.0013645161775092264, -0.0023870163379887017, -0.004505750655657944, 0.0010936762437194299, 0.0020071530845582578, 0.003834128075521261, -0.0018097943015075901, 0.0007921013972788058, -0.0035267780287712154, 0.005749548759526765, 0.0015911286003888233, -0.0015854199299760723, -0.002248719693408292, 0.003945929792581065, 0.0035646922820200344, -0.00297666905529759, -0.0022443736116308398, -0.003977706551512954, 0.0009158301592238774, -3.7762925427759355e-05, -0.0010623640874783704, -0.003645079321558251, -0.00027509464182757663, 0.0042717901708310075, 0.0024048848417532864, -0.0005166924489070028, 0.00043328107618753186, 0.002187647117849346, 0.0028589892451228727, -0.002012030803698006, 3.7454950882797605e-06, -0.0002776733717412569, -0.001969929564530884, 0.0036840564706719235, 0.001764769442974946, -0.000552877945301511, 0.0030439886762047555, -0.0024571079732568133, 0.0018009554647145623, -0.0009472033123615268, -0.0030172163323755096, 0.003088291928680144, -0.002017839269902582, -0.002410814094113039, -0.005079281291400645, -0.0014694513586082994, 0.0010966675413579183, 0.002479176763051703, -0.00032215789813541944, -0.00039153629937861, -8.141578543263715e-05, -0.0052863197572031876, 0.002401175440718983, 0.00028367180599459836, 0.0017868416177151633, 0.005512498159263742, 0.0024894675094020518, -0.00030822786953518713, 0.003203490709555984, 0.0024271952278377643, 0.00529303585278362, 0.004216162847908637, 0.003449269813637488, 6.37424228022446e-05, 0.0029975265371238414, 0.0017102841421724748, -0.0034768162535066074, -0.0021629575745955552, 0.0008103132438420248, -0.0017460550782795584, 0.002420731935145002, 0.004498303167751703, 0.002874587497235891, 8.614052992999047e-05, 0.0004331213769121017, -0.003218810498977077, 0.0021860150927514657, 0.0059477083310339966, 0.0012571390132540318, -0.0007228437782181719, -0.0022474456708207226, -0.00019011093114552064, 0.001668081914464711, 0.002476314326535246, 0.00010840338241576118, -0.002606257110631291, -0.002702877954697401, -0.0031127267438438005, -0.0013625178213771932, 0.0016384085638795082, -0.002930367614459806, 0.003085749601015813, 0.0031140218262739887, -0.002102282574914786, -0.0015999506209454974, -0.0015936190431682811, 0.0005811255993320214, -0.004569186511749987, -0.0015384380942886362, -0.001967207618791871, 0.0027494669138017343, -0.0003478320066931955, -0.0018555916520384057, 0.0013689367766810093, -2.8955145701718058e-05, -0.0042679128996323925, 0.004419540382028447, 0.0002122051003255551, 0.004457246655881129, -0.00441102218270191, -0.0030537820819651366, 0.004400569599288118, 0.0024792742762734074, 0.002148591393721636, -0.0003278316152888341, 0.0032113875740443477, -0.0036140240849789093, 0.004254493307730656, -0.002513657733547121, 0.004174501023030513, -0.0011743401785148837, -6.27392539977397e-05, 0.0003116587506818509, -0.003770828710974423, -0.0007133458880956397, 1.0576642968547114e-05, -0.00023676930754649541, 0.005218174514271493, -0.004443762928992855, -0.0007239342963583653, 0.0001640031065925995, -0.0048375937888412305, 0.0020993332467209237, -0.001624206204316758, -0.00034603478925715714, -0.0020010198057242488, 0.002901558648253093, -0.0016988862871889863, -0.0005321542700823379, -0.0025003673067489364, 0.0003310552438516964, -0.0014119486038944799, 0.003955760310779209, 0.004777274226555366, 0.0017326752167032655, -0.0005687157429878974, 0.0017645194646783147, -0.00287157102465152, -0.002637537976848392, 0.004258815796811834], [-0.0029462843034114426, -0.00045804285816760726, 0.0007616232547458475, 0.003487705477036535, 0.000979802397995393, -0.004618444579831566, -0.003984451751438488, -0.0008428433411908954, -0.0019507224962074532, -0.0018358427678970344, -0.0039018469766900587, -0.0032989697514879224, 0.003824102076203881, -0.002120220370816165, 0.003821857842959279, 0.0038415208271645627, -0.00018500367301899784, -0.0025267112682997653, 0.00128335484466228, 0.0037179946372572106, 0.001418773397505323, -0.0010064124728174633, -0.0005011199959414049, 0.003908182663275035, 0.0007027219361938346, -0.0011210730659843818, -0.003161110808226013, 0.001131485115949101, 0.0002024563690448224, -0.003831651096032128, 0.004382014527519815, -0.002469915469562798, -0.0021566418916873433, 0.001056513991843605, 0.00213954781526189, -0.0003500196999022856, 0.0017039671647535056, -0.0024422098561230916, -0.002494871321070592, 0.0014932784515720653, 0.0005845827028305706, 0.003654373844107281, -0.004273778878568293, -0.0035693917784734848, 0.0007294675428501432, 0.004332639111008351, -0.0003743182897311965, 0.0024406381601568845, 0.004449452150448888, -0.0005895368846253154, 0.000578401784608376, 0.0011766788941725585, -0.0012455373192303294, -0.0012132657036349438, 0.0011377519944250683, -0.00029936468274184395, -0.0010378222444708818, -0.0006314591618228639, 0.000792410980188974, -0.0005560424860726717, -0.001664553175864515, 0.0018128491725783356, -0.0034010153338874314, -0.0009503868375840969, -0.004651013561891971, -0.0034941611535320174, 0.0026627839674091968, 0.0021301850938929413, 0.0025001645101667713, -0.001190505451469021, 0.003272595523376265, -0.002699477380729073, 0.001595586322467624, 0.003776888465287274, -0.00426727433452587, -0.003911148224481448, -0.002704730436090282, 0.0017623136816696146, 0.003225580606428654, 0.002195772330547818, -0.0030201128588447034, -0.0014256186800832564, 0.0006741376362644482, 0.002629293442321538, -0.0027615864917793394, 0.0030125315442650212, -0.0022708765945244564, -0.0018528677395771992, -0.004034953991958916, 0.003425492345509413, -0.0030049622979024296, 0.0017491383208594953, -0.003478770386990359, 0.002272083034353578, 0.003012157916761584, 0.00340760554295976, -0.0035737021410966953, 0.004356931667940462, -0.0043874171275841214, 0.0010125361869639253, -0.0001774019472458372, 0.0013195760588694773, -0.00019313753550011551, 0.004073897022601593, -0.0017486108991169483, 9.769754209670285e-05, 0.0035387412337919495, -0.0017039645496386901, -0.001044075173484792, 0.0017883215317077317, -0.0014883598598219921, -0.004874113575342766, 0.00363112233011844, -0.0023490558127835575, -0.00019328365841580355, -0.002101118528182541, 0.0032359719510172964, -0.004605405579134315, -0.0033802148431527302, -0.0018272515437222946, -0.0015336864047013161, -0.000839921546772917, -0.0026901051853264937, -0.0024969337100571418, -0.0030794541461012033, 0.0037691762774434523, -0.004203194459532886, -0.0003533769760311364, 0.004336882334513912, 0.0021711314822785415, -0.0015443333648215817, 0.0018152705723097893, 0.004061864796603567, -0.004731539506975566, -0.004140966717897429, 0.002177238984144613, -0.0004445491236680886, -0.00347171437662392, 0.004948486507974424, -0.002996827936013326, 0.004075098093788341, 0.002287190236541769, -0.0020597142133199917, 0.0021338895090003886, -0.0016385336766002098, -0.0038924805213842915, -0.0015157789521053613, 0.003893170758732923, -0.002369211637852605, 0.002597778440226861, -0.004955480590852179, 0.004260943758280597, 0.004179567286470591, 0.000966631741845434, 0.0047014094879955235, 0.00286577294332085, 0.0038569190512290673, -0.002025554363024897, -0.00451296338003387, 0.0028910625014753476, -0.004215675787542436, 0.0031762789143491617, 0.004258286173257433, 0.003579524478158288, -0.004067450762594234, -0.004137243416954548, -0.0019502397209173942, -0.0007492228914085764, 0.0008602217506324554, -0.0006395333014531559, 4.16370129800409e-05, 0.0008331220275545316, 0.0003669093193424707, -0.0021474261806044754, -0.001999348603516926, 0.002750950910327545, -0.0024469829233828067, 0.004456249717651428, 0.0030057620378116487, 0.0042196904260054045, 0.002995207452608298, -0.0004969213829259064, 0.0007886014560620388, -0.003224369290736064, 0.0011009645326564182, -0.0023036743827845817, 0.0037937779107779673, 0.004225958887548106, -0.00037110574563139635, 0.0003116137551411868, -0.001996466352048642, 0.0042711286043298205, 0.004380249371001548, -0.002803210996396671, 0.0009659785881279524, -0.0013052248585972773, -0.0020460557016591307, -0.001614384211323466, -0.004925324998103694, -0.004947345127095599], [-0.0013345084719938963, -0.0008678837921437684, -0.0018124535429684587, -0.003121412684506822, -0.00459773494655506, -0.004505265308925767, 0.0009100784796031053, -0.005293207361404485, -0.0028468307716100053, -0.0037005286865320866, -0.0031620176798582873, -0.0024450095879455323, 0.0018401049020168533, 0.003914031251066133, 0.0029935663961456315, -0.005514808220946339, 0.0018295609456515103, 0.00015786919758222802, -0.0008528714261168482, -0.0018390742470462574, 0.0033266212859233407, 0.002227144468258815, -0.0009566128792203074, -0.004358138335059035, -0.0007962349490651888, 0.0011626401559501984, -0.0029494007147392843, -0.0035040439945179316, -3.994053795625204e-05, -0.00030153715714732456, 0.00027217924133583136, -0.00456143823025721, 0.003466081974738743, -0.0013750756627985915, -0.0022931355269274058, -0.003165987601528545, -0.00028349277549868604, 0.0038804947871910267, -0.005060434590724976, -0.0038566096978262026, 0.00188328762302388, 0.002148243499385141, -0.0012215673765058365, -0.0013255536670974761, 0.0016200721785992077, 0.0013878221556704446, -0.005625847353278218, -0.004490450402268723, 0.0002896958954421195, -0.003380839216900002, -0.004223974296296419, -0.006731602107427438, -3.2704513937732396e-05, 0.00475859217078175, -0.0033551984374577885, -0.004212476520188084, 0.00030879002966550505, -0.000821670954994054, 0.0012983136725628558, 0.0034926340720568775, -0.005003925873702143, 0.0013797105323186992, -0.0023315981424812883, -0.0009571940351472744, 6.483085879266197e-05, -0.0045959636765501, -0.001837058536716765, -0.0002211023388204059, -0.002583864959209365, -0.0007663463301744502, 0.001063391580913509, 0.006095346580638772, -0.0040472145584960146, 0.0037975337217479163, -0.002257560677816926, 0.003962724240767783, -0.0037798623805147323, -0.0018263138917672713, 0.0018985171551436791, -0.0014751777271183148, 0.002627232778008763, -0.005282360528732679, -0.0039597153437536305, -0.0032695365710941194, 0.0025991434764210245, 0.0019859510615844265, 0.002146386103984993, -0.004513642247396667, 0.0022248785841562564, -0.0025499119266307983, -0.003030348177427138, 0.005758586034677079, -0.006689980411659187, 0.0026475040640629856, -0.0022999237469147897, -0.0028197341235553885, -0.0009953034076240885, -0.004044167722276392, -0.00017936317089501817, 0.0009672445617803162, 0.005596037710357259, -0.002032350800887904, 0.00011997220935175262, -0.0021386663620440766, -0.002186498837106059, -0.004637791483901301, 0.00018573357542582005, 0.00271078710229212, -0.004825107437500043, 3.925875043748722e-05, 0.005272893729902378, 1.5132137250448405e-05, -0.0012796200114153777, 0.0027425570157781198, 0.008014961736546339, -0.004705537305113585, 0.003606282372938228, 0.0011281476310563653, 0.0012639078717593421, -0.0029695882478119892, -0.0009370432609391773, 0.0020604311567018084, -0.0006390442796646127, 0.004903271329845134, -0.0015680535389754353, 0.0007334403624678697, 0.0012125162762474412, 0.0017125070970972923, -0.0029408123921238647, 0.0030045294915520813, 0.004200224789619436, -0.0008065789602546156, -0.004292841053039428, 0.00016308560558101468, -0.00026075662444180903, -0.00036945160305862346, -0.0003757851783321856, -0.0017728548990275067, 0.0015686462694517165, -0.006357259646942925, 0.004758238009364968, -0.004705031616880322, 0.0001049681692754481, 0.0018051949576559255, 0.0017062115322895536, -0.006931870911473415, 0.003949467859817613, -0.0009899567741262713, 0.0022038972616012973, 0.0003306609637378681, -0.004311537846198211, -0.0009386790938747091, -0.002327605172254713, -7.320485727219148e-06, -0.0026588531210691483, 0.002957803236581824, -0.0005598740420670877, 0.00179000869902505, -0.004520527386191529, -0.0055606258500472145, 0.00016121351763136898, 0.0010650454561064793, -0.004578852950345868, 0.0018412294680247253, -0.00205707135200649, 0.005025711845321274, -0.0046948727551115454, -0.0027351361986142093, 0.002054182289356828, 0.001740951631519144, -0.006373402584915611, 7.444946307174126e-06, -0.0009273901140739303, 0.002052607857411144, -0.0019928821122944347, 0.0013023869699154017, 0.0035545063655681368, -0.0042699899872871965, -0.0008994025498945153, 5.730059698778529e-05, -0.0003339711833872322, -0.0002199806353295394, 0.00414027059339094, 0.004434434311951878, -0.006691944654324794, 0.007293407341807143, 0.002671956587463352, 0.0029649000506438224, 0.0040698915029191846, -0.003543321556152334, 0.005754035566156038, -0.0025120954547523584, 0.002155581034428527, -0.0031129868708295256, -0.0031806595755672924, -0.0026956164385511963, 0.0004662810856277274, -0.004689509968828048, -0.006840415876927866, -0.0003637538441875068], [0.0025189048413307904, -0.0032714155557878074, 0.007282630259866604, -0.004033049040046445, 0.006801768651322684, 0.005216406318160503, 0.00411936903450383, 0.0028894685341151667, -0.005634908594325588, 0.005620004366027477, -5.851503121108356e-05, -0.0021818419986037534, -0.001135373292189265, 0.0003953245346071796, 0.0001877966299271855, -0.0024102220751974594, 0.00407474002520372, 0.0020248382143570934, -0.004481951185461741, -0.005063066809088638, 0.0003677697490690515, -0.0007866120435166484, 0.0006887693555663503, -0.001155114091592046, -0.002514667386280747, 0.003889336231375638, 9.456427247700836e-05, -0.003316005881050043, 0.00985442937606921, -0.005351628162776663, -0.004527454262431425, -0.00252035719647626, 0.0017115804636011584, 0.0007099402248485615, 0.002398239980122567, 0.00035052635768128003, 0.0033609061766967543, -0.00038852632003248455, -0.001019819177159649, 0.002783850051318679, -0.009119311485432213, 0.0015327469669175033, 0.002537052344619546, 0.0029828076511432566, -0.002718614716144349, 0.005229338140653163, -0.0001925319966484665, -0.003191042649108775, -0.007950552281312393, -0.003963834653203094, -0.003450921791097765, 0.0001010688124705872, -0.002089074592697767, 0.0032889100792389764, 0.004280534318332918, 0.004870443906864372, 0.006813154760673853, -0.006844688540361969, -0.0015854687379605226, -0.0032407039264813575, -0.0018170827183854915, -0.0032488844519878244, -0.0028402882160561134, -0.0005723358841988049, -0.004522338526023567, 0.00606326830637017, -0.0009668019660318205, 0.0032976745409654313, -0.0017164603212799683, -0.0005715753043983522, 0.0018297406166873542, -0.0007661882053766473, -0.002952332798167023, -0.0009648873307833079, 0.0011460017453817075, 0.00140254109571686, -9.794491697660957e-06, -0.00428749444313918, 0.0011442161747420006, -0.0008444877675525092, -0.0034361322085434106, -0.004323442659232825, 0.004409539851069719, -0.002970712777655698, 0.002323268242445045, 0.006069613390120344, 0.007045339272651535, 0.0015462742431499121, 0.0017360366736392792, 0.005934139753338935, -0.0012112875654709486, -0.004665785087443833, 0.0017538448805317522, -0.00028111920611591267, -5.7327676267909356e-05, -0.00169103879945931, 0.002293817190124056, -0.005715165392214455, -0.0019502891269490312, 0.0014466060576697538, 0.003613720648841297, 0.0010016211473322597, 0.007695257069462929, -0.0009457545310148326, 0.0028347214167894507, -0.005448868934249953, -0.00917982798863298, 0.004631848249377128, 0.005540177479927319, -0.0022001321265237724, -6.535618088354973e-05, -0.0013611522960576962, -0.0022615857809930953, 0.004670280287423733, 0.001094729901009516, 0.0034941139402152018, -0.005668716663554999, 0.006272520368987413, -0.0009261866667786402, 0.002039550980789756, -0.001519393311311803, 0.004228251309271611, 0.0023374402250916863, 0.0019138350900863171, 0.00329652057293852, 0.0029494468476971474, -0.00037863056698460203, -0.0018086515261318597, -0.0008933893063322114, -0.0021993322356604014, 0.004242768576588261, -0.0007373678120855143, -0.0009684356323201705, -0.0010263756706985006, -0.006124394469166305, 0.004961162786620312, -0.003602144243433021, -0.004352437421049532, -0.002450482459531928, -0.003681652653564184, -0.004091392467505298, 0.0016538064367855947, 0.0029877870689354927, 0.0015644272223318673, -0.0013062217452785036, 0.005030393165476086, -0.002505171602101718, 0.005014282149995074, 0.0024494162807390807, 0.005024245457531062, 0.0021800839969626203, 0.0013833903296776252, -0.003431946092845418, -0.002618122560312102, -0.0030400984664897706, -0.0008679148183583598, -0.0010062498677409393, -0.005487270136619188, 0.002823353424964403, 0.0024540086869594955, 0.00016397198582669491, -0.0019206866643464789, -0.0010087572854347126, 0.008287450005801403, 0.0018289597161105023, 0.0062611564852078656, 0.007960884352958558, 0.004858458901569871, 0.0068608741611364855, 0.0006734338915701596, 0.0011695068812190477, -2.8689447272393658e-05, 0.0094010806510123, 0.004015724037343569, -0.0004388711159909741, -0.006373334570139531, 0.005258015752494347, -0.004412325139582914, -0.0011602284169275727, -0.0002202203761330517, 0.002594688891039614, -0.0006880033723735698, -0.0036614740187573226, -0.008616821432973421, 0.0020677866140942015, -0.000936098454869421, 0.0026104651741516182, 0.0025420545520657635, -0.005233150247342086, -0.001848287765043821, -0.007754606304172175, 0.0026750185131181954, -0.0014790763532893628, -0.0037804572191654736, 0.005611691333686892, 0.008271060216629746, 0.00112226164210505, 0.001115445771464942, -0.0007178479700167208, -0.00046037115713960444], [-0.003101155933866158, 0.001972783654049108, -0.0018646591041864681, -0.00471558325643897, -0.00373138786286925, -0.004991192777200769, -0.0018917192172521852, 0.0017441737550859798, 0.0009220350868832264, -0.0029944929574315807, 0.00036018554509294724, -0.00401252617823102, 0.0006741514685390149, -0.003443586869178197, -0.00525786868436506, -0.0021845618457264943, -0.0025544849150624807, -0.004032742518977445, -0.0038228719437986645, -0.002037489484896774, 0.004085751657113792, 0.002014426975705159, 0.007231368955282034, -0.0009051057429348788, 0.006153382925108269, -0.004615310658272794, 0.002758581252616492, -0.005081630718133167, 0.0008152997254478475, -0.002661839413348026, -0.0017086645648168165, -0.004045370558847645, -0.0056876203540347035, 0.0033984901840197466, -0.0010423597116853104, 0.004719198401185376, -0.0006294368853549886, 0.0010218372300060835, 0.000975227146634639, -0.0035893341346072785, -0.0021598100360610863, -0.0035371390461127793, 0.0017539767500954042, -0.0008649343334444905, -0.0031856136833509187, -0.002068869238982916, -0.002617786784334879, -0.0012410376408433757, 0.0028490196105561685, -6.0986753037974806e-05, 0.0031697054210159314, -0.009218589572325978, 0.0002268774449357866, 0.0029510094684101584, -0.000803230129009768, -0.006172156007612459, 0.0012584431464528496, -0.00561024264411253, -0.0025387244805098433, -0.0007321373129124081, -0.0024865708361790934, 0.0045096813878663985, 0.0014636581085476952, -0.00196648122160882, 0.0016852580148077284, -0.0005676116229166, -0.00046097858183529546, -0.0008400634239526292, 0.0032797518830124015, -0.001748871670198509, 8.666947991611625e-05, 0.0023020486750848384, -0.005171882108646355, 0.004737975536673957, 0.0035589721648733633, -0.0015130176881352972, -0.005052089286547969, -0.0037808555760077108, 0.005940163262368574, -0.0016682119245170065, -0.001147123241843641, -0.004014249165168464, -0.006149209224469399, -0.0043214491796574215, 0.0008385263785164287, -0.00425620999017096, -0.0010163155562803985, -0.00531516523820667, -0.0045599749581095, -0.004015666666621686, 0.002671683863197287, 0.008879899029892257, -0.0029036168630286636, -0.0011275486313332827, -7.565988349716181e-05, 0.0020165848602543474, 0.0007286209264872422, 0.0006686660888350482, 0.004893326107507215, -0.0017754479489842624, 0.00575183273517045, -0.00392025354277417, -0.003872631457696616, 0.0006395827724415935, -0.004186605560811453, 0.0002406439769005557, 0.0018470080665373566, -0.005715925848205806, -0.005469954139030658, 0.0019820030182379758, -0.0011580398469061492, 0.0013786686196076807, 0.0019388842948613052, -0.005645670651329617, 0.0054696739608875245, -0.0017574224256539882, 0.0030962501437921423, 0.0018381355735655328, -0.0015991525540647205, -0.005716007386943233, -0.0028857497817664063, 0.004320853653250537, -0.004215403562924213, 0.002953500084899707, -0.001542943289072845, -0.001554831044811315, 0.000715769056613709, 0.0009296463874063768, -0.0016940871541617404, -0.0008637214513488325, -0.004069582671316969, -0.0003133211657426595, -0.004016783197845083, -0.003559778547578264, -0.0016622479755994592, -0.003439596732389034, 0.003972452966293542, 0.0003501074630185536, 0.0030919431190248865, -0.005156101248831374, 0.006465963923648306, -0.0059263788674161115, 0.000755753539724589, 0.0027574921508863094, 0.003031668362583078, -0.0012634954467321386, -0.0024934474722536643, 0.0017660498581138192, 0.0018853869557287747, -0.000374845035911223, -0.0008209407754917205, -0.001942235693747469, 0.0005976808001581179, -0.0022077031972254704, 0.004527281388171689, -0.0037107664681625082, -0.002605267405703061, -0.0023967200835260283, -0.0009177243265363513, -0.005791148259272174, 0.0017377251524485395, 0.0029936973981092357, 0.0007317975944828433, 0.006521202149521902, -0.001829860197713197, 0.002289943244988737, -0.0051172651452306255, -0.003325198856623845, 0.0021377380451832327, -0.0014142106345306172, 0.0002823203119624919, -0.0006886034784350843, -0.003915197570662918, -0.0041131791876196635, -0.001252431494655951, 0.005109530520228512, -0.001979649934536622, -0.0026030134642381388, -0.003098589644693705, -7.713234766361036e-05, -0.0037317422900471488, -0.001589113808978731, 0.007669096242709021, 0.007067564772590506, 0.0018347843287389851, 0.0012323227560534335, -0.006519445386556356, -0.0016216248822400726, 0.0033924078353037256, 0.0029244318033810135, 0.006176398086003281, 0.0005955239719579231, 0.001387692616663444, -0.005908685942123589, -0.0039007057912275414, 0.0030246464916429054, 0.002675529835814639, 0.0016699346749727356, -0.006128117051776324, -0.005789190937864781], [-0.004905191170563673, 0.0007322888433521828, -0.005336670254266714, -0.0003460758443734288, -0.004191648606363179, -0.0007001915078561868, -0.00403657039327316, 0.0023943107658344386, -0.0012675825931343996, -0.0012365941910512403, 0.0028052491580605856, 0.0020878194148914444, 0.000570406547567123, -0.0033226322632547993, 0.002460633932823273, -0.0016979765438255127, -0.0003876541746808886, 0.0015577542491458814, 0.00030947134988618054, 0.0012778569303161997, 0.004682458193758415, 0.002384076968338025, 0.001639847945549512, 0.0034678353542809486, 0.003899564156361977, -0.0013606531809123297, -0.003992583999949327, -0.001820578555383157, -0.00611407908956481, -0.005148737047816889, 0.0004036584003604365, -0.0014047857512324649, -0.003915663484961637, 0.00381910236826215, -0.0022027981335845043, -0.002772256972209955, -0.0017868397716040887, -0.0009277651665191356, -0.002552252952426878, 0.0012240647042129381, 0.0030610710971599227, -0.0015366829891233288, 0.001590046330303628, 0.0015842074157747458, -0.0010558521084085327, -0.0014312398129361142, -0.003258672512300633, -0.0016097490350496263, -0.0025794209572672904, -0.0014049992836593494, 0.004737264052445222, 0.00032341946501892704, -0.0017038343233133284, 0.00406848082432096, -0.003677978912703696, -0.0031244469591576235, -0.003160576517056384, -0.0018855501291188887, 0.004071344267329058, -0.00025310201685943535, -0.002384068904233825, 0.0018024243002712412, 8.549879277348889e-05, -0.0012608235209508318, -0.004931821326251969, 0.002471003825755078, 0.0007742757782870928, -0.0017122718123860922, -0.0011812923778863767, 0.00302848995180805, -0.0021955179176412864, 0.006593161714029563, -6.687413880787281e-05, 0.003416293700337123, -0.002871164535635535, -0.003116446442879024, -0.004246048340141099, 0.0005292969906931903, 0.01019837715670077, 0.0022455579185021216, -0.005363828005997616, -0.002879721337216628, 0.0021025053649869263, -0.0008188794685110176, -0.0022510165567716334, 0.002947232517505272, 0.002996669824603842, -0.002362266794698437, -0.0009401590707075974, 0.00040307540721440084, 0.0023541337283048934, 0.0045662883216367744, -0.0013978175170589002, -0.0016466514078984642, -0.0012355545303784155, 0.0018762868391924775, 0.0007682273381665548, -0.0004694803169081573, 0.0035892933288556475, 0.0012532959452647328, 0.005568725617386913, -0.006077766993061933, 0.0024539296685258966, 0.004278086373823653, -0.005111287734298549, 0.0034914644281732166, 0.0032158726976532588, 0.0010895513804199005, -0.0011761877113449846, 0.0019318861049104066, -0.0022928468786472737, 0.0008108518018985571, 0.0006149819413948285, 0.0028326930134119246, 0.010568250801899009, -0.004165522073790457, -0.0004692957060642921, -0.0031137028080022748, 0.0016640643135070183, 0.0015408402224485085, 0.0035301416052155575, -0.0029254289585261208, 0.0035673965503831484, 9.054556619496729e-05, -0.0018451398650237425, -0.0036166968461885923, -0.0014656815139312451, -0.005073775558564815, -0.004234184905301444, 0.0026758071461999004, 0.0015832548783331656, -0.0005612490502916225, 0.003324874920311745, 0.003565983938042637, -0.0018303476648748077, -0.0021606387034277014, 0.003995962612040467, -0.0027652485856977556, 0.0029382285776739484, -0.005413008322868442, -0.003275264614161961, 0.002657436826107268, -0.0007937071442995008, -0.0032030203128590616, -0.0010297710071169677, 0.0017161998812973828, -1.1862044013026853e-05, -0.0001459514843699908, 0.00019702897941425757, -0.0014507770220692196, -0.0009272534021550759, 0.002550706388060731, 0.0020251781270587427, -0.002694845212183418, 0.0035101837977932937, -0.004473483247063265, 0.0005805562514201266, 0.0012776236371395114, -0.002107300161174938, -0.004394043923858562, -0.0037217198269963525, 0.0021825858035184813, 0.0010517725776114481, 0.0008978475448592728, -0.0049090691183809295, 0.0035443821558947732, -1.9066447018445175e-05, -0.0043037226679945575, -0.0010549989711998715, -0.0023140687118087867, 0.00130024274862473, -0.0029698155532586665, -0.001999159475993391, -0.0026618800101862617, 0.001784168157212261, 0.003957652004679106, 0.004396181640397455, 0.00218129468191529, -0.0033800418984273046, 0.0011812846658922698, 0.0032124288448969695, -0.0033873994013422217, 0.0046996024354491114, 0.001501236103018897, -0.0006182241203067398, -0.0008855626345410855, -0.004516091966600877, 0.001684919164204921, 0.002392405009544304, -0.0005540049666959739, 0.0031693320033513044, 0.0012023811979235343, 0.0032788880557705173, 0.0001995540050313993, -0.0006479384990808145, -0.0013486526853739138, -0.0023783663156304318, -0.0018250440173820032, -0.004092925328017603, -0.005781955743692493], [0.002466611524203509, -0.0063037255766805345, 0.004674464475288048, 0.002944205294150915, -0.0001714515624854886, 0.0019030836322659023, 0.0005769610331659087, 0.0006233404838117423, -0.0037629508244069114, 0.0016602889562467426, 0.0026752732218030045, -0.0006337381419659027, -0.006109951599489794, 0.005358514334885321, -0.0037161790683737997, -0.006136778696576461, 0.002637235361223584, 0.000894350233557077, 0.0015734711987125689, 0.0012187742603213742, 0.005372558448151886, -0.002479488433714198, 0.001036113143810858, -0.002730800921283063, 0.006597169376442995, -0.003519908508942451, -0.0006477125934993155, -0.0047920480303682905, -0.0004944801455560927, -0.0027708129374381294, -0.004077570081637678, 0.0016370055655665551, 0.002094667050358353, -0.00046784080039431183, -0.0021872621745828353, -0.005024239564484999, -0.0002929765654861513, 0.002313253620903807, -0.0019999496932736976, -0.0004939795806109143, 0.0028139978794895215, -0.0017355897573530375, 0.001517183307354751, -0.0023682615659034972, 0.0012127052339340272, -0.0034789581253379955, -0.005893096337517644, -0.0013796834029707352, -0.004559520773288032, 0.00244960277180928, 0.00394947707847967, 0.004565411620825177, -0.000960492696548552, 0.0009360835444343231, 0.0025015286552469173, -0.005648180698876699, -0.0012073251946755643, 0.0004864747889847964, -0.0028235114740162125, -0.004600094639902501, 0.00042597858048590536, -0.0008037234474960117, 0.0012297503210148227, -0.005316590438281695, -0.0022058181606706053, 0.003600971579324131, -0.0009573193518248571, 0.003720303778788128, -0.004281994785214701, 0.0002892479977105457, 0.008420816340397477, -0.0008409094301880753, -0.0027486107444984506, -0.001608733444441147, 0.0037574237799183293, 0.0045930146198122765, 0.0026713432255459023, -0.003237948127305535, 0.0017261752716417412, -0.004067998916263129, -0.0011786243256900234, 0.0006283830154986109, 0.007661514684279264, -0.00462537658910868, 0.0024726879847860833, -0.005588698282565419, 0.002523579736588043, 0.0006804317028006112, 0.0027180554780631165, -0.0042639500875317335, 0.002416343199043009, 0.00616287617376934, 0.006521006860466597, 0.001221119284117233, 0.0018854287108113982, -0.004035568159737802, -0.0006549362210855552, 0.001478814175535975, 0.0015853036429639613, -0.0005669868004528185, 0.005568011462105956, -0.0013943515366155756, 0.002117187167052339, -0.001871827265868506, -0.006015806016959655, -0.0021072707283355183, -0.0019174073584543245, 8.591262131545193e-05, -0.0010371092953791693, -0.003648389266612572, -0.0065416104384791425, -0.001454031885949552, -0.003816363650474235, -0.004066984052494579, -0.0014085080614077987, 0.0012685595445354903, -0.0005594016110360717, 0.0036771067388911547, -0.0026817128988692717, 0.00279451364981821, 1.3574650142410003e-05, -0.004814092959035328, 0.00184735114571826, -0.0020382182232979054, 0.003242676626566744, 0.004672019064378835, -0.003920030576545144, -0.004051329241990338, -0.0012892145024874517, 0.0056505673443367835, -0.0019751280089881453, -0.001977733964440371, -0.0005597995125298542, -0.0009837272978248514, 0.001880745809811531, 0.0006838817513216556, -0.00677815570099886, -0.0029943528877406905, 0.006224723437307473, -0.006439597675757741, -0.0016085134387966756, 0.002278794649014839, -0.0007100786815430725, -0.006406834108555616, 0.0009662827931965652, 0.004013720267848162, 0.003211582742120123, -0.0021592318186198197, -0.0019433699993163947, 0.0031827035461230563, -0.0018381735946594343, 0.002131441086646386, -0.0003365770882785532, 0.0022163097814681867, 0.001011403044054905, -0.0001464707902313869, 0.0016782351432292966, -0.0010313935225979287, -0.0016477725882461712, -0.00022272498444043725, 0.0004766555350542833, -0.00010766032976618794, -0.0023430490019264207, 0.0015442891044274137, -0.002940699900355285, -0.0013284807642334228, -0.004219831979638395, 0.0043649785906473195, -7.19143589173796e-05, -0.001820230330908671, -0.00250399979348485, -0.004394989514686336, 0.00025394918154488416, -0.004892015611784696, -0.002725248991566433, -0.004016067345766128, -0.0006264239924656722, 0.0037021253882557606, -0.0016139149438837614, 0.0017509247006722932, -0.005904838320718385, 0.003147693707499641, -0.00112919019937267, 0.001053652166630742, 0.003682957507144908, 0.005991771488398289, 0.003999949289780534, -0.002529045929533784, -0.0004128427391176379, -0.0019502526911119999, 0.0007836066139591182, -0.0013407299275042135, -0.003854416083527119, -0.00592271577287323, -0.0010027366967700082, -0.0013552192502887513, -0.0013752094202603617, -0.001237521898819884, -0.003357690108719255, -0.0024538188481372024], [-0.00486608020078629, -0.0016592782932843733, -0.0010443249979397275, 0.002809647645495093, -0.0020534249713894392, 0.00017979827952652002, -1.3461272188546708e-05, 0.0035557178340863247, -0.00031794839127237027, -6.709954665881076e-06, 0.0036369230990214068, -0.003996633466092152, -0.002467073688015783, 0.0009452556661379798, 0.0017990526419927094, 0.0015172063020632454, 0.0029760986095152962, -0.0034488503979378075, -0.003424760012659122, -0.002768472570323295, 0.001171962543230602, -0.0002460463862737972, 0.0011723731712456715, 0.002611370175293404, -0.0016603542420137206, 1.8617115494100183e-05, -0.002902048052656371, -0.00021613171528345784, 0.003726355021336122, -0.0038557383845415987, 0.0031823031896349887, -0.004863487511581024, 0.0037001334303728792, -0.00124853384196607, -0.005626044399740709, 0.006569591843454605, -0.003491927561080056, 0.004993474854007257, -0.004485639496905324, -0.005171270231150907, -0.003065770483171758, 0.0012723819693929526, 0.0027780737812908365, 0.0022775312618868605, -0.004430859211571081, -0.0034085216250913236, -0.0029257012468949712, -0.002232863642332835, 0.002906819901377489, 0.0036902928471657724, -0.0039943180933208955, 0.0023106800583891887, -0.000495898590768981, -0.0043699793434767145, -0.0028075015838754467, 0.0012562890776278374, -0.0013039918019242273, -0.0019494804902358866, 0.0011257418140952235, 0.00040396961046971, -0.004035678927550178, -0.0010250307712321694, 0.002752754229508538, 0.001320825569214258, -0.0026146658152617157, 0.0007226457602675455, 0.0019510473385566571, -0.0018992620547215514, 0.0015513259586933347, -0.005243868024525731, 0.002035278968940412, 0.0006272782227297898, -0.0005347283487365026, -0.00022774607029462445, 0.0032525952770101683, 0.0005516619012904252, 0.0018110088511430519, -0.0015298841997358815, -0.00013233727872112051, -0.0015588202292882319, -0.003855560975467081, -0.004430361285011427, -0.00360852032643444, 0.004213261845134774, -0.002976731677305889, -0.004492445711439927, -0.005064335562381847, -0.0004959392124242107, -0.005180961866606817, 0.0019399515962600416, -0.0006109252101736417, 0.0021953613208179346, -0.006704203038556779, -0.0006613167241026543, 0.0035655496996801978, -0.004157401291069782, 0.0004858084859972695, -0.003522861466893377, -0.0034399602483538554, 0.001064596882686759, -0.002260526690985921, -0.002442389428075588, -0.0029777998513797034, -0.00496995156017782, -0.0019177368383124455, 0.0034268453083276984, -0.001995929074244661, 0.002623167861776667, 0.002650701078258366, 0.0010973869558617959, 0.004781799266665614, 0.0024629645827190013, 0.0007669316708149525, -0.004349823742883268, 0.0071248759218485455, 0.003857601068642633, -0.0007119209460963134, 0.0018987287292851365, -0.0013400769300189227, 0.0007766138535015544, 0.000520853467692951, -0.0014558937792729556, -0.004166382905551081, 0.0042067669295642865, -0.0038789588562592714, -0.001831676204461629, -0.003277877040863698, -0.002300666509478002, 0.0007682059314601363, 0.0013872880343473574, -0.0032923730338776614, -0.0016670259819870808, -0.004364844776087809, -0.002184734947055281, 0.0013354806714032995, -0.0019044537242383734, -0.0022970401208895945, 0.001114003607535643, 0.0005749765203527922, -0.003895155663694484, 0.005579864729644763, -0.0014407342233211079, -0.0024327053053459845, -0.003986348027024587, 0.002006257356085729, -0.0025416288003765825, -0.0034636703456420856, 0.0011309948244735864, -0.0041106668139932225, -0.0011318013911168147, -0.0025528915433343726, -0.0024472863594176275, -0.0010464346000632352, -0.0005759529012495027, 0.005181191086691858, 0.003068389576005338, -0.0042220938714690095, -0.002089581494011578, 0.0026529408878275904, -0.0024918751886667417, 0.0014972007568504965, -0.0017214196497961427, -0.0001520963820246598, 0.0042511283052280805, 0.0021597464008434094, 0.000910325055472507, -0.0024306670534897023, -5.256270524427078e-05, 0.0007444818891153854, -4.233488256072753e-05, -0.0015692365898281543, -0.0034754833579437195, 0.0006930753788619731, -0.0033938681494431475, 0.0030939183316025095, 0.001407695907298105, -0.00335046913504795, -0.00026937307874985337, -0.0043669830533983114, 0.002688296110474238, 0.002736354925724739, 0.001443801408028209, 0.00354557650203967, 0.0018075356546604407, -0.0017989922815408255, -0.0015554697305676449, -0.002914905465649104, -0.002150161726141164, -0.0017415246560568553, 0.004380684892850322, 0.0015087848487353771, 0.002977107556672552, -0.004614978402644732, 0.0002028253557313064, -0.001660329176796218, -0.004747432400752227, 0.0035335266310020028, 0.0007737789657084812, -0.004607369964285857, -0.002329969789952058], [-0.0022511503816004166, 0.0034243324016017484, -0.00910661647908649, -0.004027848123592933, -0.0021144192269143647, -0.0020125392800214308, 0.0027622134481274613, -0.0014667875570064139, 5.607742162866021e-05, 0.0031764211145734475, -0.0020440906483204365, 5.9857710433433165e-05, 0.00013412478109565875, -0.002072386902717155, 0.005197217895249609, 0.009917850557118711, -0.0058397598072793, 0.0008532452756439312, 0.0008312751722965063, -0.0021747357178657253, -0.0009726766137562379, -0.001470089079757478, -0.0011866424268686772, -0.0014063992855545293, 0.0009765829133881144, 0.00026420527594855166, -0.0003051323635086024, -0.0024784031622675337, -0.0019196837762448452, -0.0002700296594726568, 0.002176269713084575, -0.004035465599482038, -0.0055730754312224035, -0.0038036866815700588, 0.002330822373306721, 0.01217075303017053, -0.0039002278961251754, 0.0024296708849993473, 0.00628222240163832, 0.0013653793822008388, -0.007597974132220966, 0.00018251543275538, 0.002509258963791692, -0.0017329500248533085, -0.0008810491365196827, 0.004014124424386868, 0.0005304377585762376, 0.004614074344497975, 0.0023516061677143437, -0.004035459220071346, -0.0020517440359970876, 0.004727647991411254, -0.0008230417222251665, -0.004565640162204543, -0.002351617310528504, 0.0006418246869188095, -0.00022785387408110638, 0.0015965027778179787, 0.0015184145410776552, -0.002387347865277047, -0.001151180399339493, -0.0007990545803752347, -0.0023886366968856334, -0.004211809864302746, 0.0016691995326295044, 0.0007506532821432741, -4.7119828512454675e-05, -0.00023366573257279575, 0.0004023997309402545, -0.0015952005991642867, -0.00371886978699784, 0.001612375410551246, -0.00042964675400466036, 0.004673910845498836, -0.0029065021931019308, 0.0004187536266893907, -0.0004269735473024104, 0.0008448208467548298, 0.004908610776817174, 0.0009888670250026732, 0.001347784023443226, -0.0028368719347782, 0.004538443819970718, -0.001135088549149033, 0.005477748235189492, -0.002456936641649417, 0.0010551632751948099, 0.00012781046500012376, -0.003521789784550106, -0.0013032310531190029, -0.0001669658726852969, -0.0007501576059699257, -0.0015177453750669177, 0.004484901939399099, 0.0014600289853023596, -0.003853613989865859, -0.0006720760484189328, -0.0019373589733609905, 0.006192783952487277, 0.0005890540612193833, 0.0007088881021661462, -0.006076835097881229, -0.003769746043748268, -0.002401005388248201, -0.0036316332753080294, -0.0016014374745366609, 0.004492919638215982, -0.0017704441558415043, 0.001467810727762952, -0.0014166997301515666, 0.002684028338087303, 0.0006223448141864085, -0.0016818375755539173, 0.001165070561363262, -0.0038733500935765647, 0.004662449929882053, 0.0006604859475375706, 0.002853615432306776, -0.0036064543626109754, 0.0032595623092427813, 0.0029181266529066463, -0.004635395093770535, -0.0028846763125706327, 0.0021537982982282205, 0.0019946360966874277, -0.005615967320466904, -0.0007436645907868474, 0.0016054722356763772, 0.003637409474822504, 0.0019454828551285766, -0.0025634849749479036, -0.0010790361231743453, 0.004806945443459055, -0.0014110320424694667, 0.004937484063250718, -9.053624901614863e-05, -0.0014741763273677356, 0.004538909491005586, 0.000995447226048506, 0.004320417121449601, 0.006667536446528722, 0.003662613662466949, 0.00033326386001486817, 0.002875561496064124, 0.0014547979275615155, 0.0029466772107148843, -0.002227204053579931, -0.0019607122665232873, -0.0008624295195319585, 0.0015886254333805298, 0.002249284521234331, 0.00531850917603493, 0.0034416233736808545, 0.0053617723662352955, -0.002247096924532896, -0.003459702197616938, -0.0036698825431059237, -0.00039037634965984297, -0.0008748869959433573, 0.002008575016335524, 0.0019514748756444887, -0.0024114511502301046, -0.0019962709037538015, 0.0006086491613257572, -0.00127137358960058, -0.0020053501437752633, -0.001073037058188816, -0.00531430586127079, -0.0010797685986156475, -0.00263953354439003, 0.0012724839535931645, -0.001237485787693553, 0.0008092496908950794, -0.002835891707192007, -0.004054416541999066, -0.0013692723195322055, 0.004847549492377288, 0.004500414759529055, 0.004260371731845967, -0.005402062164728611, 0.0032308169733015046, -0.0031545090921936366, 0.005247855060715583, -0.0007821265219468044, 0.0032525449580474335, -0.002756586241564433, -0.002649691742862185, 0.005377589712223044, -0.0033282625091618596, 0.00036873537141095844, 0.0018469496758711987, 0.002305253492362552, 0.004453128637715717, 0.0020616752186284316, -0.00554202845297558, -0.0036387620171944913, 0.0010223577805532858, 0.0038195116238024258, -0.0037117835115725493, -0.0007873862352013279], [-0.002099532528054583, -0.002576095695322691, 0.000119526774287672, -0.0035191757824763986, 3.507749995596159e-05, 0.004290213687492443, 0.0009648571951678602, 0.005494773575871629, 0.00020725189898366454, -0.0018301327488616527, 0.0029217377268083984, 0.0020188599431204407, 0.00187240685915212, 0.0004531258758936646, 0.0005955943951004562, 0.009985587223442328, -0.0008846166884662228, -0.0013758512433868302, 0.005003020379141286, 0.0018673760074126929, -0.0023084925848598447, -0.0027196908425048422, -0.0034969543676829943, 0.0019137650654469046, 0.005208984443251816, 0.004269572569546811, -0.00444121288749363, 0.0011724806550928947, -0.004746345341661757, 0.0037538927403292974, -0.0014078462952848525, -0.004534846592090163, 0.00299211780309058, -0.00482985024050277, 0.0037376890836596822, 0.011989644580803973, 0.004623183043776814, -0.0044923201572411, 0.0072291971812495906, -0.005303224065489399, -0.005814141417429289, -0.001020830625371345, -0.003899518904217133, -0.0020935186824288512, -0.002585025038669708, 0.0005413464815817014, -4.8527469990004185e-06, 0.002569873556316991, 0.00026496371240466554, 0.0030975586607176926, -0.00017538067565321002, 0.006549410895572871, -0.004173714517191771, 0.00037354280977147517, 0.0017371875344419027, 0.00588173566432784, -0.0004375156594529116, -0.0017379156035861793, 0.00011429303577087526, -0.003307793107277411, 0.0006383352690219921, -0.002329440500610946, -0.0009626537816809307, 0.004696683413076915, -0.0048283854982968865, 0.004085959162908676, -0.0017197372967725122, -0.003267914247112661, -0.000852062637470035, 0.004661490312720386, 0.007377045694562555, 0.001435148189012037, 0.004453676626997032, -0.005197903947998689, 0.002303440371385987, 0.003849706929541598, 0.0018292292175457793, -0.0030568873531163555, 0.006298592332464214, 0.005454378755970796, 0.002378045501761365, 0.0024645980599065863, 0.0028871192074391757, 0.002415267260724946, 0.002971159916981734, -0.0020483183911843305, -0.0026703172740754804, 0.00474098140304929, 0.006139304774697032, 0.0014474337753159058, 0.003390246476869046, -0.0017188121052752994, 0.0009963189414065974, 0.005329089188778434, -0.0008835847822820042, -0.001701463675588089, 0.002041163227964699, -0.006202189866747405, -0.0013466901201103338, 0.004139111042833635, -0.005328576548355303, 0.0015627104323791988, -0.0013274641335140345, 0.003714641963232241, -0.003142045833549962, -0.0009968386164904638, 0.002681661026779745, 0.0036049798500961848, -0.0011800845866428728, 0.004217096909987069, -0.0014685843897034993, 0.0015905353668287045, 0.00145673724604501, -0.0001541754172885694, 0.0027063101477083733, 0.0024755138169027563, -0.0009949093765854791, -7.6100727316975025e-06, 0.003120398875635401, 0.0031183792885659833, 0.002655600392992933, -0.0004046616267659297, -0.003038894541691187, -0.0016055046926696155, 0.003020445005627405, 0.00027410562065568566, -0.00209463685381275, -0.004472059361994944, 0.0017648819878381395, 0.0010301008798180168, 0.003646566381076804, -0.0020801680022120156, 0.003981622019575668, -0.0008312947666255743, 0.00031578451406221846, 0.0033542692310457836, -0.001301878841102046, -0.0036199151738802713, -0.00241821925041743, 0.0004951007943467382, 0.002044668868649039, 0.003207766480040698, 0.0017295630577529365, -0.006472086718041219, -0.003830788075074704, 0.0031621349046525864, 0.006454715003524683, 0.000963406109879126, 0.0037076013686615124, 0.004195868865204472, 0.0016167636287644628, 0.005787794160981499, -0.0017106451566251777, -0.001615045807862444, 0.0050743082886872334, 0.0013247114195808253, 0.0019865595368339975, 0.0002187550063161195, 0.0038952187297529865, 0.0013437312218897233, 0.005336104714840542, 0.0009920482301306044, 0.00039374310222076934, -0.00016758724963995787, 0.0034225809709910356, 0.0009955666910065773, -0.0013447500786465, 0.0042803381735794805, -0.0026300382558800137, 0.0040740907043205704, 0.004012074578152077, 0.006325416767022556, -0.0008706625231180163, 0.004125843230405155, -0.0018009015296429783, -0.005148581025414686, 0.0009473452104498195, -0.0009810429733030453, 0.006201544097667386, 0.0008290833039527584, 0.001908480944973615, 0.003498182256875135, -0.004319329496487107, -0.004560312667303315, 0.006807604826759219, -0.0024623158623869545, -0.0024757659557450564, 0.002336923383032675, -0.005513909694524501, -0.001686464448738829, -0.0020657453398659127, -0.0013192646506668087, -0.003443535242000301, 0.0005064189515153562, 0.002237874280170501, 0.0019283728502276156, 0.004355978230014674, 0.005044311902270346, -0.002711363110995042, -0.004187843390163942], [0.013315636995285799, -0.0010772749134831683, 0.006407201446432123, -0.003129407230962952, 0.0011810098913314301, 0.004089606898005199, -0.0011580951863837518, 0.005718900706940154, 0.001931971606862641, 0.006689229960053724, 0.002801997573554066, 0.0045222045809858655, 0.005723940318969768, -0.00231653827110183, 0.005067790358572762, 0.00257505056690462, 0.0018588787692611114, -0.003745953651103261, 0.006278716684149703, -0.0037404345737123406, 0.005121017921016376, -0.00444508899856937, -0.0012249350514625108, -0.004795858789944767, 0.00887513614869604, 0.0066586650394203865, -0.00608701410621066, -0.0038459979996057075, 0.0015316053030061546, 0.0014078106224281312, 0.0038829152704681147, -0.0025206461549671035, 0.003875520078475407, -0.0038179169234644813, 0.012943774061997404, 0.006815108863248113, 0.008634486696506962, -0.0026708378168000396, 0.0023412142306175267, -0.004966693425326794, -0.00509505185142651, 0.0005851059522236919, -0.0006219576811672995, -0.0031815034264668324, 0.0007888459457593647, 0.0021461756054230344, 0.010595354033146893, 0.004569666185404671, -0.006625268558724416, 0.005470772466817375, 0.000346341705972257, 0.008534639980060496, 0.008319552265719362, 0.004051768915842567, -0.003106865039624483, 0.005815496002196534, 0.013883102650136765, -0.009306468940580764, 0.003395068807576492, 0.0059280250788340035, 0.003847065224174137, -0.015960931187625964, -0.0010818956164524377, -0.0017926508137526154, -0.0006314092128461181, 0.0006398253620608472, -0.004037269057308885, 0.0029098970632004577, -0.002335100233689069, 0.004887628315141868, -0.003897394052610229, 0.002842745457988841, 0.0013952143636658644, -0.004102960752109275, 0.0046206201430508045, 0.007786534109665538, -0.001939029467942475, 0.00834564981682554, 0.001820939597280468, 0.0070248052576871904, 0.0072230918472495345, 0.00021820906588011942, 0.008621820423514084, -0.0005624105350032811, 0.0025407332338452156, -0.002663220236663242, -0.002080045967025733, 0.006586979476814043, 0.0010010170040113, -0.0039505142230395005, -0.001231406738650784, -0.0013086390795413324, -0.0033515060637444856, 0.00664122090705637, 0.0006615904712698445, 0.0032577360037169397, -0.005917551033866706, 0.002838253199555483, 0.0018553029877919215, -0.004451624477203967, -0.0005900086428518125, -0.0068760894529784145, -0.005803654865954416, 0.0003852297790480776, -0.00032654723694406046, 0.0009555051363810908, 0.012371710446266995, -0.007783106896956988, 0.00321865441545751, 0.0017204532601807223, 0.002577262792802152, -0.00044325781974099184, -0.004256554019205694, 0.005017204053639968, 0.00029828020153722023, -0.00492019742718782, 0.005807426738142239, -0.004193257090190171, -0.00500000670883766, -0.0019621765500449882, 0.0026249748748094644, -0.0007549398910097016, 0.0008396633034895121, 0.0033049298055279333, 0.007982800871863935, -0.0012702535826458123, 0.008739851655024404, -0.006500401190029005, -0.00031574480498290034, -0.005287104904399234, 0.0031458806476170366, -0.0014007800707892151, 0.00807158669894077, -0.006187068732070227, -0.0032273299285214, 0.00664715612035072, -0.003775964488210364, 0.0015687608443440203, 0.0002501854811892676, 0.004670879833075314, 0.0016796074974576186, -0.003611040381851827, 0.010043827976300245, -0.003971476598701274, 0.0021817342771732126, -0.0011347343148469808, 8.644856923853646e-05, 0.007439518591474121, -0.001964340049649449, 0.0034389394898187383, 0.005170637320567779, -0.0013523656837358222, 0.004702020637385337, 0.006787534650364741, 0.0005085964217595873, 0.003910640366449451, 0.0023396951795622307, 0.008946441411803438, 0.0010888955609941455, 0.0013230672369725152, 0.0016115738034296805, -0.0022071906421312626, 0.006402010279812308, -0.0023076366662721074, 0.00622888732009757, -0.0015163804381645755, -0.0009814556133397833, -0.0025820534207402577, -0.012227881642697348, 0.00392461835212692, 0.010378681952270362, 0.004690845959313429, 0.006942057744117156, 0.0017933508436410097, 0.01566125452249186, 0.011839400283627814, 0.0013464265682402508, 0.004838720764649379, 0.00783661749764559, -0.0019120061706953027, -0.00038523946821447474, 0.0031482746384667347, -0.011577572285318841, 0.00019100737287748305, -0.004894554697371959, -0.00014314357541109275, -7.754934637370192e-05, 0.006913128202901231, -0.00762257997756542, 0.0003919643714937862, -0.0017842715868703783, 0.002363460268942704, 0.0024905942235893693, -0.0066638673247498914, -0.0042920229368216285, -0.003712265492946708, 0.010811861656211577, 0.005945883788258848, -0.016177817524114402, -0.00402916023181873], [0.0071405384392530784, -0.007288363440795866, 0.011391831084616227, -0.00738551197702567, 0.0070380495120741056, -0.0034704360715451963, 0.002995205688934497, -0.007119257173974151, 0.00386420130647562, 0.005551590328206608, -0.003276251966106753, -0.0007328411681004246, -0.00044157641452855656, 0.0017931480431878286, 0.004714738538644785, -0.009563453434578983, 0.0030983412462282007, -0.0012601899747477431, 0.004592918055862964, 0.0006231694198052761, 0.0008009411215187764, 0.004772359327479583, -0.007082447765588189, -0.003476715993961831, -0.005818939238674957, -0.003477857558134662, -0.004509749457526316, -0.0057194471180185115, -0.00027637920493694246, -0.0028560809766323757, 0.0008380604476658538, -0.0014588177524839552, 0.006888949061015162, -0.004117256167934859, 0.0022645943093968245, -0.00586865257830534, 0.00976602331057334, 0.0012207549655408687, -0.004574157761440892, -0.00149890478081983, 0.005683509697051386, 0.0025650569479147393, 0.0019835905224293657, 0.0008496186560955615, 0.002764414087535189, -0.0047862562435342, 0.006298113409129448, -0.003350278427790713, 0.00369632655832453, 0.0017815796726845428, -0.0024240160863094745, -0.0014554518837404159, 0.008784809116865036, -0.0022104827527010696, -0.005719190880155706, -0.0002357453208942848, 0.011160360447228694, -0.004603884128638833, 0.0009244776441987275, -0.0007263210283691594, 0.001908041836565459, -0.004786169052887438, -0.005067221327961509, -0.0029147975137605946, 0.0012456464296141897, 0.001031540334873556, 0.0041321933455012805, 0.0037355533654517565, -0.0018061830901373607, -0.0005862858587497433, -0.006342044274720562, 0.006455878303454556, -0.00011165287515176725, -0.006512552802616663, 0.0037728003916322325, 0.006017059978222175, -0.0063780443405347794, 0.0031465998823267047, -0.0036460654895346927, 0.004515227895856448, 0.003615604765061016, 0.002216205666509555, -0.009327018009922472, -5.931525199370651e-05, 0.0001516597465793272, -0.005227901920394776, -0.003744457629064248, -0.006069310145324918, -0.003841816637058319, -0.0015419244981323783, -0.0009003185521520039, -0.0033014775988260132, -0.004052603351126109, -0.0044562674805383295, 0.004654201206442925, 0.008378433268551337, -0.0005536242104196632, 0.0037209920270228226, 0.0019727271918132004, 0.00026649477502270426, 0.0008245937541788474, 0.000964893807592652, 1.8771271550091153e-05, 0.0020153567165957153, 0.004709877582940478, -0.006591418615327685, 0.010879632340749174, -0.00777357327451938, 0.0029679174637241216, -0.0012492104049074198, 0.0006804534554815843, -0.005965506230436025, -0.008520578099878476, 0.004834230527219039, 6.788827703282348e-05, -0.0026102656177486787, 0.0033393483029766024, -0.00721552298279188, -0.007218321022390005, -0.0003640009753390063, -0.0005756157226236088, 0.006797682990251884, -0.007633636757081834, -0.0042135551341999635, 0.008033473274483586, -0.0013594093840505728, 0.009246202063099429, -0.001684510303606265, 0.004189825167430033, -0.015392778995549682, 0.0011068360583346218, -0.0031942126257472523, -0.003016618626056759, -0.00063631748071739, -0.004626525668757595, 0.0005218071053487962, -0.0022991694179272295, 0.0020492462735784197, 0.0010496150665735967, 0.00048570157988156806, -0.00847693240938314, -0.002134284171743055, 0.01361058610043255, 0.0002022035277578824, 0.0028185478458666088, -0.0066923197270560555, -0.00436640093525665, 0.00697524151257689, 0.0007123031053264737, -0.0036919586356886592, -0.0009592969633650617, -0.001969980465881732, 0.006480131264173912, 0.005074981370482602, 0.002879335023745155, 0.005449873786684195, -0.0012623065680602646, 0.008397137439098968, 0.005347676693674367, -0.005383991829608574, -0.004392949487913148, 0.00014286061287052072, 0.0029001799240747465, -0.0015635068813760376, 0.002734441412997318, -0.005516594853304072, -0.010162570581800376, 0.00033000713625347763, -0.012382545191340407, 0.004083784449100734, -0.0010926019332739715, -0.006282619172881912, 0.00045373197109409204, -7.978126976893809e-05, 0.008480404775120461, 0.006115570860451171, -0.0075221396409871424, -0.004106784835602941, 0.0005143634370367161, -0.004833366304687883, -0.0038451519430121733, 0.004556273952326689, -0.006318560841005225, -0.004610465784934983, -0.006269428557323902, 0.002121043874203308, -0.000558363989815513, 0.008118295434829222, -0.0025713473925792303, 0.001636814998273507, -0.009652650876017597, -0.0037411416477021843, 0.0026875618287691303, -0.008530302816180944, -0.007023021588549354, 0.0008785872425781111, 0.009660745378483422, 0.0038234161205762804, -0.016732763430560592, -0.0009791715191924959], [0.007001144714059763, -0.0009020355378438578, 0.009663484263855117, -0.00017743042278212627, 0.0013014179278711718, -0.00643426722795085, -0.0023632800235297694, -0.007106711054965948, 0.007056934414421853, 0.006877942360744084, -0.0016716650685709292, -0.005327932918503523, -0.0022682714005959723, -0.00045152285837038637, 0.00263153087149931, -0.008514676777124117, -0.0006982534887271909, -0.007350631732321716, -0.0009431389752423724, -0.0006401424865282823, -0.00017437087924282904, 0.007998091451667529, -0.008286599751356847, -0.0006802437371897946, -0.006099507350156792, -0.0020112181939191446, -0.0018720660051026168, -0.005435999620960606, 0.0006481828323528757, -0.0007901369248909424, -0.0012942866553094009, -0.00317989400261943, 0.0026028879493699454, 0.001125942119824732, 0.0007498201045651908, -0.013500879265110871, 0.0032876591488715887, -0.0014492492181915496, -6.424827713686765e-05, -0.0060351390476801586, 0.007469539348640777, 0.0022269602813995903, -0.0007967671995214396, -0.006185705386314491, -0.004493296417294715, -0.0033342081037087334, -0.0006190931678798023, -0.006382165493650222, 0.004900092506293691, 0.004119252823218961, -0.0057455481402382295, -0.010643710355567085, 0.010068553242189792, -0.0019626237333647905, -0.008249786657766727, -0.0006593839108580674, -0.000676740272065607, 0.0016645660140822333, -0.005005298668354173, -0.003333213446101305, -0.0037046856919902087, -0.0031437905354063057, -0.0037290574434139102, -0.002383399887028787, -0.003265444132084869, 0.001827197763161652, 0.01358420691239957, 0.004411903796834239, 0.0012321684123350154, -0.00023151560617247656, -0.004393772058041748, 0.005570928486657817, 0.0003047546156133057, -0.000637004169887353, 0.003852388479875227, -0.0018477079677959739, -0.0008367136709711916, 0.003958340258408938, -0.005386485952610769, -0.0011956815208640224, 0.0014013671116204591, -0.005136952589484227, -0.019496019232396467, 0.002871260118664313, -0.000602031565442861, -0.0011725435226188513, -0.004770479511862271, -0.0076300331170986715, -0.002549252105448374, 0.0016759793721837645, -0.004066900073170306, 0.0012495967891820183, -0.001783124332543284, -0.001588375741941761, 0.001244124444394655, 0.006464417052923213, 0.001741646924826277, 0.007459166988160825, -0.00107233521632925, 0.000319099167139276, 0.011746693834022399, 0.0004166444560093545, 0.005865338814829781, -0.007544286537114664, 0.005374226006194444, 0.001073200136286832, 0.003446987073538448, -0.00501995155939103, -0.003246930949335033, -0.006479633633112113, -0.0013180968533683184, -0.0032603517289139174, 0.0022283694905305, 0.002964600903338179, 0.005828289951630765, -0.006764464456554073, -0.0013233700730633322, 0.0016196672041220547, -0.006316040688834491, -0.00778532499687238, -0.0021003267783444224, 0.010390322706043453, 0.0018605079677152744, 0.001557518456021592, 0.0032386719941001124, -0.002681067669284381, 0.004226373454203027, -0.0042127090319935894, 0.0010043161114443484, -0.008597935213098266, 0.0025854196535988303, -0.006944124184054461, -0.0018872120445719064, -0.0027137013312509626, -0.006661553527784466, -0.007730142620632513, -0.0049878131927477976, 0.003458608066700341, 0.003947922115297911, 0.0008254403081143722, 0.00015389418796735808, -0.010096659082018332, 0.007754164009580802, -0.0028097918504577293, -0.0026512635137240404, -0.011965144339670086, -0.0010224284338731634, 0.002733304078656233, -0.00022629803767083896, 0.0022069029820624793, -0.0014104680954837863, 0.0022859685819208004, -0.0028627528731795366, 0.0026681426419484086, -0.005657043532585124, -0.004567901143802571, 0.0047385919520182545, 0.008476819047283453, 0.002054758207025204, -0.0016040042394051708, -0.002409247642931957, 0.002185849185336273, 0.002486217244560075, -0.006100530978008412, 0.0030342191831758108, -0.006070683965191273, -0.005568385269016273, -0.0008334826305886158, 0.006648313471541217, -0.003283397065808739, 0.004366619936520258, -0.008524435280692872, 0.0012789687689202633, -0.00392291279910617, 0.007063450510219615, 0.004875728696263958, -0.004211770614078596, -0.00047514545653340044, -0.0036314184055057175, 9.234523568305222e-06, -0.00485479999748345, -0.0025234401150913636, -0.0018513448817175397, -0.005954926689194973, -0.0023708015086831217, -0.0018102195292771428, -0.0054322723400583115, -0.003134185245475805, 0.005353615791521649, 0.0012654045937375523, -0.0016385486270775141, -0.0019641309764038078, 0.0022128814065270615, -0.00856875873116961, -0.008554461993844043, 0.0008226614764239637, 0.0016897330336275247, -0.0015609071481352686, -0.00497962003127956, -0.002224672691261274], [0.017700143900114606, -0.0036120560453223468, 0.016754523406114254, -0.01442119637316124, 0.005071684371401268, -0.0004076739380021842, -0.004144726976277929, -0.00786987281520069, 0.0043342872784442295, 0.0012370527216627764, -0.002374996137386672, -0.005437782357065185, -0.0029772716888268095, -0.002584506995124192, 0.0011571333675028388, -0.015828450765141656, -0.005573043062096252, -0.004911966547747143, -0.0028405503935445002, 0.005847450094469311, 0.0009494169021324648, 0.001069197131581971, -0.015158595134624291, -0.007816555821389261, 0.0035248756746931293, -0.005276655342243881, -0.004494637310583861, -0.0006778993041339417, 0.005097642008447134, -0.006108572609598812, -0.0017707045670808674, -0.010762748911077211, 0.00028716097842917504, -0.0024065540780094097, 0.008382175688112411, -0.00612841337698432, 0.006392029920042516, -0.004770120393950557, 0.0027345516982513803, -0.005618572366357362, -0.008896633756812123, 0.00044385410131343375, -0.0037287746117389275, 0.001239882474484283, -0.0005186070685850321, -0.0034830808654587975, 0.010095233335507778, -0.003017044128092265, 0.010976069456112101, 0.0011148317430927565, -0.002598713056067966, -0.014032387645524601, -0.001379622364416087, -0.008813740759495387, -0.009665720780583404, -0.004263179283809948, -0.0014642414212348782, 0.0009987338907812662, 0.002532166766218438, 0.00359011864456349, 3.209613167514615e-05, -0.004740470013124971, -0.00649406241282173, 0.001394952262873718, 0.0006088316534660778, 0.00013459438047269724, 0.00536709836531441, 0.002903117141429038, -0.0014029035727746453, -0.0033113374028289695, 0.00642801129261003, 0.0066455226581453725, -0.003575369238279898, 0.0006703578965920349, -0.004549529190811121, 0.0029263092565499525, -0.0008323439014602648, -0.003535031791663237, -0.008218537716149523, 0.0009570837227649363, 0.0031919228110406216, -0.0025283717111403907, -0.01936854490024229, 0.0009296072551086386, -0.0070766536198775334, -0.0010628127695214793, -0.005066433966275071, -0.0038734696821395125, 0.0024919151997180138, -0.0012703581257867136, -0.006119818673759984, -0.011178036255055881, 0.0024197002172571904, -0.002596936075783943, -0.000714913691218517, 0.0007370492678641637, -0.0024329054309912357, -0.0017695355825043592, 0.0034302476929855986, -0.0020669172735760665, 0.009087459023866491, 0.0031588816044128853, 0.0016014321135930584, -0.000382368142784899, -0.0031301054941557695, 0.00034910802537801706, 0.002102199922339147, -0.0034187394582403732, 0.004277558560961968, -0.004139188696627201, -0.0016487474878733054, -0.006158477941049202, -0.010267441069971647, 0.00035334105899960134, -0.005322205481438947, -0.0002878012019001722, -0.0038397521092080004, 0.002107270299454797, -0.003320034267958526, 0.0009433007680965708, -0.008149853645963719, 0.0032382986962893627, -0.00889720351080809, -0.004734772719186976, 0.0007416791102457923, 0.006886340774879902, 0.004895268202347264, -0.009224577788020674, 0.0015805704736252374, -0.003970410334509181, -0.0009286841154175253, -0.0017073558534412337, 0.00026512551440279153, -0.008016652004077042, -0.0038044966928856942, -0.00120285586355616, -0.007349358460529565, 0.002104232754971307, -0.00020115761643206263, 0.0006783202962831778, -0.0027672489514525785, 0.0005594321166361721, -0.0020263041324334566, -0.0017205432912961742, -0.0008381114487990175, -0.011630067062020423, -0.005121857995758447, 0.004033417363996499, -0.0014325013830516911, 0.0012431759529470431, -0.0014035072804506794, 0.0012294468222443411, -0.0014779803504426856, -0.004939355430618182, -0.0019914493908513987, -0.0013486921270529295, -0.00838750173904401, -0.004758709278996271, 0.0009822726052958746, -0.00454094636232823, -0.0022042429556793437, -0.001165308695682427, 0.0009441090571596535, 0.00858691407558172, 0.0021975412758103163, -0.0033295573291451494, -0.004722859174528756, -0.0017569498802064453, 0.0057727916745545955, -0.006337611720946634, 0.0068940216788899444, -0.0057589352956304496, 0.011176726865699342, -0.004608761382662668, 0.0013344907793905762, -0.0009669652984316415, -0.0093996061413991, -0.005368857959947096, 0.00722104100086311, -0.001988786416666201, 0.001545870968231013, -0.00415301448257314, -0.007237594627461768, -0.006648636543700121, 0.007931700113267562, -0.012596211996256752, -0.0050929053650883025, 0.0018324023369431035, -0.00586147923290128, -0.0029562077544880547, -0.00819299488782105, -0.002653300277662282, 0.0006483730567573471, -0.003358536901085767, -0.004579660120360013, -0.0022456950763686113, -0.0022182913057011526, 0.00788005623590043, -0.001974467221436973, -0.005030329723391082], [0.01012015815658748, -0.0020562008972062292, 0.010077912829903462, -0.009421131568758213, 0.0038435310544224577, -0.00209694124895863, 0.0015842665855603291, -0.010067603661732738, -0.005555301891240464, 0.00011635337028520108, -0.0018727303898019027, -0.006869521878862657, -0.006478536577523244, -0.0020215884832680965, -0.0019395512489407364, -0.009516982204230156, -0.005151919254515827, -0.0031162101302679547, -0.004871886060528683, -0.002820070128059197, 0.002957559375310506, 0.0002583934735848832, -0.006513871214876615, -0.00458604468127872, -0.005614315446395655, -0.007747409068129514, 0.001383104799131479, -0.0007130574987579144, -0.0016800101825544486, -0.00633156439238433, -0.007050700198996626, -0.006986580810724845, -0.0006091396514010611, 0.00016826142201631033, -0.0002708887609428445, -0.006453782015721974, 0.0006207564789461086, -0.006446187040566057, -0.005654282060395529, -0.0019138532692372916, -0.004088082065210078, -0.001946631571221472, 0.0007390928101704467, 0.0007977486153263505, -0.005338447833931751, -0.004754778493622889, -0.0020218449374190903, -0.0060334886005116465, 0.00536662806948043, -0.0007167142088657343, -0.0057507447336872675, -0.006771504889351593, 0.0025066535692353353, -0.004129255245597405, -0.007428993495783716, -0.0036507667672285556, 0.005705856275384822, -0.004693707437682515, -0.0010110191563633029, 0.0016629139279563151, -0.007183125491633241, 0.0016916291316231107, -0.004433609412243644, 0.0005187897405705099, -0.0021956448672948814, 0.00011538619813284635, 0.01140696026098659, 0.003256557525206395, -0.003960199467881679, 0.0015636586344033798, 0.0032447539256190185, -0.004617131666918161, -0.007839774082933444, -0.0016206878977696457, -0.0022764097682783286, -0.00669700163817817, -0.006624636537443518, -0.0006278305469660545, -0.012061508016064638, 0.0029421142185664063, 0.0018872571542720255, -0.004616514013685496, -0.010045723500219596, -0.003836067785552315, -0.0069849980963358, -0.0045584304070514755, -0.002047691770887782, -0.003218869260856517, -0.007628395796509573, -0.005893509737947734, -0.0008858861491503192, -0.0009105619146035321, 0.009176874476123498, -0.004397055141631364, -0.00435380283972148, -0.00214620156356682, -0.00446008572266716, 0.0007046593863929109, -0.0072444631933399044, -0.006009317901991946, 0.011629474763491878, 0.00011522483463247218, -0.005236589846906001, -0.0006705537105324355, -0.0017391811681495431, -0.004780001899060305, -0.007661373393761763, -4.784447395449429e-05, -0.0036087289050414145, -0.0006163344088240313, -0.002953904506856028, -0.0024301974935134973, -0.009068474472788452, 0.0023485587680823912, -0.006303869929373914, 0.0007849377290868996, 0.0007687368627116166, 0.0011699744135189776, -0.0004837726062468581, -0.007821358685013595, -0.008655966830166374, 0.009163227833442901, -0.003678568650078439, -0.004858048756730652, -0.0022214779633364197, 0.005279325250076401, 0.0010812272772009418, -0.006475310522201237, -0.003008005412267143, -0.0056980900967486215, 5.8028083677304e-06, -0.0003129496769649187, -0.005927325871128763, -0.0030224949061677035, -0.001803983914850775, 0.0027908428392749824, -0.004064573261922429, -0.0009272670456322036, 0.0070057222426778195, -0.0011140039515598612, -0.0014759910784385988, -0.004488027551705638, 0.0005077922020360173, 0.0011353216828128895, 0.0005693129647424161, -0.008388216022665599, -0.0037151028719453576, -0.004380805079535419, -0.003516743240358715, -2.1170180913025804e-06, -0.0010180699430457668, -0.0019059126095787781, -0.0034434972902363686, -0.0015577185170466308, 0.0004923498054999585, -0.0044551548387320485, 0.0005566737360606639, -0.004734975154924635, -0.0022845457780374372, -0.0029499095389719458, -0.0007573430126565577, -0.0008513299841743343, -0.006473522301933898, 0.007965325357446193, -0.005421287691147731, -0.007310130358830335, -4.742899873206263e-05, -0.005462736555465118, 0.0017327765386761299, -0.0003862819561709234, -0.001693519238706282, -0.002133348082323935, 0.008556090413856384, -0.003977973404115566, -0.006103827854929022, -0.003167992520233348, -0.007378012153328693, -0.0023731446499137875, -0.007324700898430188, -0.0050926127557327835, -0.0029196964079438196, 0.0007131844898764418, 0.006293727832501404, -0.003540500587607348, 0.0008051300097248446, -0.00316481084909978, -0.004272614201371408, -0.005185024597692255, 0.002424974544392345, -0.006452603619072547, -0.004598595418137033, -0.0007169486420950919, -0.0026559445148149332, -0.007081570082454619, -0.004299880831638776, 0.0016999983155959741, -0.002363788247461216, 0.003198010550770434, -0.0011607486235403436, 0.0006857567725805507], [-0.004347149688931521, -0.0034958843099563383, 0.0017529849497525964, -0.005334907793594781, -0.000686715733207226, -0.0013072508359963392, -0.007658601360485408, -0.008330813486802736, -0.009518200476843854, -0.003289706122052414, -0.00949143532686616, -0.0038185305913159585, -0.006422211217636178, 0.0011370065637018984, -0.003170019743495978, -0.009659860742931159, -0.006007195728768279, 0.002572940669282216, -0.005388278262248814, 0.0021710255549104245, 0.010048671238766991, 0.008170591274208258, -0.0031635900253222417, -0.0054191392908663925, -0.005039557793525009, -0.0093464931171573, -0.007678788419813877, -0.00474836736543919, -0.001222624370329836, -0.008167142337498304, -0.00963507248543277, -0.008119077268137386, -0.0024164637232751735, -0.005086591627442236, -0.008416078676591379, -0.005781393410253347, -0.005473593012174487, -0.0021711349086392397, -0.00021088867675404547, -0.004776835850308033, 0.00032510341836239413, -0.002168152577492621, -0.006256849738824398, -0.0035684502286017516, -0.008557055892029531, 0.0005391341247360005, -0.004718772600140466, -0.008886507808998923, 0.014704872873730833, -0.00502942950927133, -0.003862727238507737, -0.010324414231266083, 0.0011833893420751303, -0.0021044311845332285, -0.0029107044751956676, -0.0034663858938767124, 0.005721233895303785, -0.007496991641024669, -0.005734627399500774, -0.007851254267429674, -0.0021186090721502975, 0.01243661678268956, -0.006757773481804585, -0.0006260271789765887, -0.0061531412281418405, -0.00045645103614118604, 0.012275821765813811, -0.0026268614225213225, -0.006471642594624774, -0.005585798629884147, 0.010002257977983077, 0.001182175705842367, -0.004374075403616552, -0.0036434047829670634, -0.0037415720813159495, -0.007398684025987271, -0.006873005652233327, -0.006785683007424297, -0.006834523650421131, -0.007551095372198797, -0.00819347566645989, -0.007367348713265907, -0.009875948506969155, -0.008349473204406198, -0.0023586083360204292, -0.004844739186353503, -0.006624388606336674, -0.009562646643022301, -0.0025719184544921274, -0.00876307593894392, -0.004824016954300507, 0.002112194036298683, 0.007113905921299922, -0.006496499027732577, -0.005828900254078283, -0.002862193500826019, -0.0038191889640088682, -0.005682638575386121, -0.009608743899266244, -0.0022152720031039116, 0.01341747098630004, -0.005803979688959286, -0.004475406794875303, -0.0105934883663233, -0.00013697731662331552, -0.008570635352748327, 0.0008455684243916042, -0.0037435516916304876, -0.007216894823217843, -0.00506059565034445, -0.0021666217443533906, -0.009407730483419361, -0.007375732050987777, 0.0017037475311650137, 0.0018302859691133764, -0.008074231800849523, 0.0008886983260065821, -0.0006855515561564406, -0.005736478924871977, -0.009620141336343, -0.009057352461760879, 0.0060546199290708504, -0.004069089159436838, -0.004593974585163721, -0.0016180228708861544, 0.0035959560302612358, -0.002817863628790433, -0.01249138847747597, -0.008737287545497383, -0.0070228188433067605, 0.0011575299493368917, -0.0014107083076613052, -0.010197502711603192, -0.01152121100441842, -0.004917053569634989, -0.004203808624885592, -0.00300645443269864, -0.0020983415329252626, 0.01344391619706463, -0.0026219672119667577, 0.0034217344936015646, -0.011199343060128975, -0.0036629654142115316, -0.006336091999616007, -0.0055076764301546675, -0.00909410950627416, -0.008372571295825519, -0.0019314946400234936, -0.0021219194638371227, -0.0030026604343956686, -0.0049812748749242745, -0.0022297960409991715, -0.00611867845881629, -0.006170989872122337, -0.001228798877791322, -0.008162653254477467, -0.009096798953998054, -0.008927961767481013, -0.003306788986390583, -0.0023591661917128585, -0.0098076296985995, -0.0033011549403743536, -0.0015601593284655494, 0.01556243493575491, -0.01146018716045625, -0.008972776039200391, 0.005457995778659269, -0.011913083729971997, 0.008431970872606512, -0.008373061614089784, -0.0038435911905378532, -0.0038762134013041725, 0.013046389307257303, -0.006112861816217969, -0.004021634068798436, -0.0023078593211560555, -0.003280538384364428, -0.002034119871185695, -0.006982350264909334, -0.005693693510561557, 0.0002369012403994572, -0.0013721986715591796, 0.013321635493196508, -0.00568044903809923, 0.005410207745621924, -0.0008348309108290404, -0.004885040926881, -0.009364066614151954, 0.011245058613154734, -0.006026175510082331, -0.00853952695098585, -0.006335288070702765, -0.005481004174645005, -0.01128231791284054, -0.00573951209863237, -0.002119272863174077, -0.006144750560918816, 0.0022706223174332493, -0.0011541061493420004, -0.002578915729229827], [-0.003986905666385832, -0.009408391517784966, -0.0032627359502125125, -0.007495328271859105, -0.007734331263347965, -0.008019747579982221, -0.004335758440543399, -0.009385199705452223, -0.005871452753211108, -0.004124943006825661, -0.0048876080013148596, -0.010336573542465357, -0.009335594598567719, 0.004806789615897218, -0.0013276438969146193, -0.006311754174367305, -0.007117486498106865, -0.00010732010566570467, -0.010519514214868372, 0.0016491283321003534, 0.010650128431733763, 0.005222886456155854, 0.0013030904873656101, -0.009686351509342071, -0.0014203941906983624, -0.005060724438948288, -0.0020052573750129876, -0.0053437519868970215, -0.004909185204376767, -0.0007349809148499503, -0.008890793228779833, -0.010070312934288365, -0.007712229687538421, -0.0023490290863028723, -0.008078472440418961, -0.003515649171849582, -0.005843599239291689, 0.001598657226643172, -0.0020228537260860036, -0.004321936828833238, -0.0012624765959676424, -0.003972060199024606, -0.0059969494459873925, -0.0004035721649891184, -0.005461319746461183, -0.003200695189471234, -0.0077249476732202645, -0.008905342462376233, 0.00896504908390486, -0.0058980872676507685, 6.4372224755500245e-06, -0.011301644601908481, -0.004638191019077075, -0.004006689112775257, -0.0035702766988485097, -0.008637802522415996, 0.005489288995783349, -0.011952014607076861, -0.008751675505652645, -0.000786797912071876, -0.006812318057612985, 0.015259836893284992, -0.00747886907289194, -0.0022050793386631366, -0.007973784970741533, -0.003827692934427851, 0.01233135642643879, -0.0008535016309463146, -0.00783130579217596, -0.0029396601660790687, 0.010129959550220008, 0.002423548858064105, -0.001845649867500488, 0.0012199720243593025, -0.004330772482003057, -0.009702235339876176, -0.0027112457395145617, -0.002669720973255686, 0.0015303425962193095, -0.005177626142425627, -0.0054687269799533885, -0.007470061589108619, -0.014799332523256414, -0.0036139006446282247, -0.002420997031741683, -0.0044698366500344365, -0.0033522302730549475, -0.012678863859889682, -0.0025153549158392114, -0.009994633866559929, -0.00796220232150939, 0.008247063120156413, 0.0023317425454227173, -0.008631004763088174, -0.006884226107205862, -0.0038058781986497047, -0.007426828387818241, -0.007558164257897193, -0.004708084804214101, -0.0019695465692901857, 0.014113118986131531, -0.0058736895586773575, -7.454109163478397e-05, -0.01003496986146301, -0.002027216659893607, -0.006491905711261284, 0.001834769802254442, -0.0018674303764712088, -0.004214527341495904, -0.010159643595629582, 0.00022704577363620655, -0.0023790012780071004, 0.0010794793794564603, -0.006306168568515189, 0.0029399273079219307, -0.0042326135838235785, 0.000371257658862868, 0.002626697683135345, -0.00935321796243407, -0.0057911101264562104, -0.010653224784937304, 0.006899049836428686, -0.0013800464174801034, -0.0038611383030027354, -0.0050338661911232385, 0.0034710252146404564, -0.0037227782174830706, -0.010569028349505799, -0.0001430200996204375, 0.00030113150620490807, -0.006243863886989557, -0.002788920149158238, -0.012248583760166137, -0.005478682500171218, -0.002528880882794944, -0.0066318882174910675, -0.003772799139696287, -0.0015900462984129885, 0.01842190377490404, -0.00516503727193024, 0.0009437704013626085, -0.009331904631430004, -0.0012578380474443371, -0.010044892146446584, -0.004926541244378638, -0.013891274537275912, -0.007119004850666339, -0.005269426980932933, -0.004478428498980663, -0.004337272543879796, -0.010030218369551766, -0.0019090158326065733, -0.009973481094277254, -0.0016003018858230238, -0.0015798009756167217, -0.008040368095299098, -0.006535914033270979, -0.00613024128811046, -0.009743091438256073, -0.005578959611187748, -0.0067497263912190235, -0.009291191656403708, -0.006788587239242054, 0.017652443194050287, -0.01268411086215294, -0.005569688682210199, 5.717959054774076e-05, -0.01114613948821828, 0.017836922788193727, -0.006251751226782146, -0.007156134584011394, -0.01228894927092888, 0.01520764187172002, -0.0023492987242689045, -0.008849755235582206, -0.0012124446405397315, -0.004567556588459604, -0.010218321736607316, -0.004246160056364958, -0.006699572354414494, -0.009087988221296483, -0.007332211457823218, 0.01810858290977707, 0.001807944114866054, 0.004245407463671197, -6.292470844313854e-05, -0.008292844417222483, -0.003635685973434944, 0.007492832183086954, -0.0013787149961799964, -0.0017400997199700369, -0.008570267892096795, -0.005621206876734402, -0.0048990764007094244, -0.006353469369055874, -0.0016277788882325815, -0.004153010498644785, -0.0044722130918267355, 0.0021924733385889354, -0.00877996315990683], [0.001242382796250645, -0.00713520896881353, 0.004367979739866599, -0.002144396900770324, -0.007966347403825961, -0.006871478262702659, -0.005939685533692004, -0.008234053236124495, -0.006770075095549084, -0.004953453582823856, -0.004853933453254726, -0.004124572170452527, -0.00527487768672021, 0.0034962017488156813, -0.0025567310103546594, -0.005504875503249121, -0.004679678842636656, -0.0014594970919852481, -0.0034345981382375066, -0.003161951292479476, 4.5505483737860965e-05, 0.0033573683801476797, 0.0010560843534250727, -0.006051769181949723, -0.010369799206451445, -0.01052533562850023, -0.00696609511782637, -0.009046065385656865, -0.0022012266998041054, -0.0009417648136454274, -0.0009079306433414202, -0.010012438385617555, -0.002580251178764231, -0.0021606085269920065, -0.010718895975243276, 0.0007695419543043529, -0.001650390573743447, 0.001062716900858828, -0.0042456926904379366, -0.008273182547709802, 0.0039022272018547277, -0.010991920624151308, -0.006991752926170954, -0.006157493340917997, -0.008620084463328669, -0.005893293464697676, -0.008263609275867747, -0.0030599499174948294, 0.008067503687182022, -0.0035044319654742224, -0.0024734431122838017, -0.012382258499951965, 0.004577210029417438, -0.006032751179854704, -0.0072949386336998495, -0.009841007682070468, 0.004440654361324904, -0.007302790679193435, -0.0073233707304200596, -0.003970893247506365, -0.0030917562374385044, 0.014030214647104548, -0.0019435975413812116, -0.0003252295502885361, -0.008158108877244613, -0.006277362100472119, 0.010482776310893567, -0.006326666575745761, -0.003522327315719753, -0.006021859079512161, 0.009955878034776577, -0.007150395076342492, -0.009602111862108548, -0.0017661202288513462, -0.006717155187493112, -0.0035834945654188636, -0.0022168145561723613, -0.0025653679388961646, -0.009857815602838986, -0.002844287822462916, -0.00850963880331301, -0.0032282179153996105, -0.011499042693770589, -0.006431251348359407, -0.007022365622006452, -0.0005519256672764555, -0.009060444419273558, -0.004484491565840004, -0.007227164266027277, -0.012725889216843974, -0.0031000652547769503, 0.0003060291006525332, 0.005788582047843405, -0.00975112856438726, -0.005165063748829276, -0.004286722815210641, -0.0029779003726008143, 0.00351651301663907, -0.007024226196610967, -0.003492734206986508, 0.01091250968639452, -0.001055180014812688, -0.0030960359061661205, -0.006184026401837569, -0.005315657071527481, -0.008927653727523091, -0.0005591320489587893, -0.004660148859919754, -0.005688234447576063, -0.006950501091518167, -0.003528146026410057, -0.007988738180183289, -0.007067877934241284, -0.0031299009263339663, -0.007797142633841043, -0.003659286241959012, 0.0012290074606251208, 0.0030686203385762003, -0.009484660622278705, -0.0068939974851982685, -0.009924898148932602, 0.005280251181367926, -0.0020524405465402033, -0.005422265945884352, -0.006670923190099175, 0.004391342591627442, -0.004912969869498861, -0.009178319931349443, -0.007103059878871928, -0.00870913953930409, -0.005736330733499461, -0.003969776093932893, -0.005624724905890843, -0.013158247567963029, -0.007148192975464329, -0.0005891344163991584, 0.0021369067119724615, -0.0019218241056114783, 0.014437531642303842, -0.00959956942676024, 0.004834327674801602, -0.009049661228668156, 0.0009472793449431066, -0.002746171358458323, -0.007834396762111744, -0.009548607256945136, -0.0024139447281718604, -0.00270832554661065, -0.0030805837931102047, -0.007806731130824895, -0.004406138904221573, -0.0057577174855754885, -0.006281183571932029, -0.005867142715104465, -0.002975263001554549, -0.006259241520231339, -0.004761799097669455, -0.00663878507000182, -0.009772995518178097, -0.009061227545148846, -0.005430926619532096, -0.005044413785638372, -0.0015170513922894693, 0.0125952730181032, -0.010443013155618647, -0.005533642858991493, -0.002164780817829465, -0.0035209256780440474, 0.006493396596036589, -0.0071784616124428375, -0.0016243809391353053, -0.006273323021703622, 0.013811139512438184, -0.005843613362249768, -0.0051698201584185356, -0.004796212608042224, -0.009117305374319321, -0.009644183710769414, -0.0074699491103882775, -0.008392809036423957, -0.0036863904725743055, -0.008890483697216626, 0.014239406802042534, -0.0018954787751750395, 0.0030742743640192545, -0.005490725517582821, -0.002089384401041334, -0.005888600030103797, 0.012649656259012463, -6.193094261427212e-05, -0.0051467130689828436, -0.006167233112850402, -0.004330529946588315, -0.007528157389167902, -0.005667680246077104, -0.0076879597270816625, -0.004846574945095238, -0.0035252474817314226, 0.005457491676440912, -0.0010044898868428781], [0.002693786620268775, -0.008425398764229763, -0.004757285596053211, -0.0066320610804695935, -0.00650522127403753, -0.010184145540499172, -0.008033730618093824, -0.002583344423361623, 0.001858921270568234, -0.0077055918451223926, -0.006079164233232928, -0.0038902559697066483, -0.003892933529076312, 0.005079487408833634, -0.004667262164182104, -0.0018431216204897924, -0.010748647267109206, 0.0043960978993741896, -0.0031300679229725303, 0.003433483748525704, 0.00808070717915342, 0.005677628115952662, -0.0011383020718841155, -0.004053341645113167, 0.0013798287513634526, -0.009806263858478369, -0.0018580873008645945, -0.001430586736704194, -0.003548599070982835, -0.0037181956454146628, -0.004440823845744368, -0.0014757452968176823, -0.0069207139018937726, -0.007763567706408913, -0.006759568945064684, -0.005484064638255959, -0.006050727028544551, -0.004694290186396999, 0.0005445389395076688, -0.004648222486756683, 0.003839361605704968, -0.004310064124062893, -0.006943298273611772, -0.0054380423157851755, -0.001475706274604146, -0.0005959047813310311, -0.005489200499895182, 0.0008065398571749715, 0.003982719075648412, -0.008393976527171545, -0.007713439967735273, -0.007182242117816539, 0.004842382115040485, -0.0032237010955872684, -0.0019585795585824487, -0.004874206125075919, 0.0032216934762521712, -0.0011292396321429508, -0.006703239014522484, 2.4324372843708225e-05, -0.003200944056306841, 0.00973459652604568, -0.004151849140230215, -0.006332082922810849, -0.007159840547313928, -0.0019484870533554228, 0.009091458361557595, 0.002689367280071255, -0.004577840307645528, -0.004718125227174412, 0.011612678588259156, -0.003965162599483699, -0.008982347338968995, -0.006309919980779856, -0.003143206909162777, -0.009602016034506632, -0.0028884086654160103, -0.006190190444202957, -0.005570010995113116, -0.007342659723409808, -0.004072695375566422, -0.0032442966415959736, 0.0017284468166225576, -0.004998682512616986, -0.0014352423753041714, -0.005436713399322631, -0.0036210415224732563, -0.0023174814074365477, -0.0027985797273902538, -0.0034968522602005334, -0.002917696975338247, 0.001997635784692221, 0.01122766041049908, -0.006483222432002471, -0.009269352627598966, -0.003471609850714005, -0.007470808684849865, 0.005287468977343399, -0.007590996857605773, 0.0009916465844387646, 0.012497530109500532, -0.00848251069858108, -0.0034048515424438953, -0.0030616800104355723, -0.001972232973778945, -0.0012561558043371053, -0.0003261640711472841, -0.006868340278336024, -0.004011562325032091, -0.006899765071558731, -0.0013577906994468784, -0.0022597398190992352, -0.008305894273643876, -0.003871644219660794, -0.008352131356925165, -0.005926367259777863, -0.0019203155309850978, 0.003898872714677489, -0.006307942666233377, -0.004159635000921427, -0.006895192826678856, 0.0022921529860460755, -0.006201284514886761, -0.003162786875353138, 0.0014138594136157178, 0.005079141706521791, -0.010126753418154588, -0.006322190304818806, -0.007499484364942322, 0.0010835500641450202, -0.0010610496754210014, 0.005746156907290989, -0.005569816860220381, -0.01386588049894748, -0.004033809431938536, -0.0014814044701940334, 0.003209483545075997, -0.003539936063915965, 0.009188138704002913, -0.0006826344389683815, 0.0016556265828896212, -0.0010583740326747277, 0.0013566970824347249, -0.0038466854423127358, -0.008285703309768713, -0.005856463482693315, -0.011171874144738367, -0.005986610629822884, -0.004383428628469579, -0.00737202243716879, -0.008952891594596862, -0.004578866264622975, -0.006446632843298177, 0.0008907957052037683, 0.0010308067416523244, 0.0018026162767015835, -0.0050522491799537645, 0.0006534579303201836, -0.004225698399429078, -0.006256350197304038, -0.006958925176496706, -0.0022601510068464134, -0.0076795744039113755, 0.007145131785611107, -0.008473950539579465, -0.008132011803882584, -0.007813698910566701, -0.007303471455233172, 0.006958129186539265, -0.003183081175672303, -0.0016157231006275173, -0.0068481902934555815, 0.013717674435550312, 0.00021557132153172931, -0.00510206027165065, -0.0007415312208265295, -0.008374755714291126, 1.711076672987366e-05, -0.004542441637066305, -0.0010899660742019427, -0.005182808288522407, -0.004805592641489056, 0.01601361490975109, -0.008186507263787004, 0.0023958697985716044, -0.002414346558868135, -0.0033732019725384865, -0.007259701312924065, 0.013678068805022151, 2.758453722264771e-05, -0.012455784001060234, -0.004833716556830299, -0.0011645050272967984, -0.011319361930900738, 7.066589633209318e-05, -0.004857156381371155, -0.0002870556512326409, -0.0013814328740696148, 0.004140007397542746, -0.0017075428392511422], [0.0023550901645052152, 0.001371372896740707, 0.0027988792669888596, -0.006567339163012727, -0.004341649500136072, -0.0075286694306579294, -0.002761774143217351, -0.008900148783932964, -0.008978163836988443, -0.0003009902303787694, -0.005759983573210454, -0.0031012371161548524, 0.00020618470336910018, -0.0023081782606068587, 0.0006387214439706297, 0.004552024225936343, -0.003872220467165712, -0.0007345662706805432, -0.005491155224311363, -0.0036468345342209386, -0.0005003743484320851, 0.0020272812943194175, -0.00027199766323561644, -0.003951300090857679, -0.00799864179492796, -0.007768157615828772, -0.0023561962347910235, -0.005820120080298232, 0.002057115619001489, -0.00306155935366848, -0.004208158292918282, -0.00662497809612788, -0.00566351343378419, -0.001309814853856387, -0.011853462306107768, 0.0007210834431898243, -0.005364732323090541, -0.005242662750191558, -0.003104064188128089, -0.002543243594065481, -0.006163236487732671, -0.003139025639539847, -0.0014814959310499307, -0.005102297915232639, -0.009438933101323446, -0.00042018251869507827, -0.007517670328523522, -0.006187825641836631, 0.008126460304108983, -0.002346179506028554, -0.006263021591128429, -0.011254745278389081, -0.003414876331349298, -0.0058627957178648046, -0.005828951285274927, -0.0012203705185536904, 0.003432405158937434, 0.0006257105719179011, -0.0030622489446922763, -0.0034540015310259103, -0.005580374554218999, 0.010010283734692057, 0.00032746728208177787, -0.002386846233958587, 0.00036711096477356293, -0.008810906639932786, 0.009553190482860397, -0.004594162330966422, -0.004513497453044711, 0.0005510938935288686, 0.010590561005635511, -0.005063831173622018, -0.003771001701913767, -0.002043697534304593, -0.0018622131902160568, -0.0024109887760002126, -0.0017577388420958755, -0.0070809024473202555, -0.008202591365098344, -0.009548936662103921, -0.00909406856261002, -0.003268115747028642, -0.005234665443809913, -0.0006322026217781859, -0.0006273018938204103, -0.007874025063600704, -0.004388785234886987, -0.004634884693476627, -0.006456746163792665, -0.003157919398375969, -0.004879181779912291, -0.006353477542582874, 0.006743949784211944, -0.004343341664037208, -0.005145099074154363, -0.0037784402616675063, -0.0006496325795475497, 0.0009584715868573428, -0.006741315291366773, -0.006802720067799885, 0.0030811673250761367, 0.004760059398019764, -0.008824678305899397, -0.009694437449685876, -0.002225089768488515, -0.005688693543193235, -0.0054495883347710295, -0.008753803863123565, -0.0028653996789426207, -0.008517965974264498, -0.008007574347546413, -0.004659990413490632, -0.0010726083487142613, -0.0066026423165609065, -0.008814608969350627, -0.005818822038618797, -0.0024887385803160585, 0.0029688394038388526, -0.005502400991806848, 0.0012280061355777665, -0.007119518821156687, 0.0007890169293118482, -0.00612330460654638, -0.005617240931724377, -0.006185288864262211, 0.0046942993304202475, -0.00028116441666635515, -0.0031116934669600193, -0.004496599921477594, 0.003906320443662979, 0.003002211423617355, 0.002445221948868451, -0.0014720488437125244, -0.002018669889786735, -0.004066477715730799, -0.006143452165285411, 0.0043474638943644065, -0.008457362156963667, 0.012979306401920344, -0.004427593824348845, 0.004895211695756331, -0.0022220814423416727, -0.0026067508680282015, 0.000623413635229649, -0.006424644817097967, -0.0035934972153943115, -0.002812547584205687, -0.00014106520257030404, -0.008282007756386864, -0.0013461193589301094, -0.0008697414771574697, -0.0011762950448032613, -0.001066371326148623, -0.006631431612499298, -0.007088859957582309, 0.0005231126523513151, -0.004392339489404689, -0.007164577503612444, -0.0010809733062591726, -0.007149620225566543, -0.0029992494458411143, -0.003243241060278325, -0.0046462272644109395, 0.01871255830202834, -0.0018222368821657234, -0.005311746918118049, 0.007632526201456726, -0.0022412215548892663, 0.006061897457693574, -0.008360698434585728, -0.007025080670769659, -0.0016386469290182667, 0.012528448417622151, -0.0057901428066246706, -0.004331515933383895, -0.00821704090124882, -0.005450486714241981, 1.6877401861867494e-05, -0.008987838754671412, 0.0017194216206042148, -0.0015081141982443522, -0.005933246790064613, 0.008254374723466833, -0.00896484663675428, 0.006642311825836922, -0.01145210168374393, -0.007284598721920628, -0.005488723875250078, 0.014481889816181363, -0.006483320205925944, -0.011462914284999222, -0.007023710757680819, -0.0019324400181272698, -0.006733646680501764, -0.004952183221153393, -0.0001393645965350931, -0.007391922732227219, 0.002281657127861475, 0.006219855957070486, -0.0005906328112844205], [0.0012154792063098611, -0.0009819726310156855, 0.0031664300562233715, -0.0016509127408792777, -0.0031798318288553274, -0.006896339073040752, -0.0005039956011544972, -0.0072781876588915335, -0.0019997430183691157, -0.0026745641456784233, -0.0010096397667442184, -0.002939413388987892, -0.00143267446110192, -0.0003596947613513115, -0.0005555925634355984, 0.0031927182880577363, -0.006534155203346809, 0.001709107512398833, -0.0018051209471756518, -0.004681069411551469, 0.002815998850397378, 0.004438415726104174, -0.004410476891331364, 0.0005402042836517237, 0.001977157302682782, -0.0003156220427029257, -0.0038698945938393753, -0.006609918052633845, 0.0036027364377515516, -0.0034821906048323015, -0.0006343157867123739, 0.0005941500044683374, -0.004898765745392799, 0.001727860459453452, -0.00036198043156572546, -0.0015383437303243947, -0.004053561844172692, -0.007865292366586533, -0.003712315943856414, -0.004804271502397923, -0.005270413120370045, -0.0014482107321921436, 0.0004860263115214957, -0.004176767207851292, -0.0031711521686596266, 0.0019587172398033673, -0.0014024107881808808, -0.004109983219821684, 0.008848298205921585, -0.005959025274389566, -0.004662005823943667, -0.0003079376255741414, 0.004541454113620978, -0.002505211827522901, -0.004327376169438719, 0.0009011297449868284, 0.009199470935544565, -0.006186141255730591, -0.006025117253904731, -0.00551938029249905, -0.0021874289335012524, 0.005316115282844776, -0.0015554786274656791, -0.007009560586341063, -0.0032111966891845904, -0.00650047977762807, 0.009150814606520596, 0.003677599251707807, -0.005282304701947329, -0.004168577118398905, 0.010653553803627367, -0.006754553840706706, -0.006504029164349738, -0.005808578634406083, -0.002027490436553446, -0.0009924110008228645, -0.007232074549974503, -0.002365774939509611, -0.00932686826017174, -0.001576287934317054, -0.0062868517891910974, -0.0065645837479519084, -0.0010538540363027086, -0.004664523674046738, -0.004440846408936219, -0.00014831177317313775, 0.0003070934693662188, -0.0037987994653234684, -0.005354667382977127, -0.007363197464149912, -0.006186948950072478, -0.006587593922924127, 0.002407088929329572, -0.008604419381838166, 0.0018595668606244567, 0.0017147048172879752, -0.005925229591342504, -0.00030843724221102506, -0.0033907728389416555, -0.0006840065697213913, 0.007708935542476947, 0.003109677057662509, -0.004477883316525834, 0.0004280932179029146, -0.0007765131570300143, -0.004995898123959826, -0.001046699131258271, -0.005092217960337436, -2.0769400538610394e-05, -0.0027360149714967877, -0.004456496217693219, -0.002904275130087035, -0.0008552890174318067, -0.000907931008791938, -0.0039365223496763595, -0.0016390489393215395, 8.359315177355946e-05, -0.001294691400629285, -0.0033033473272279503, -0.0011604766998864703, -0.0025858331005749707, 1.1997263642492573e-05, -0.006393129659486633, -0.0010594132530609742, -0.006041839902976625, 0.007065136001738485, -9.358596800602322e-05, -0.004949238630666244, -0.0026238699116057054, -0.004918050396334508, -0.004020951291096109, -0.004537446631763924, -0.0013655992437809619, -0.008312460348203071, 