[[[-0.07745840977383131, 0.13807265238440236, -0.24570230507119611, 0.16376267767366703, 0.20985822703654808, -0.13724680216264729, -0.03073850161778019, 0.2430890400837837, -0.044510760486850466, -0.22151007595214767, 0.07802548066849781, -0.287904897560658, -0.18392165040392133, -0.28065447997671134, 0.029001268681332848, 0.018877876601978406, -0.24935391453443823, -0.22994942310639752, 0.16876597150874575, 0.04968181876994243, 0.00759195885913015, -0.2831910333751416, -0.17480663740607397, -0.10716257942450728, -0.1208068924632352, 0.11399233256598293, -0.041923824289419445, 0.17195171298550344, 0.24826850343253587, 0.19076254947228416, 0.006206712945183117, 0.1762087166989135, -0.24714118998605736, 0.07113340691092601, -0.1530327272111495, -0.2717180413412961, -0.07949047665133675, 0.21463579032479863, -0.09157818534114977, 0.2183706035575544, 0.27579946501080477, -0.037524519850663324, -0.08924041391600664, 0.22484267073376074, 0.27642282753594966, -0.24853511283588942, -0.2857172299133405, 0.18761242200398343, 0.10792639767769613, -0.30244258250303635, 0.03206405754034081, -0.27363128635081047, -0.1621651375662032, -0.06340861078754868, 0.1249631826683017, 0.008678434818670493, 0.006929161782474595, 0.11772679381633473, -0.22342677048927023, -0.2500428629251616, 0.0139870605979204, 0.004605122733625831, 0.18226503225123172, 0.00923994927322566, -0.03624704484590685, -0.14839638712261474, 0.2509102575500096, 0.218074635299383, -0.030493043840867574, -0.28310616920844456, 0.034165362271000095, 0.21000332094976518, 0.142384191535844, -0.2718023282554017, 0.2969761992077103, 0.2056726857391031, 0.17903022570560997, 0.0025164752998061276, -0.07614437018049716, -0.13410651475634808, -0.19823722386822643, 0.20790349877755054, -0.14126947872170154, 0.008449623352596192, -0.053722155658177596, -0.23556802306513466, -0.07577482596766524, 0.25290961146266416, -0.19362353829306547, 0.10161061530569764, -0.09206439407954203, 0.07076720310191016, 0.23188263131149373, 0.11444388134877807, -0.0273092253741647, 0.11901671034398617, 0.15886778817418393, -0.2214699792573165, 0.024586739082857592, -0.21894166119179675, 0.20354669346964727, -0.0601984655046295, 0.018950295937586625, 0.10885080088811387, -0.19254866582764, 0.29400643062372867, 0.11754179561609215, 0.11178007199793036, -0.11729368133784514, 0.12222876531891888, -0.1261338523999731, -0.2912294278922209, -0.03997082316274162, 0.1721500341952386, 0.2285569909473331, 0.26925823508190716, 0.1504697825785556, -0.11838849109768328, -0.1274271341911281, 0.1288840411026507, 0.06966893133206532, 0.25542990502210977, 0.036604655547933615, -0.12907566696472197, 0.18470187977132405, 0.006915828133039968, 0.17460078423292738, 0.18659359322340663, 0.018152491286871516, -0.060714650392895926, -0.23560754213793664, 0.13465894150674526, 0.04364531203761562, 0.159899427447451, -0.0567128301224233, -0.08886050908840742, 0.016844966557037, -0.16012008445294787, -0.28260450469841025, 0.23390313088124493, 0.10256893817666961, 0.09738989907868341, 0.20559876317952283, -0.22902044227674348, -0.07994152717334158, -0.1641073667112235, -0.144158509631606, -0.28894865344635745, 0.21493063036553184, -0.11715779935301551, -0.2342656814077395, 0.23103066942987038, 0.19969241848175026, 0.2657623637139014, 0.012606647518728845, 0.15632818721297678, -0.18653945546647155, 0.1779185699800231, -0.034606894194142764, -0.254209619099716, 0.17967501652510107, -0.06349173297048774, 0.10594178360450952, 0.13236584218895003, -0.25769196311888737, -0.17759984957047553, 0.2275718812260868, -0.055038366611198764, 0.17263785691549147, 0.07843866051034142, 0.015135567067596209, -0.020817803117439502, 0.270127470611718, -0.07615672147396817, -0.20267075068867715, -0.2025016661234591, 0.2357304179003439, -0.21454604680738074, 0.20486086616932825, -0.09433890964536945, -0.08079251807727286, -0.1353939573116304, 0.2628917693598832, -0.01964384938419491, 0.1606281975488931, 0.256815527609564, -0.21225313893798942, 0.26229439599369025, -0.19585880211929443, 0.2763891978293726, 0.10083017226459934, 0.26039351704590524, 0.26147438428140984, -0.043130169516557355, -0.20733180322662262, -0.12555014811685158, -0.13021000707182154, 0.10904538263579232, 0.06371759626064542, -0.05906809524563995], [0.13832550001081442, 0.25630375868658933, -0.21373827483122146, 0.15903622622446373, 0.009615464809692371, 0.11562551481075754, -0.08724987983116735, -0.09906117347697377, 0.21641032336208282, -0.09140827335207515, -0.2681871593502187, -0.055122881521421384, 0.03456709880074357, 0.15592925378178651, -0.17739619659322012, 0.12059415612309435, -0.10013391859198462, -0.17098252584959545, -0.2669470331910827, 0.20588322383504545, 0.13720636987753362, -0.24746951060780487, 0.2728976018550971, 0.2701464050537795, -0.065725207377766, 0.09179387550940779, -0.1468252228077603, 0.299137890039502, -0.17243417569853386, 0.2578096893964068, 0.16148742266859284, -0.2577876875589001, 0.10747142373456506, -0.10972594022866106, -0.046646844708896136, 0.2856445864849422, 0.17808416055852644, -0.15789246498715848, -0.23222117365465816, 0.07586121828754808, 0.062505354044004, 0.225525190907369, 0.07701785459379108, 0.21782128910987242, -0.04920255010499874, 0.21551070252311103, 0.07643016988487726, -0.0778657519895574, 0.08157965157022483, 0.13573224595503705, 0.2706551987717481, 0.22131385958079466, 0.015358567563875823, -0.14645751417439148, -0.2764096128700855, -0.23937106440127418, -0.29110700433649306, 0.15476607408543164, -0.11235548593282069, -0.2740580300379153, 0.2565104636976886, 0.22678806229574333, -0.10609022304310432, -0.17313847965885687, -0.04499340216091896, -0.20169046006132307, -0.23118288196230458, 0.2558470052292525, 0.06198155705354381, 0.2244696161851601, -0.03629716405562103, 0.07535495596714914, 0.13448147280713896, 0.20175013716473642, -0.0818588157859106, -0.10954399710413039, 0.04126286118406641, -0.27992224843748964, -0.035543140068818715, 0.2518956246381881, 0.23861435808776862, 0.03219415747986554, -0.10736345240414195, -0.23296374120061086, -0.2583777992210502, -0.1678575915508936, 0.013845353505221872, -0.08024854856150535, -0.037194679968178435, -0.07640647973369996, -0.11882028703221258, -0.048113651577359695, -0.11381012463132656, -0.07199412563442327, 0.09686740375917637, 0.04226449834951721, -0.09640842688239447, 0.037565426358572344, -0.04287961020025077, 0.20619805926122817, -0.27851316230615153, -0.20337729477338484, -0.16993423203199978, -0.22366451096810286, 0.026036771951600687, -0.07652451462371258, -0.2224434390153534, -0.19788206054735438, 0.00706908369441135, -0.0010412930515999134, -0.0020274156683363687, 0.2931507328245024, 0.19935369175999065, 0.28658422616954565, 0.052546585466578845, -0.27635986253615147, -0.27237604415366784, 0.18315536883614586, 0.24084773769543644, 0.04133831215443827, 0.1171268863127093, 0.25839801076296615, 0.18752939739026767, -0.07206495534895378, -0.18128324149668829, 0.11149018077811929, 0.13550474019556003, 0.1441864080838029, -0.1699072944866798, 0.022691831955420117, -0.1724755711709931, 0.08413783789683088, 0.11026487703817107, -0.16618987734768792, -0.07505799053247089, 0.23296175446364017, 0.09334840679903059, 0.03999366076494794, -0.03119533477136205, -0.03827052597894865, -0.20655670933571812, 0.17170252950392142, 0.11396842355042142, -0.19134875510188665, -0.08317303265729813, -0.16913231378047974, 0.08083522239594627, -0.2536016253010127, -0.10133842500694643, 0.11265515175663852, -0.12340494050210665, -0.030282754152140642, 0.1944705033430258, -0.003910492241654193, 0.11153036743894704, -0.033524713068593455, -0.20995835085306142, 0.16959549235488738, -0.2676001433683909, 0.05601138030792603, -0.06861685352060311, -0.017293852085160263, -0.2186041535484262, -0.022452706026436047, -0.1995377524282288, -0.014327800175747587, 0.15926427692877299, 0.18256920477565655, 0.09184182285839683, -0.28903749209899515, -0.024899278100790352, -0.08909534650852287, 0.08789803941654292, -0.17753428157728962, 0.2979750079849088, 0.08685619283669646, 0.13953316787512104, -0.05427098326743033, -0.06147974843117087, -0.2658745594560677, 0.24644800235660416, -0.182461046553862, 0.218704997485418, -0.13446337672585257, 0.04991891866066642, 0.045652740758642, 0.16239360464140137, 0.12873889758487575, 0.20298610639835532, 0.09635552878360615, -0.05008200471162732, 0.027834669533248528, -0.21889713403025093, 0.2109984974936174, 0.25535904774306467, 0.004736295920965049, 0.08961337013553816, 0.19947877064731082, -0.1306367393160918, 0.2614773171983174], [-0.21567429742550348, 0.21336003395169048, 0.21580079539700228, 0.14983325497269107, -0.20665484945637533, 0.02463512704852972, 0.10918800274975836, 0.1618325674299974, 0.25076538035925977, 0.25557150061078526, -0.24169598198967499, -0.1033452329822284, -0.0655850891030662, 0.27024920332894103, -0.21107758835616694, 0.01922135911855237, 0.020838695066678882, 0.08911983473357113, -0.18115419898353322, -0.27564197736272356, 0.04070530707634449, -0.22641681573471598, -0.054473608189791356, -0.1555675094662409, -0.2196541273387124, -0.043538047381497226, -0.20369575352856634, 0.0033024778699106017, 0.2723583340628317, 0.13716833552476096, 0.04629463450142899, -0.03581409288938303, 0.16466452413237337, -0.10663019168711677, 0.01977462863636242, 0.18478994287715816, -0.18519888343687863, -0.028550955382763366, -0.10240429636453528, 0.24452942705077652, 0.1842505298739424, 0.228663492989437, 0.19264869678626703, 0.19247839082196913, 0.015215510669635697, -0.22266785692455976, -0.2979090888118411, -0.18533226519718832, -0.009228787811787396, -0.05822294119748743, 0.23716403052250487, 0.2508441134705843, -0.2799582958241952, -0.28079006348646, 0.18685208064359615, -0.09411720150208144, -0.12277165194025656, 0.07398236343554432, -0.035603804810579565, -0.20211320995205864, 0.21401675897179753, -0.1849758645840799, 0.08831700623788692, -0.14400731083764853, 0.2846213132172768, -0.24107652319088563, -0.24224656005642778, -0.10605159703745096, 0.18235226952482006, -0.09391846621558171, -0.06572637941186864, 0.06908060386401796, 0.15108271103168153, 0.08363478531593864, -0.0379520721174616, 0.0965594659919631, -0.22938193873277699, -0.08179329389404641, 0.1747059312132203, -0.09002687953639078, 0.10950750522085445, -0.12030998665193127, -0.07268819162386574, -0.08446097371441116, -0.03169987597574794, 0.22234579776442773, 0.01937467524517777, -0.1503411322645351, 0.13176758920455556, 0.08993755946657987, -0.22462888940414485, 0.12351062030340315, -0.10769202356381807, -0.04581026758040555, -0.09824725433659981, 0.001541850107455731, 0.10888782180339951, 0.2430627040160995, 0.18407006635792345, -0.12369913554603523, 0.24863273765438768, -0.26063638548572343, -0.20624816706642773, 0.09260771972169732, 0.12651235880080525, -0.18833780049585505, 0.264862574681036, 0.05403150411881495, 0.25720116039840357, -0.15947800733203485, -0.24708599691881705, 0.28669776182196316, -0.27048251437997034, 0.0323694712645882, 0.020247362298707824, 0.02614773190973232, -0.1384154657399606, 0.16669391223322094, -0.16093337778064723, -0.26877625457117243, 0.21615635879274367, -0.2159412726326586, 0.024735958131214233, 0.005014854632673516, 0.1791556540185645, -0.15008886645438435, -0.07184903467032647, -0.21465025870017174, 0.22385638949966416, -0.13543636375445695, 0.29738553019599373, 0.17856489385756613, 0.07814554339560588, -0.003922749852364845, -0.09061443097613407, 0.26684861780421126, -0.16322793723573872, 0.289837092785131, 0.08468091395462418, -0.20833772798736724, -0.029692747931627052, -0.25408192045934885, -0.007718870976633905, -0.010225841234145303, 0.21836245846558724, -0.03142227888214296, 0.17737834144937992, 0.030318225607704464, 0.12010868171239213, -0.14747438543170985, 0.11185631629491034, 0.14235508567272037, 0.06295890884012681, 0.02103130464490483, -0.2799972058907579, -0.09141118082249068, -0.18563161780810306, -0.1344754192058223, -0.2454904047279037, -0.26867756144381455, -0.11595393323655037, -0.13560955055431817, -0.08714329467253898, 0.1033118285190993, 0.29267159387385744, -0.19811740399004463, -0.013959276203843603, -0.2854903074903772, -0.03131135974019739, 0.1087549374510895, 0.2209861722407388, -0.14103732507851624, 0.05729490336550717, 0.038162987240362406, 0.16763248162459604, -0.07854807466162707, 0.12880134221987494, -0.26039964049261355, -0.12678725897970275, 0.028864832006537024, -0.00762737112487746, 0.17878205244569748, -0.014603642406348153, 0.2076775434419193, 0.25312700141088446, 0.2303534183427513, 0.12546446638293818, -0.010587933307862934, -0.2601275866829631, 0.03869144003157246, 0.2289911873969667, 0.163165008425667, 0.13718879203571277, -0.2524392024233033, -0.09361418659252337, 0.16044801537637912, 0.12340123581652766, 0.2467209329772881, -0.2018971666870326, -0.2087154428938334], [0.12314928124014736, -0.18542908249455603, -0.0418076906322512, 0.17212967510059746, -0.14445786077895761, -0.0765634111731555, 0.01593336714409247, -0.1337579152782761, 0.261507554895999, -0.15682708492333433, -0.2627149495921599, 0.08118962273030457, 0.1598606058946899, 0.033416778152021556, 0.12602055735045153, -0.13300666439122266, -0.22920258583269326, 0.06354865359906425, -0.10037159714519119, 0.09782508241238304, 0.27168322914251786, 0.027654848282114234, -0.09721571030291098, -0.03459568210049333, 0.20909607780813727, -0.12409367510801683, -0.06955140594988925, 0.26670401738086225, 0.00234708109522514, -0.1444907031722809, -0.008728200027479873, 0.18987486273304574, 0.2601863865758836, 0.232244454317265, 0.15507891390830722, -0.0673308317303692, -0.16411066048807457, 0.18442851608590963, 0.04936744092049735, 0.27933410484048954, 0.1020322341770595, -0.06388207641193663, -0.2687662242730989, 0.17403197371647333, -0.28438878788643396, 0.17176327289196178, 0.09013914868539283, 0.1555887547848849, 0.024500913381959193, 0.293708243141724, -0.19686466979742615, -0.19229591492595036, -0.2186390589757612, 0.14409431503591777, 0.17845268696835181, -0.1732659673469281, 0.08252291404521843, 0.20399879983757968, 0.1122427995883418, 0.009379326040578029, 0.0807503049066381, 0.20547546971739736, 0.13334606501674856, 0.29078991467109855, -0.14331671228221107, -0.17660713539893047, -0.16902569447999896, -0.15473549155435012, 0.26538269615156423, 0.10135490352372324, 0.028315026419427215, 0.1277855870796117, -0.1373298901399439, -0.15226531853813158, -0.14882755804696757, 0.021148924174531417, -0.22347549007958326, -0.1863125714948615, 0.18380594166536082, 0.19637756504184395, 0.028803389931172884, -0.2192257416408657, 0.29284588474275497, -0.27847024433645573, -0.2649489425523572, 0.04729786562298175, -0.11263428485791961, 0.29530389494431514, -0.2753176441245589, -0.05693984759417499, 0.08511430813539649, -0.1366610224491342, -0.08002870324684612, 0.11692712562599213, -0.020495836154624216, 0.24803641862981748, 0.252106772890193, -0.07749614610896292, -0.2208310826630578, -0.21122248133536672, -0.06031365654078964, -0.12680651131358053, 0.22956219277029444, -0.04914464983348688, 0.09914375902022685, -0.12590909514376697, 0.1865411684655537, -0.1907887564265316, -0.26356419833133177, 0.22683228596935923, -0.13198112758632505, -0.027885660746684686, 0.15581966264276514, 0.1752763264967459, -0.088743274131958, 0.05346963071916428, -0.24658427872921684, 0.19781864240481076, -0.041072762756831006, -0.11741958833886397, -0.15424409647682258, 0.15068320331159596, -0.2555765661504985, -0.06465914464975633, 0.07546821175521952, -0.05954502179856091, -0.1097083354105251, 0.03673665576295475, -0.11052192855324555, -0.17298518427979476, -0.18149619932916888, 0.1075566271759577, -0.024210633014378088, -0.013435255556206735, 0.2697913555531682, 0.17434053712060302, -0.21312552943837387, -0.24458984398952893, -0.21342682875826025, -0.12361261840522936, 0.2154849960348144, 0.055404136170221704, -0.023624064221126402, -0.1545283135676486, -0.1869205069404166, -0.040575386156229805, -0.25368815453737725, -0.12805261356218772, 0.008770411916149108, 0.13084715810339775, -0.2644687567846934, -0.10756909877962656, 0.13309507233854725, -0.2788236371817356, -0.08200088311818854, 0.12292091660484998, -0.10440406484244565, 0.029089689906907367, -0.1683034884211308, 0.042175486852052343, 0.19983003397419175, -0.14566477648900786, -0.2935420841404525, -0.24019822799855456, 0.05679277374000681, 0.06605150551654101, -0.17090153051887436, 0.10489382720079077, 0.04938918404336973, -0.19290683400415454, 0.07896580941880439, -0.23401080705494304, 0.1081602247227704, 0.05019367464432154, 0.07088277178909097, -0.15131319651116024, -0.015102949189179664, 0.04686573755814834, -0.27266593676623263, -0.14678975795182375, 0.18158091537909823, -0.25792927670059385, -0.20453360763954762, 0.10346161635752074, -0.2610805287897372, -0.021531990177327567, 0.2146810608852957, -0.051027379015713074, 0.16086581066244185, 0.13567689565427604, -0.2036868338015006, 0.09898043092422186, 0.1416043583620602, -0.10502292536787626, 0.14311562113627568, 0.17780040005119407, -0.1090709617829764, -0.07757725920909447, 0.26009199893896007, 0.03502949065353431], [0.2747784307083068, -0.07981980053062838, 0.07382960507251651, -0.13530243875993592, 0.009061827984958307, 0.09006713297003835, 0.1040774613305858, -0.15007510226588153, 0.2775408461930149, -0.23612445415946187, 0.004886752159948962, 0.2993049186994189, 0.07000108615689965, 0.05663713331105614, 0.10914177223120762, -0.09903068209847625, -0.24716593057781575, 0.14611093697486918, -0.22331924591770444, 0.10797835585611004, 0.2613506651882517, 0.09110261933489003, -0.22273361774152434, 0.04462519039734701, 0.3030722220854506, -0.17813322607005921, 0.2465452723753569, 0.13844740389986393, 0.14159888762338935, -0.15186138554139306, 0.06483878962380744, -0.09409382746643957, 0.025764821119064505, 0.24730861850878338, -0.1518022321660682, -0.24774558377608744, 0.03824727379552643, -0.1114976355391466, -0.25645822534344886, 0.07829580995978282, 0.1054843051891577, -0.00820806776228394, -0.173884709565464, -0.007020115089549862, 0.2771872639602287, 0.2652512813166858, 0.028717579948139123, -0.09243914125069193, 0.22260505644690937, 0.14996417957466324, -0.13844789722328155, 0.13409549144846275, -0.04223264854863765, 0.07628395987034307, 0.08889275099486471, 0.023327828777736665, 0.25036448897653985, 0.009402407873463048, -0.05527927523654684, 0.26481432334860205, 0.13065556865964453, 0.039255768382241, 0.009497122285050437, 0.1858238002288951, 0.24485235734060098, -0.19511177870418855, -0.26270925280579244, 0.19044826920055624, 0.03936326682599488, 0.11181262104280576, 0.20727586155187636, 0.1679935161147676, -0.1076410522740493, -0.2331336669119372, -0.14795888099294469, 0.1456258437266932, 0.1375581966110015, 0.22408854373469758, -0.10248673299158782, -0.2016466643345632, 0.12456173271094109, -0.11177554572020452, 0.0004177196164746155, -0.05511615988191559, 0.09634108706722894, 0.19908667688642992, -0.10052707212893103, -0.14719330144109555, -0.11548957986513242, 0.2524666265785815, 0.2790834766880504, 0.088377963908624, -0.28780872496760607, -0.09074235152241959, -0.055839977377270755, -0.18472575294598526, -0.057928084365059994, 0.0006288721268383395, 0.20065446013541435, 0.2513078218676059, 0.22473608004732765, 0.13749824462106955, -0.1954609009553401, 0.27612642029504525, -0.053406780104417, 0.0740765299756549, 0.23262809548765676, -0.28112548693670986, 0.24249612090120062, 0.30831100133254846, 0.06082650702234704, -0.01797036682231305, -0.07732730951673841, -0.19694627605159126, -0.23468059932296667, 0.053293094503790196, 0.03301250297478851, -0.2090925610022286, 0.19657150242107377, -0.1903695958841565, 0.15138041732281607, 0.0005478862642401872, -0.13492599628279667, -0.08911357012040862, -0.28114456202517424, -0.0667936251258455, -0.10795092175984233, 0.16876612156456935, 0.04909409468222527, 0.06937551552869216, 0.2768374575851965, 0.20643674854271685, -0.012993371118920691, -0.04296366860612679, -0.19100160589228227, -0.19418878966628347, 0.2561895667060934, -0.2677292349718629, 0.1611032234609897, 0.01933295692743494, -0.0136292524417061, -0.05230542294137109, -0.16051988778395124, -0.2395473023294123, -0.21426664648603988, 0.22238494796775582, 0.014175214869463031, 0.14517806347006262, 0.0030743424750261654, -0.06657331425505693, 0.09095478901694108, 0.15383219664571346, -0.19154375400094256, 0.07527404888417798, -0.2097421829280134, 0.23140194265799827, -0.20552711744173807, -0.1994941029764783, 0.10586345977034527, -0.014202595044087952, 0.17987451050568198, 0.23704844762596178, 0.1378028981470394, 0.0750820250564754, -0.24391998622997574, 0.2778470515283551, 0.297950606173866, -0.10602141977535423, 0.2574490941147796, -0.11685366928665111, -0.24539770522850798, 0.16527134758031234, 0.28099180418933967, -0.17596191330668398, 0.07871165432291369, 0.07858859116785025, 0.23773481194135976, 0.2369089838066103, -0.1336975660204524, 0.20010746329154222, -0.048524257585970995, -0.2024273781482278, -0.019150262660852017, -0.20117263930265702, -0.18100627314079942, 0.01945958479881961, -0.24276759848653998, -0.11508713789400611, 0.28020892404946585, -0.09567508760454665, -0.2966779414434575, 0.29356947227812297, -0.11089361668981883, 0.09442740918950895, -0.24286982931157242, -0.1636459929286433, -0.19540427842449642, -0.07175257382048437, 0.19744915395903573, 0.07466394114025782], [0.21746264552584282, -0.04224787443695912, 0.11687288245120271, 0.02612633286480032, 0.14681905131917866, -0.2585402357263553, -0.14401425597566397, 0.1391820038800909, 0.023257763990308312, 0.030523642199776872, 0.22961970420047126, 0.011149525389347074, -0.1296483482384102, -0.1239308574530731, 0.2586987149424748, -0.06530893426235325, -0.028003994530273645, -0.06662196595392401, -0.04107427200883638, 0.2297403855671295, -0.16629861852514166, -0.19665891319030884, -0.19673499814561785, -0.0031513078723020603, 0.08197064517547639, -0.24275018672620385, -0.09153274858316252, 0.16198619065889294, 0.22211504011937494, -0.20683220496603677, -0.06631834062555388, 0.207491241473429, -0.059780474311640464, -0.0015712886999213556, 0.14395199280437845, -0.2438489980612246, -0.12972757524136078, 0.06446289543797486, -0.09472219917615296, -0.0346533283648216, -0.010094627145546169, -0.09528432112274904, -0.1571192408793071, 0.007961163998387762, 0.13883761498533156, -0.2621046877771811, 0.07749213310552747, 0.24979396819651561, 0.030534540398985024, -0.22680348717006538, -0.30535916740003366, -0.1742237859102393, -0.28092857963086554, 0.26222520638265995, 0.1675940575307698, -0.15656943382936525, -0.14052093638610313, -0.08509541278673186, -0.005030684103390067, -0.2536597457992844, 0.024719742671653003, -0.19314156559506915, -0.29342016805772647, -0.2937505121085052, 0.09857947158574407, 0.29486833336557927, 0.2419960982150921, 0.25843721670581904, -0.19984422367837348, 0.2789541188872105, 0.03741907216928596, -0.16198297845305906, -0.04548311804084488, -0.2677951486660443, -0.2741291778161058, -0.054535590464432585, 0.09281888535068235, -0.26809580364417773, -0.07905256714129336, 0.14525634538955523, -0.2786452974217194, 0.23831357231880776, -0.2559655852775211, 0.05362134662560864, 0.16716767860429083, -0.11687288385546643, 0.07998413588915841, 0.11569157876478489, 0.26217667510344267, -0.24316351451425977, -0.06115886064219596, -0.24515899042632694, -0.16547806948631405, 0.27386443664114835, -0.1435287930528557, 0.15371080955440733, 0.009844145613991516, 0.031630991205576414, -0.20452205658350764, 0.09703937286904739, 0.0004542228905085483, 0.17355641048037118, -0.01289638293886609, 0.1995773738561246, 0.14476969028239678, 0.18230598438996817, 0.1867199866735358, -0.024364345600151563, -0.2155184073839167, -0.30349895682850037, 0.14134087183057836, -0.1073973905729389, 0.1687816968160476, -0.100313310238091, -0.2519262452751472, -0.2050907049663619, -0.3032507636401307, 0.002703026409933007, 0.16935016300331926, 0.16839444391686006, -0.17798214931675221, -0.1572689973302199, 0.258528599006436, 0.0039916084972980775, 0.19060945337859203, -0.23948471154243364, -0.27244177123376034, 0.04230242640313721, -0.02061221050918233, 0.017752371965710494, -0.07209135507892943, 0.16111558391357947, 0.23753603372335982, -0.05567619161420639, 0.19773551312576992, 0.054594273748942976, 0.0037531324296278296, 0.2800351056371957, 0.219076532120414, -0.27495707760468335, 0.24181922242429793, 0.25563822346784937, -0.2764015089080687, 0.11441750407750607, -0.033979077847692434, 0.03855875280198099, 0.09446693998182504, 0.1758450405671167, 0.04643082629818858, 0.0799926364677564, 0.2633328748640744, -0.09960635435755884, 0.18661578544993337, 0.2772675623558282, 0.13236143601604344, 0.19193386558574485, 0.251200010510257, -0.21578654389765117, -0.2727564009953538, -0.16855815811744593, 0.25049297818782457, -0.2691107015221431, -0.16716167765447715, 0.22209045269410282, 0.20295337780932401, 0.2938585625856462, 0.18195586954717205, 0.1429727989578324, -0.19855276919027587, -0.0208027595469553, 0.10928752783548971, 0.2227690146544785, -0.2898780826736211, 0.03445171890311181, -0.13516974927103603, 0.24318010660951633, 0.19151171403633144, -0.18383596373301953, -0.015936384132302608, -0.08860842771406664, 0.2628042062923725, -0.10997000504253447, -0.1493503869483256, 0.2104618663949094, -0.02212071088478802, 0.0744512558272053, 0.09237100192104138, -0.29397153071434146, 0.2207730411980957, -0.10088178492054206, 0.2664170387378813, -0.0126533530783329, 0.22880548481937735, 0.14474847835285862, 0.2975002364899197, 0.034762242500525155, 0.134459987879614, -0.06198398655074588, 0.11457399430270203, 0.08462013950343504], [-0.07436150657961955, 0.20004827607978803, 0.2065348064856246, 0.15405610862511526, 0.1615407888804564, -0.12582449716930355, 0.17728938074783096, 0.1503449513565375, 0.24799340183033686, 0.26420053517297093, 0.10875143069957491, -0.2584961456797751, 0.10508313212515144, -0.1704086314884994, -0.18562209489303133, -0.01123281226858275, 0.04767675339903311, 0.19121436791092522, -0.14745986167811098, -0.24385490855927613, -0.03607736315246837, 0.18382998246737378, -0.21193667168532584, -0.24920418253079057, -0.28407011708517144, -0.047413919902738584, -0.25345818300164885, -0.019987077577233187, -0.09154571196792977, 0.2450992126094589, -0.22651186907709275, -0.15347983744924373, -0.013245991594155983, 0.10085431781549775, 0.03058278114472681, -0.17808749264422002, 0.018574151123189837, 0.27332130258157955, -0.10983552989870111, 0.2862223130958526, 0.2954469448826218, -0.18520728866763966, -0.2712754419272239, 0.15664408394760063, -0.13278345760167257, 0.16337068129910887, -0.09990542322395816, -0.1773572736218883, -0.07977406056439301, -0.1904177694563439, 0.0442026014493956, -0.2927117861446758, -0.12909744740996806, 0.16616231142958854, -0.09744895627582503, 0.08256732687532112, 0.1570672220456578, 0.04043544243095957, 0.20883235704778957, 0.2361178081853864, 0.16597428718779184, -0.13917767022666633, 0.09264222533085224, -0.2063831317237014, -3.319824792271368e-05, -0.10951061269677548, -0.27660660994017866, -0.13540304057329475, 0.08038146190973822, 0.07370354024278421, 0.23339047322268291, 0.1928717368406491, -0.19150568536431464, -0.018039069809985892, 0.027120488331499607, -0.07625881905435972, 0.11918717756860281, -0.07992479375907276, 0.1357807732482809, -0.041200218196587875, -0.22834440929843203, 0.18301605487891354, -0.1984577554813078, 0.1193808097105365, -0.0867690458114746, -0.059190949327323154, 0.23042897663898676, -0.26269407769710423, -0.2950571034200849, -0.18590862874304154, 0.2983602229447902, 0.2935664660378691, 0.11400126281931822, 0.27043734851556733, 0.06076070733095726, -0.006583167809619321, -0.157344756620428, -0.16855275995444133, 0.24376563893489614, -0.2988330429560458, 0.0831256618899961, -0.22882870931285906, 0.14526239092883927, 0.21088847045168257, 0.055475104828620704, 0.20196096919927561, 0.1960873369680758, -0.23556043998169826, 0.19037075141694434, 0.24265833204815387, -0.2257609727179552, 0.19572128070882253, 0.10042554899258964, 0.20098857478909982, 0.12761638842320747, -0.12793258253911846, -0.28582671868039367, -0.010999558781825325, 0.15916239300849885, 0.19082274019589388, -0.18397057249136153, -0.0004383038429153668, 0.17912083215315003, 0.1368525386612798, -0.0029521901664478385, -0.15866164901895727, 0.2938928804963602, 0.10028954855530887, -0.11772970285786867, -0.2350524336024964, 0.09752657710347264, 0.07077905091572355, 0.019818573413083032, -0.0774172091459831, 0.2151378965384514, -0.04474293150049629, -0.046612167692869945, 0.02142420381854969, -0.031807217563474495, 0.24952429844201898, 0.289842458461794, -0.07427637856484942, -0.2143878535833951, 0.22505428471211855, -0.03833081029653137, 0.11271062647679504, 0.22461884108461685, -0.17396292075397382, -0.07358545615364538, -0.25284243983802585, 0.19081073140492424, -0.2532045397835173, -0.2556281305924936, 0.1557142648825988, -0.04663954745286091, -0.18967035194607965, -0.15858799125487308, 0.25598575373619303, 0.15416393739177672, 0.09819134106970173, -0.07794116398944899, -0.09817944878536684, 0.24489399898531825, 0.2156251651164725, -0.18863767759706837, 0.09906129072379816, -0.15707192744518012, 0.0424741582954694, -0.028326224241441555, -0.06581517007328767, -0.26540304861498937, -0.22980799251453007, 0.1450877683143148, 0.1440741522032923, 0.026018756478192046, 0.08255948258421208, -0.16700311119636116, 0.1337954098065463, 0.07761907585150382, 0.19842746787886967, -0.1475513456905416, 0.07256240172227306, 0.14413849012817517, -0.11760443952979635, -0.13265586402319293, -0.034875497303612814, -0.28280033335295324, 0.006700626356526573, 0.11000084188060726, 0.05350541991070068, 0.05066798188408723, 0.14056431024614685, -0.19678320305314828, -0.2780362454602502, -0.22077632219936483, -0.19904720974529042, -0.20088607562307717, 0.2260472574217734, -0.2566216329207258, 0.043796163004572154], [0.04805122263484839, -0.2122327304493787, 0.019000034129249763, 0.16094020025899425, 0.013528214581284202, 0.045486543978061324, 0.15933696935982497, 0.155022365154819, 0.11974771942687835, 0.04847465759356406, 0.2851949781198326, 0.1237666617657259, -0.21528298633608653, -0.19025969666632442, 0.2981659802041789, 0.12380818266195542, 0.27407476290385463, 0.0070912430226291855, 0.16054339510673163, -0.0684890155709207, -0.21194954794203555, 0.03493644519777638, -0.11808923947749131, 0.03171478401252422, 0.14379517655589752, 0.13050280770111672, -0.22092580557975516, -0.152535083101488, 0.09664269151492583, 0.25829692290716744, -0.014977594208650311, 0.04082298744786931, -0.2089595824883277, -0.20770932788984894, -0.2905796794753457, 0.13083208006761926, -0.01421565568126721, 0.22898233963434567, 0.04439473732732616, -0.1074077354990361, 0.016601724558395113, 0.27148649006057546, -0.22788691812928077, -0.23198944724847295, -0.08861327079822294, 0.2841585223598857, -0.14961763784861387, 0.014484907966844304, 0.016965555757528686, 0.14724795044924158, 0.1841316201697495, 0.02684709039296061, 0.29952693387734974, -0.23687507824230028, -0.08588593472738917, 0.2823171714488958, 0.26182112562745935, 0.17399919782347284, -0.1741629334228796, 0.14696058877717913, 0.18186533845420186, 0.2397099616725317, 0.029736076791470136, -0.1413515821953432, 0.23297033547603638, 0.04262430898045281, -0.18189770158658877, -0.2077899721144226, 0.0011844650048821982, 0.19822857676697453, -0.2183322152699366, 0.20581286392423348, 0.15221935275771162, 0.06507761418485646, 0.1343880096848239, 0.185381864774298, -0.04256597985373526, -0.20164514583709392, 0.21596063396901852, 0.21051403079001996, -0.0336699374388505, 0.2587792104749254, 0.10111136356529239, 0.2513805382018056, 0.09984445582444296, 0.2091340629568485, 0.03992848994489482, -0.25657459419487316, 0.20872439026296943, -0.07923529913211495, 0.12763245250647812, -0.007232724923551407, 0.12121096010980696, 0.07152750785618611, -0.08653073459091302, -0.09934390364925832, -0.19813167456060807, 0.13215190641748953, 0.22099126021332688, -0.07187950015243931, 0.2640809144198025, -0.004534455981763619, -0.02036767977511056, 0.15152347517340714, 0.0995254470170457, 0.015601279366168707, 0.2231577145301688, -0.07564701777579176, 0.10219015070370727, -0.13968870497776636, -0.14175868460280935, -0.2924575858273049, 0.1377655510098063, -0.21725860804780336, 0.1976687014712368, 0.11615013087680758, -0.1830935876681793, -0.16562842791492174, 0.08784227846687558, 0.15195049255920332, 0.14613351291098936, 0.041296739223941566, 0.043042565678534254, -0.19888057855887215, -0.3015307966906587, 0.235262353044611, 0.008065339414900624, 0.15406985962077013, 0.14560758355196923, 0.03379677620393144, 0.1817125837844437, -0.1560209494875012, 0.0758346986411211, -0.11526303875566299, -0.23739049185485275, 0.2486797223322283, -0.18217320277442675, -0.023949011935663206, -0.308478076886262, 0.09924090426156107, 0.09605694929367649, -0.1353035084781766, 0.006021422779858267, 0.2604346916483802, 0.1621505985958201, -0.1002197092406686, -0.23107328249310952, 0.01119805331561371, -0.22627725134570456, 0.14177949391930667, -0.17583178573085775, -0.1762291519384348, 0.2441405492068534, 0.10255011404874805, -0.061028955001130626, -0.30170800089937283, 0.017276696952527922, 0.06880865416951178, 0.18387352393303658, 0.2749354364691791, 0.08201164121150793, -0.1590560201395359, -0.036212944040479124, 0.22536804611043987, 0.12798286305880788, -0.1173427275357146, 0.18251858781464717, 0.19621219937458517, -0.1846301919663042, 0.09435994389799537, -0.050736523360096715, -0.06757493331163025, 0.1289778801788829, -0.24974815004498568, 0.2247796185806067, -0.08230192896632614, 0.12457998419771649, 0.016432758550771195, 0.027021304019979608, 0.014327008064234946, 0.22148280260147885, -0.24389599328965894, -0.2556617731855616, -0.2276990462394541, 0.048923550359785205, 0.21426530497514576, 0.06340591284058812, 0.2783096053267683, 0.2058439152195667, 0.047410194689437114, 0.198750884747213, -0.13064243363263986, -0.018813038280341084, -0.28341998920688444, 0.3074840539843863, 0.051615376083343045, 0.25160931606684145, 0.047278825854088755, -0.18796030752361717, -0.1231712488697978], [-0.2903944718782683, 0.16567340686332327, -0.17045535298801356, 0.018382619415681985, -0.26698761617064565, -0.23193012913992647, -0.010678152118611974, 0.26473379493182003, -0.29885009247108724, -0.19656273640758049, 0.28365232727572065, -0.24785579338579736, 0.22406062864456733, -0.10991837121158878, 0.021018764873840544, 0.024252240589455916, -0.22699684233170822, 0.200982110624998, 0.080396445048735, 0.20984272989727182, 0.24678753620532473, -0.18277913004045818, 0.2646587824314297, -0.08761579831831924, -0.14535677705694308, 0.021740041034160884, -0.2741361711507887, -0.03891735493431759, -0.060689450762650664, 0.11501703332683004, -0.221360923858964, -0.019962167317220322, -0.2796700373936914, -0.0752595122257851, 0.29084830720552973, -0.07014478504251345, 0.15053476947702543, -0.00900078139036813, 0.09082162669675269, 0.20762073396050376, 0.18733001163289448, -0.011629447766602841, 0.2556800844704284, 0.02840710880043691, 0.08796196639706591, 0.03768166632886604, -0.21168413273983067, -0.2916360386112055, -0.2546054289057777, -0.2691282174971364, -0.29353968118613083, 0.15361384948868742, 0.047825448145758745, -0.2841029300409952, 0.13294112523961032, 0.07931200722872722, 0.10886902697401238, -0.10707266764689247, 0.04322118435913152, -0.27540492450973914, 0.09547992132656781, -0.2763089109517947, 0.08110450046071215, -0.09632571821122088, 0.015486391561543172, 0.1065788111522092, -0.16792164289206069, -0.141766209314684, 0.017432689822372664, 0.10196874410173078, -0.08578230403685698, -0.2281837594688382, 0.24165187748464764, -0.2184405168652983, -0.05637474002823757, -0.23995872359330234, -0.15710157908561573, -0.25309310914408983, -0.2936746346256575, -0.24173252071037155, -0.00573975253985284, 0.2932517794824477, 0.09577870246213732, -0.09096326166958117, 0.1968538319628274, 0.22023449566335473, 0.020541610516602884, 0.006287694586931357, -0.27582195240029506, 0.1413676188057884, -0.18664123175960834, -0.14235425515648997, -0.10296900872382245, 0.12825451048893716, 0.2262516983025558, -0.2635704940332883, -0.1629400822675628, -0.2869750363122107, 0.1874675480653065, -0.2824921515048858, -0.15102642424345478, 0.28876271584235996, 0.13054568585870158, 0.181121741290266, -0.28722569590264985, -0.1644057855961226, 0.21314138083146408, 0.08583466021288616, 0.18280908072141075, 0.08218481186863913, 0.07227003812281074, -0.20797111393113604, -0.19264969220438205, 0.010129448566829246, -0.29225661263225194, -0.03429831205207826, 0.1862252491215177, -0.07196719028760165, -0.11906239113834215, 0.10344695560124494, 0.12087332979111656, 0.020019105808307996, 0.28738247745097745, -0.182462589647928, -0.02539540713245464, -0.23777800682068606, 0.1350089849863011, 0.2301200809475264, 0.19358777711908534, -0.28871649784790426, 0.22472466611378628, -0.18079215291682965, -0.09075537592816425, -0.004958721650095825, 0.014410204193975476, 0.27581474598080574, -0.10296172664272894, -0.05131819179433066, 0.25057275358345626, -0.26251894342584775, 0.12572667850493716, -0.1763768717024388, 0.0949397771787639, 0.1245435895830776, 0.22341805374621254, 0.006414810826430253, 0.2623995095843161, -0.10820747964547109, -0.0012363732262808493, 0.060280937678356634, 0.146009685245052, 0.1765311511131591, -0.030060022382856325, -0.3002320796196244, -0.08675611280696705, 0.19933885869003942, 0.1692666254991275, 0.1126080690991926, 0.11718559108933543, 0.29311639199302186, -0.15990376177154153, 0.2838845125631774, 0.17297782377967116, 0.19168815092823357, -0.14496172009249045, -0.22146098321560506, -0.17099899821078074, 0.30169437231267954, 0.13792017432768644, 0.014238035814284134, 0.21850262122355282, 0.06654144940374575, -0.17881458502013978, -0.04184041876599827, -0.16055056259007866, -0.07073655540464269, 0.1405625359339757, 0.17655781460454678, 0.10344141868582943, 0.14983701491806456, 0.29145779695370316, 0.1730137457853676, 0.13514748797862344, -0.016349199490997408, 0.2896786211691049, -0.28236094923311644, 0.01369641645381117, -0.15422728075131464, 0.2074776499191199, -0.09901164249505898, 0.2035790540255065, -0.16933662054846826, -0.18476193879890251, -0.03346567678669006, -0.295488606611877, -0.1893238046983908, -0.22900522901374706, 0.24484488528027337, 0.2521782256302827, -0.27220526409536416], [0.14973675342044424, -0.13026158123464068, 0.18672287205566793, 0.1834056926521781, 0.2729811186494052, 0.2638767497303461, -0.06599438095762293, -0.12146130660313005, 0.3013649666111452, -0.22403364913771154, 0.24702149121352907, -0.04501830467169847, 0.303854429872194, -0.14255293322209348, 0.19669946252345472, -0.10299173177504822, 0.061226317495806634, -0.08325739074254634, -0.14520110444292697, 0.029151088213466906, -0.240136452529452, 0.2836654970377093, -0.2828135440649119, 0.11814355497157056, 0.09440282729587299, -0.17964107370186919, 0.001266480312490043, -0.2971521620745755, 0.2908116744640441, -0.2514326491811692, 0.28884222203719395, -0.2917867119772651, -0.05750264126435558, -0.21606854374982273, -0.1005218595556567, 0.008512330900870424, 0.0615766556280679, -0.1548875597162668, 0.09242082150507008, -0.18771017399631013, 0.028261903544352714, -0.08675331355862051, -0.05878360704430802, -0.29328373951593306, -0.06761439905611294, 0.1573640862536612, 0.02322250597929835, 0.17156182205298567, 0.14936689253217578, -0.1932663479101455, 0.11825795048391617, -0.23508585962219639, 0.16568206016376766, -0.2003877676909539, 0.12822582560716927, -0.09276628328190792, -0.22766391183872925, -0.2686037273651522, -0.05226095852070788, 0.0009582102961008038, 0.16249473620794372, 0.17960397018691282, 0.13789899082998142, -0.04606831319686772, -0.2923045212358694, -0.19197688451102343, 0.1896291776755546, 0.007517172674432029, 0.14487826923356914, 0.10226542369390776, -0.01685050003125243, 0.2654177829845616, -0.021917284576516018, -0.0035981366056525308, 0.11000901802472492, -0.21478329907901217, 0.01472797229450984, -0.07419433107788874, 0.03119645533469139, 0.16104918511482438, 0.10015616990557126, 0.01511330955501175, 0.19332402384889064, 0.12397181485374228, 0.17749941144667047, -0.2572572690182671, -0.035420140191673825, -0.29805521760463155, 0.13787566453139674, -0.09871185518742973, 0.053051522489516285, -0.04389127423121776, -0.2664956652474338, 0.01838940751491213, -0.08740665924281796, -0.11282125054753739, 0.1838352504579672, -0.056555799150637, -0.26423164101340907, -0.08178859916091505, -0.013690461183572165, 0.15859662342253544, -0.2079692541895321, -0.18086801257826585, -0.21543151819693276, 0.2273428784661289, 0.08904256400713982, 0.16671445240417593, -0.2597551729852816, -0.2741762370023324, -0.1428912717235081, -0.2915835490566105, 0.2756096334012116, 0.11202797819754819, -0.02289340259208726, 0.301988082196269, 0.18825848316277405, 0.29312608098572385, 0.1498613794868068, 0.27594400169712613, 0.18026915047739464, -0.048538460513106764, 0.16742120540816627, -0.16646349445497505, -0.22375864821339353, 0.2841573504789458, -0.28558764556069094, -0.25465368081278106, -0.1330933658385057, 0.1570261677317527, -0.11098516451269586, -0.2100604977877854, -0.13138293183105068, 0.11220838028371659, 0.1266667369013857, 0.25781556060901495, 0.07674693256811817, -0.09031876459708668, 0.20078859182722444, -0.2064783671778708, 0.15674315145221607, 0.17706869625624388, 0.25213696534246405, 0.16817386954576127, 0.19952695062920767, -0.09210052850302397, -0.23847708887298547, -0.13387051331305355, 0.08301717034480594, -0.14636248492155424, 0.17861711950795806, 0.04222725813592854, 0.0685334620762327, 0.06004595671972558, 0.2742999055869314, -0.16132519934201903, 0.12194710979021695, -0.040649089134107655, 0.17841192886940438, -0.2706334573003531, -0.07422299706677378, 0.2080845219290047, 0.16298203720096016, 0.09538899125872262, 0.2396254182069568, -0.21519409310504325, 0.01514439822643569, -0.012311548880758102, 0.043269151964466915, -0.18558092449575866, 0.26826844334463884, 0.0605874635603748, -0.09056160437814768, -0.08093155256606238, 0.20929098210298697, -0.28865413702382486, -0.1190011448682638, -0.19122709214737713, -0.07145664927052643, -0.2653235685265182, -0.1350604895383798, -0.29892843079969794, -0.054663579149660316, -0.2356466955607166, 0.07161925714008462, 0.08754233387166915, -0.18076149725700344, 0.14853699872375503, -0.04269028437391539, 0.0830108430467517, 0.14796146563991533, -0.1798910254257928, -0.05110580344311953, 0.26818672754524375, -0.07365504988244152, -0.1324067144762161, 0.007179704582803422, -0.10579365590041291, -0.2677857271067451, 0.2848314005467321], [-0.11398795404064618, -0.15650855130041533, -0.13640837869280492, 0.14057985375571713, -0.28523723039786697, 0.07439595441337996, 0.16719901623996905, 0.006375576672028008, -0.2840667517687169, -0.14025287228761402, -0.016249662434178348, -0.17906996694194346, -0.054766080864638605, 0.1541913059401091, -0.051877808782345984, 0.2504644114137846, 0.01239658923227814, -0.06580122360310443, -0.2609031894696042, 0.03877369774159898, 0.043405156422347276, 0.18801893132753708, -0.24323582014549183, 0.010916774109512084, -0.2451937415975318, -0.22605190000968675, 0.03694057178637629, 0.26940281397594523, 0.2051938873343476, -0.12603720985274272, 0.18198004134811005, -0.1405359477495274, 0.2362477119555533, -0.0139688069214789, 0.21019618677903568, -0.04639275987229241, -0.09252331548098171, 0.01102436925516026, -0.14938345304618197, -0.13747167456996584, 0.04434173922512976, -0.2202700563526722, 0.20033769340413365, -0.1657644666902514, 0.027872595050716993, 0.05768147292878264, -0.16437089648805378, -0.1863456210216474, 0.1981110094804624, -0.25616775684671694, -0.14994497845192473, -0.01679424944057786, -0.18645316866075975, -0.18279184388262207, 0.012544264285466815, -0.13358721209556398, -0.27667341773472387, 0.1990999932023602, -0.2564920720224852, -0.14186876304697346, -0.024268003590094928, 0.24398995297689888, 0.011362863666811503, 0.055222835614265234, 0.04087168837389658, -0.24929985578133754, 0.14683893728875003, 0.2169489389969885, 0.016116481307714696, -0.05315165535656812, -0.07890909435718027, -0.22382516775545883, -0.2750786448843552, 0.2565759527630514, 0.1383294452890544, 0.27976770639628107, -0.09774441166301026, 0.2829526584052402, -0.1140019762213414, 0.03455704371558512, -0.2971014895493724, 0.2470278593420459, -0.19852017372489034, 0.09487313712875933, -0.07789440248998314, -0.14509733217204313, 0.2844219214458341, -0.2985871872496181, -0.15206164972201844, -0.23098596467030613, -0.1233459223732155, 0.07228748323250647, 0.027291341356010988, 0.2279825114521733, 0.24722243879215997, -0.11174382582472368, -0.24248705718003719, -0.0187051425805181, 0.0506765790223503, -0.08921629074633526, -0.12331210112154055, 0.2770696036335464, -0.06931381724138601, -0.2549583466070317, -0.16626350949762267, 0.15684356927997758, -0.07571080648520886, -0.14440625836803106, 0.10752088648022769, 0.10671086431548152, -0.15172168106500483, 0.2525989137113598, 0.21677988030833564, -0.16685362169735357, -0.11610918954375517, -0.16236008389229536, 0.24821291206088808, 0.03695179639016965, -0.1284976555750149, -0.04920878787038867, 0.26062144807389037, -0.05543589819814578, 0.2782531312461108, -0.12232428936072105, 0.270539334962196, 0.06813533678535773, -0.2105057862528604, 0.15954478881621592, 0.15708214410057428, 0.17279063593226632, -0.02388678600930944, -0.11857008698325028, 0.19172300476568369, 0.011011317488946815, 0.16968599754527983, 0.013035428208534407, -0.06788703708740854, -0.08213848000658992, -0.23014229659393226, 0.2863846212421216, -0.21987163055161876, 0.014771146668545591, 0.13248583506359413, -0.032864003266669356, 0.02861080392651725, 0.17273896968202856, 0.019158282545861216, -0.2088813412629147, 0.19881693561448127, 0.09095167284267054, 0.025760090131459933, 0.0523289130111077, -0.2423505793276994, 0.06335706944574157, -0.189097695299961, -0.169405965295148, 0.04790958888672749, -0.20951550247882395, 0.021230773804825645, 0.1767899433296794, -0.2895413539547666, -0.16344853261661263, 0.29563763799545606, 0.291219295649713, -0.045720730147006984, 0.266373724992732, -0.012239879334975027, 0.25961866070013323, 0.040914858639904954, 0.17002699316856698, -0.016205767942630657, 0.16839718301472933, -0.07869243426350483, -0.031682127891735884, -0.165967758129538, 0.08977456607140627, -0.009207578136734893, -0.008327988024666638, 0.2630970212281849, -0.16668329286750744, 0.2892734561590212, -0.2901008642211099, 0.07030089978166394, -0.052750321992470275, 0.2981573950632492, 0.27486686583164527, -0.19037164868568032, 0.247605945416443, -0.06229727059218543, -0.09376131520676115, 0.028631685555623634, -0.26738238021151695, 0.002325084353582192, -0.23342049045617932, -0.1018510841017885, -0.05338562752733948, 0.13366008459956535, -0.12074067114556133, -0.08517258100884241, 0.20803167066561873], [-0.14613076700943442, -0.032742628270219995, -0.13480590045991295, 0.09221798258574994, -0.012390085233458345, -0.04548535430636812, -0.2989029067863712, 0.2443151142371416, -0.1281510626225053, -0.09161639545006967, -0.07134823035804547, 0.01609882700113226, 0.28243935572246875, -0.2472590438015171, -0.2627318274439692, 0.26325871802007883, -0.2608047444063076, 0.012328181036543203, -0.07584717349269983, -0.20995362204619686, 0.11223226600633747, -0.024260159337975932, -0.2591990895950703, 0.22569956199818883, -0.26981128827724465, -0.24588665513899527, 0.12326918551624164, -0.30345009423652697, 0.18155989058947447, 0.24291639906351523, 0.29773891879122216, 0.24911291204979039, 0.19473770016246042, -0.2646146023307711, -0.2220980463141265, 0.29424610285006175, -0.2525066915897507, -0.2551357816230394, -0.015983841717088818, 0.19122236598465375, -0.17723949481475365, 0.12674132492611367, 0.15420681623154553, 0.24834452156723574, 0.04034997766956305, 0.06848115093957767, 0.2805383876518099, 0.1787595805233172, -0.11299645541193688, -0.0245976508648471, 0.0619632933137111, 0.08478154160236485, -0.2223287767781408, 0.2833497395630299, -0.014263908110255148, -0.10105487389186646, -0.033812872266099865, -0.07528893066418922, 0.044519899654924554, -0.16148002636587042, 0.2551418497277412, 0.2776701736783631, -0.07006323993435395, -0.21597378800939504, 0.10713674535954353, -0.15267989262192047, 0.2044195114402034, 0.08337394152609891, -0.023084601209414343, -0.1545935725826731, 0.2437869595086619, -0.25075599037743324, 0.08421534694774306, 0.18657931584567292, 0.21801239166339423, 0.08004686526802499, 0.22520862284397233, -0.15050632956521995, 0.2674433734097027, 0.2115868806018518, -0.05503058212057847, -0.15071577327718585, -0.18314199028620046, -0.15266801508281355, 0.29584769320737986, -0.23961041639337152, 0.16336326501927972, 0.30264964443164705, 0.16473208534129435, 0.22245663449416542, 0.1712185929802014, 0.13088717751833134, -0.2589325638065409, 0.01750516756467419, 0.03425968337948677, -0.15325004560641048, 0.20781606650791243, -0.17197448630189127, 0.007470216317716444, 0.12502298696536016, 0.19005089350709295, 0.19948377145375934, -0.10258297197845963, 0.19567120377452213, -0.16048817986276495, -0.07662819984260101, -0.021366980777894874, 0.062062139351037396, -0.010943837218599851, -0.21262657974301866, 0.22153712278618914, 0.26608732645058075, -0.2780361542840382, -0.2399657433425798, -0.3004909512625859, 0.11526255430344405, -0.23457324052657488, -0.13491320249778282, 0.15603593884063321, -0.19136039613547887, -0.10899344614802726, -0.2786968145141471, -0.013165880655829756, 0.29116899429600607, 0.13095799195817556, 0.14692899108017812, 0.00820983244973737, -0.18697149332219534, 0.22049227164734997, 0.046959404485425585, -0.19359979205457623, -0.23654171289502995, 0.2618839390032853, -0.12421124058006079, 0.20613077012580264, -0.08069457379393936, 0.03553300040228522, 0.00217240848036212, 0.17676968259495118, -0.14297802051870248, -0.16860107840318533, -0.16442235318075196, 0.07560519634227528, 0.2170155570731385, 0.05859929300134785, 0.08864940544213457, -0.08894073962595028, -0.031083635511564393, 0.0871243817834534, 0.2449685162929671, -0.16475601294346717, -0.14767485132066896, -0.18211972494770212, -0.09048691292260967, -0.22052267772261755, 0.06432901716314607, 0.08362626727874377, 0.07723922989652447, 0.16012556768703098, -0.12459550071568788, -0.0783977921624549, -0.17706480629580854, -0.23082178210882728, -0.2071820548631136, 0.05321711360712125, -0.1718745496329858, -0.2887325326773387, 0.07996360005776666, 0.18821242792849938, 0.19973169664855808, -0.09498901071428151, -0.00048105653082084637, -0.1946360184444987, 0.23392079536884233, -0.11616759243440142, -0.05896380687375054, 0.01307760469142016, 0.22917066138401695, -0.22023972392154822, -0.2675032600939289, 0.24995077553090653, -0.13545627491667891, 0.20347132290791956, -0.2968763305249504, 0.14489580002945016, -0.22570174611780308, -0.23027064064608269, 0.1678087803624365, 0.21340048601408704, -0.15995129312606335, -0.014779028780496516, -0.02335779222846523, -0.07740674871710086, -0.09987743259007384, 0.25183550158519696, 0.25243122236250304, 0.2063410750642863, -0.09281984465354476, -0.1933786899161694, -0.1843156257724099], [-0.07432062935928406, -0.2740415669771274, 0.21785239526653163, 0.09655816195156729, -0.012286745265815106, -0.0611524156735728, 0.12457669259221421, 0.17213758113180908, 0.1348763459511227, 0.025128814345672282, -0.27053220830822594, 0.12743541922122265, 0.2141718292159751, 0.25815573277909626, -0.11907173202974741, -0.24853162653900396, -0.012218147621712808, 0.09477972899482606, -0.26023337263216306, -0.19320521757560138, -0.06702349306569881, 0.0068927044329966415, -0.27209606713176093, -0.2549601968623088, -0.10045508211316792, -0.2528023339016789, -0.27202131098134824, -0.25131690916567667, 0.10167470206585129, -0.11588498876292819, -0.009957042216429656, -0.041293065634726484, 0.23563468028125326, 0.23256402131409065, -0.2678757702588873, 0.03845031571255781, -0.06778863644007303, -0.16200259699859512, 0.21159623583265486, 0.02655294449110955, 0.2275608252446452, -0.20056708099419615, -0.06586814134519346, 0.24258536522967342, -0.2587853479789644, -0.2695064703350935, -0.2531226248152905, -0.019525523784448648, -0.15051678622830691, 0.23769272711518333, -0.172941279394396, 0.05259905095405078, 0.2048146448357169, 0.21460688485518792, -0.19334789659797497, -0.11925427986416698, -0.25427212737565336, 0.24135899713834594, 0.23040631374557274, 0.018091197432165952, 0.20355822517857355, -0.23771351090580387, -0.08731771939814273, -0.1557016948557797, -0.015577599715543034, -0.008912015015066768, 0.02866948219829736, -0.020320335865095757, 0.12537958798157248, 0.24485665776700863, -0.03807424503652399, -0.09795366653154487, 0.21051376543025746, 0.18247069233468854, 0.08364397978335332, 0.06585368796681078, 0.16298244061925451, -0.2862496820663226, -0.1345413738613476, -0.03717910173664998, -0.14293238633616057, 0.12002672729426507, 0.042422734719801417, 0.07353992173754924, 0.26645296694512977, -0.04962545141067846, -0.036691411102777814, -0.2412908133443369, 0.12961602860644605, -0.18433067906809036, -0.17341673901551835, -0.19560620073727525, 0.07513792291386397, -0.06723119557734342, 0.1276315494307039, 0.024245848917550637, -0.2191571924968396, -0.2311848384788702, -0.12992624896267585, -0.24630375472112653, -0.06137289061709722, -0.015351051616522959, 0.142202260772187, 0.20856760859544343, 0.21401357907186594, -0.022816191675515237, 0.09157871609707238, 0.038057337532567265, -0.3038557394320509, -0.026494484487198783, -0.11129153928244975, -0.31548836673935343, -0.11048446057129303, 0.1001696441749189, 0.047869750142863876, -0.00014241838270405847, -0.07160508540531177, 0.235815655719448, 0.11387629522694721, 0.31217082966324844, -0.2885478802864411, 0.10196987491087499, 0.11371424266250457, 0.08337814609261744, 0.08346155406408644, -0.19318002547141913, -0.0901404599177394, -0.19986690067471116, -0.024628329332124062, -0.021777793322229157, -0.024820918956968124, 0.1987046845393355, 0.22493416742669897, 0.02443024127616644, -0.2628794528274695, -0.07911433438759922, -0.09225784649703604, -0.22736014526669976, -0.2508423152710279, -0.23532932547147295, -0.17299159475868287, -0.2543609990566113, 0.1263792994570778, -0.065589757497969, 0.28140041149888556, -0.12297601901160743, 0.21581033407912137, -0.20075969749805647, -0.17719261280139217, -0.23074219396076795, 0.23776715214209446, 0.14212953957186134, 0.08145544003102415, 0.17761855661390394, 0.16032568448046047, -0.18190101320376084, 0.075275097220821, -0.2582133901425246, -0.26060824076197087, 0.1621979763746613, 0.16376733280085823, -0.09151930467818184, 0.18865558029849375, -0.1779013798233532, -0.003184046880757912, 0.0648787996806264, -0.17945395583674273, -0.15944992999966645, 0.027016383599264372, -0.24712149892203583, 0.28079857383369583, -0.17352446784078268, -0.16731870096273424, -0.08158331622893664, 0.08563467344838281, -0.02603319414426547, 0.2561872862949248, 0.027366005243141703, 0.06811816909345655, -0.1348070569498046, -0.0911963796638846, 0.1741788650478035, -0.2026316231755711, 0.28881087588363474, -0.26388723581719625, 0.22488194698114025, 0.21652173547181452, -0.050422847216581905, 0.04692545749057756, 0.10208374619143554, -0.12680578587879596, 0.055027966281670775, -0.1523467296339166, -0.06667301884452441, 0.022471816713311478, -0.23480594417460582, -0.04205852032750811, -0.04974014052359135, 0.04540322534290812, 0.2770040813186847], [-0.17938676734487896, -0.06632055047208901, -0.25313407513581565, 0.17589348399412957, 0.08020429851875271, -0.06874455308302686, -0.20320122123353437, 0.038411585947803695, 0.20929725361783424, 0.2743984711529496, -0.2880917384775567, -0.022267209935744197, -0.27176085180370246, -0.2846379159516193, -0.07507634654839443, 0.27689086151654246, 0.29029967992833455, -0.07660535082342512, 0.01968780953047201, -0.027340447471140356, -0.1917963031909687, 0.0695519546997733, 0.23678656393489578, 0.28594208541170046, -0.007001145151512916, -0.05308252492202086, -0.23079906954658985, 0.1716060815144883, 0.2899615331426081, 0.15062601474402199, 0.04009243964062652, 0.058399175883219044, 0.011740756307342375, -0.060725598818891176, -0.16364010525687278, 0.11275050777663922, 0.09416124383362623, -0.25603642411654187, 0.25087511514830474, 0.15925026224220729, -0.1598114205839262, 0.10540530466699022, -0.2725727052136512, -0.24872039548187228, -0.2528028487992619, 0.22351908246819102, -0.25234681236288997, 0.0863257265759407, -0.2457015964350776, -0.08565477037129886, -0.003923471884633245, 0.2994759521452635, -0.1040526777470631, -0.18644004059207056, 0.05528839700799207, 0.2472363363527652, -0.1895617800047979, 0.19500544048532165, -0.24329548787936925, 0.033482267098199875, 0.1773070703078074, 0.025575703341495372, 0.19196735081559793, -0.08713084038757926, 0.11832724073581179, -0.10236656153560617, 0.21135301855589964, -0.27698086404239025, -0.12486295091858933, 0.012188066879652354, 0.06319636526719496, 0.25345766535869657, -0.16774114612720895, 0.0786186471967704, -0.04604604077216545, -0.1506030838893095, 0.16501692769939544, 0.11453602140135746, -0.1743193469598702, -0.14844524104931792, 0.3036703232941036, -0.1138362481738513, 0.1826464123894809, 0.25791818723940907, 0.06655853720832991, -0.17799090301477913, 0.16788555867186808, -0.2091066929839776, -0.21066959940132743, -0.1718912845130497, 0.03249005740925214, -0.2186522790424019, 0.1877968877501121, 0.15823521116032846, 0.02983988016401313, 0.2074363587720873, -0.02664595442689993, -0.00978800377287165, -0.2103693515272573, 0.16664169207902918, 0.05209660538325963, -0.317298259946802, -0.09140725467482563, -0.06750347567156677, -0.24501806300264148, 0.1532278289113679, -0.025663300653833196, 0.10263744082735016, -0.25029800965853954, -0.041771858340410195, 0.09931166921218473, -0.2733573933203332, 0.2510713543158691, 0.22910121600987135, -0.031923902798408094, 0.15581830257884682, -0.14508834103570553, 0.08172179869514426, -0.10148346203972057, 0.1726654004020223, -0.19436924952833667, -0.2584511888536317, -0.01461559707813588, -0.15433578058762087, -0.20891442526536597, 0.21976622302836307, -0.02521838089500014, -0.11072639474937994, -0.23487859946763742, 0.03837914059905114, 0.1497377322180953, 0.21897441530530418, 0.039529527860962, 0.1887791802296935, 0.00068414188134352, -0.12808775435530143, -0.09333247362522566, 0.17349782014803458, -0.07763879905028158, -0.05917029982356444, -0.018850891412445912, 0.01668204202658552, 0.07787793159660908, 0.12628652332984572, 0.2809027862116035, -0.04325004857351097, -0.06066627959208917, -0.23246707442478615, -0.16919812212197127, -0.155969537890468, -0.16350618072724168, -0.0051249372962046845, 0.028009466119320894, -0.25070799975084546, -0.31178298865012977, 0.029539095239712675, -0.2857880440472113, 0.06056582277487925, 0.30412506679172563, -0.2670074023459508, 0.1711838175724583, -0.01684864212453662, 0.24404582404865746, -0.16413845489288884, 0.08896669975469189, -0.10463351077080386, 0.1808448735098261, -0.25706208441672124, -0.16711744292947564, -0.15848566792489083, -0.06626884942330018, 0.038742303372720166, -0.028622081748407566, 0.024013252380689253, 0.07484048707150573, -0.15958821452563274, 0.059605194566108785, -0.062325883944153365, 0.17219238059268221, 0.12243231417304684, -0.05099082668507968, -0.27882016141641647, 0.17598195075476733, -0.29507239329217466, -0.2716503354135974, -0.20376988619329447, -0.11345905406762655, -0.08378702431064346, 0.10442759072048438, -0.10675886492322183, -0.12370849653866522, -0.057144636029849566, 0.26575214386282237, -0.04086320989334164, 0.04636085119313547, 0.24647233846818942, -0.11008649820919024, -0.07712519263657665, -0.26224155541242467, -0.2361390008248003], [0.13229952175194643, -0.05188202705879722, 0.273562576578221, -0.20643338118036098, -0.2049818529944158, 0.14132346790781986, -0.09484885268828429, 0.06561449102350285, -0.06807961817483399, 0.24387240580240313, 0.097844447451083, -0.19679663113084134, -0.04494176938932893, 0.11501592380207025, -0.13632035927820238, -0.04785947333352018, 0.056957438514243654, 0.05427534682492126, 0.1660637689742114, -0.22027652370715423, -0.17709796891459914, -0.14904079239141327, 0.3071551563956578, -0.10092553813930584, -0.28914444430868635, -0.09914020312519933, 0.2878040716602117, -0.21363029459909352, 0.13171438421564546, -0.3175306995121241, 0.16096229216585056, 0.07346545179412889, 0.13542055408685938, -0.04755220718108167, -0.1914478637614881, -0.24339551639248727, 0.2423724546332934, 0.2510954904934118, 0.2784797895412568, 0.08588872809688212, 0.10560031340086608, -0.18060766244275098, 0.122290189007724, -0.2038666493099187, 0.05052113220011679, 0.26661093727658214, -0.11490157523738201, -0.15997844125504013, 0.04866672448398145, 0.2541937443155568, -0.25570745763416836, -0.06193665669243557, -0.03280564139487852, 0.19686218629746655, 0.2601196577155382, 0.18489516790644825, -0.11034964133782538, -0.09452956153101269, -0.2369629128237712, 0.04617609615484163, 0.10126197061426055, 0.05311761269454816, 0.2746724031160073, -0.1630485129322026, -0.1099936739459248, -0.11898088847885376, -0.04245403773977245, -0.007876338108538423, -0.0934776181952371, -0.16502904113496827, 0.10888287997483305, -0.24591885014679551, -0.28737011943899043, -0.029735155439301282, 0.14372035934628272, -0.08463044192154638, 0.17605304045244138, -0.2667232633786593, -0.2831404725257208, 0.12267740882152507, -0.1728538847751937, -0.05816613243225223, 0.19432691844439046, 0.05450525253483602, -0.26799394597760007, 0.02857800458129789, 0.26772046088595086, 0.24995606018826697, 0.1422625307804032, -0.1023729503686392, 0.05522564236176665, -0.04630982730118699, 0.0804842561426503, 0.002511994598004079, 0.2719130645405344, 0.31344091970700055, 0.02423812581603013, 0.23806658229286146, 0.2546795946856341, -0.2343039666177324, -0.08434225144883706, -0.016772700181179476, -0.23340541744186144, 0.13083869648377283, -0.1272123975531522, 0.3218896514898573, 0.14533892445789587, 0.27634350152344683, -0.031390523012830414, -0.1338337982218919, -0.22949473160459366, -0.2939274720873708, -0.29359642189907775, -0.001918641438598651, -0.28755646421757336, 0.2409348873106472, -0.05429699179791939, 0.056366536555370106, 0.29117149157580174, -0.047847025502453074, -0.13196460725776177, 0.2618515367318481, -0.2794089435652062, 0.15070165886487175, -0.20470645829385667, 0.06303855066159134, 0.06013047298765406, 0.0020830284795851865, 0.17359632820238857, -0.1969338549566143, 0.02837286218151356, -0.139904963784015, 0.21289394958495778, -0.23103658462183407, 0.05995876471126675, 0.13211133075332418, -0.052446808607903905, -0.21167289813809576, -0.18386778486855251, -0.24310414082730794, 0.2247782322821138, -0.023138926500732362, 0.25378462274892366, -0.22520629803938624, -0.2608038407360013, 0.1743928366123222, -0.04631053317246123, 0.24443584520194292, -0.16232631235600234, 0.06248311565691624, -0.02753890385853325, 0.14555129570406972, -0.12589825541103924, -0.07300612096892638, -0.06170224581706148, 0.26483388594851587, -0.19951933596384955, -0.19633744001271858, -0.0860515316626527, -0.10839313938639172, -0.1216855487151873, 0.014391519974266256, 0.10573032205018154, -0.025645202150516182, 0.0711696871018524, -0.18737362990061826, 0.2178278621036318, -0.01792590135831558, 0.05570514305565318, -0.21891966255460477, 0.1448814935743527, -0.029722504712115003, 0.02278821082970507, 0.09252356667714166, 0.27130338728251757, -0.2670191013405569, -0.2583244174077143, 0.25394199257745304, -0.05918093793146605, 0.3246808503841361, 0.24279123177393994, 0.27541157968388846, -0.014324613692003593, 0.1920217243723319, -0.07122179410545236, 0.08196638110646222, -0.06313040543859405, -0.14322666248760227, 0.24146626186512865, -0.27113881059810685, 0.28209318266385397, 0.2910357816032353, -0.22757804245695873, 0.2968268763163633, -0.26509439659411205, 0.23944259562477993, 0.15824642866210897, 0.16253423683129406, -0.19683878815868602, -0.06840600942801747], [-0.09406236706543264, 0.14984699266131637, 0.17080529207772144, 0.06006955317523849, -0.2483064212797884, 0.29026534813516025, -0.1646739574955215, 0.2584515614696515, -0.15835839506930427, -0.2334594664855834, 0.06608915655604232, -0.06168589566942648, -0.028328847506911156, -0.08431888649188896, 0.12314083949632476, 0.12062485732108058, -0.23399428764708072, 0.10679887536330514, -0.312693399862754, 0.2223898830238293, 0.053856060115263824, 0.21392176272851585, -0.08084249823851766, 0.04311086095193615, -0.12095438977342032, 0.16294571147868345, 0.22850741005065955, -0.007575545220963766, -0.16245624106394368, -0.09588612021958362, -0.25763293698013456, 0.0860985720041154, -0.13141611649533258, -0.2785630595841833, 0.2357754994168755, -0.1903659981134614, 0.017311191667276314, -0.06528925301929918, -0.26113512902898156, -0.267247339191999, 0.25758035258819245, -0.09818600670436109, -0.00793005965965608, 0.2862856879952351, 0.048582629272361066, 0.058379499862113396, 0.197156794929807, -0.29026007309724744, 0.09777458684961837, 0.06838682991388, 0.07868940635722993, 0.06883291448982308, 0.20887277171180985, -0.07085324388568465, -0.13988841969215482, 0.21203041765374026, 0.2189532107723419, -0.20426819954395947, 0.16259709804546638, -0.2346634364135107, -0.3055476102530612, -0.06989681537804183, 0.14634040094275955, 0.048544279971139574, 0.0005215986060011815, -0.054436699554463064, -0.07949685529790687, -0.30191499791103915, 0.2866507553922167, -0.019348261340654815, -0.20891030864239787, -0.14382868908157717, -0.19605102009295033, 0.10903022883648322, 0.006064124503443654, 0.285442447489705, -0.050086760763483104, -0.04585278864172945, -0.12836799913411842, -0.19687646691245178, 0.15158952865213227, -0.0433861581742046, -0.017267233682814506, 0.23020211279218097, 0.249319728314302, -0.14126557182756402, -0.28915459303410807, -0.1696707448362389, 0.020517868669528115, 0.15022271815845656, 0.16821690902730604, 0.10783505098545755, 0.18849101810865007, 0.08523246984454304, -0.03703788192357853, -0.23316856564248756, -0.19061256586979702, -0.2956766983174738, 0.15338296305904267, -0.010372011693109601, -0.24926107881560666, 0.121698074518057, 0.10975578096291519, -0.21135043676357915, -0.2716644478073352, -0.2532116831938701, -0.08149230445464391, -0.2550428601306559, -0.10930876066645658, -0.07457567933908221, 0.2010501984764551, -0.02236990064674487, -0.13682816065962106, 0.03240163080056259, 0.18843796078046648, -0.25787516562830987, -0.22487162824568394, -0.20553423103936755, 0.1364316548001679, 0.29615963489011393, -0.05466916132963045, -0.11594939080055228, -0.2284007748945634, 0.04973404656652915, 0.24408157454618443, -0.07305884950028889, -0.14445569916966594, -0.028239823038915823, -0.2270507797401463, -0.023294319085809766, -0.20428971989684785, -0.16859027473145116, -0.2916043603097626, -0.23620798863101472, -0.024146999097520598, -0.08496176222390425, 0.1326013461370079, 0.006387093809179767, -0.0691109682789463, -0.06290030576230309, -0.03852788938156155, 0.11870454304587322, 0.02399355760767333, -0.17917967796214546, -0.28594877247772305, 0.271673224475664, -0.1863939396711066, 0.12613579698569843, 0.2857269658492401, -0.1641503281875304, -0.12393146655028633, 0.08743784380514273, -0.1862647138877888, -0.09431652341794354, -0.2742392064134555, -0.2118965697396667, 0.0033783025174243834, 0.037291400345307604, -0.1195613946928625, 0.16210677311649896, -0.010165573023752329, -0.21358658804914007, -0.1544582101161418, 0.21476377454334294, -0.07076730476440804, 0.13493210116836532, -0.1985094243851104, 0.06286595689097654, 0.29949452860973846, -0.23139357930290047, 0.1792017170381466, 0.06328710858268548, -0.07176102179015174, 0.125167579156342, -0.28274391385058634, 0.2887185638943329, 0.010461973811272687, 0.2691579993765074, -0.24801122493830133, 0.015120908816445755, -0.1923351762620865, -0.09191315621487638, -0.2993012668125224, -0.028386398704881338, -0.27589242354092275, 0.07629085730781753, -0.20368257499989503, -0.07992518528480025, -0.060925505129473034, 0.03563169974824084, -0.224273507340084, 0.03683174413554397, -0.19664478946141162, 0.03876805489301987, -0.18345581686864537, -0.1817378072758162, 0.23580143460592903, -0.11905153053081807, 0.18511172971559972, 0.2617745126501458], [-0.12413578608111132, -0.3116516258213166, -0.1159356828408461, 0.08742053400551932, -0.18202257177919223, 0.003575173619724728, 0.10984118192749472, 0.10220501642885436, -0.2686043270602047, -0.22870832440959418, -0.19196611395806615, 0.042483899171388666, 0.22864223181503016, 0.2122916649254174, 0.17338298760922488, -0.029879160544634967, 0.2193575930512824, 0.24624402962197328, 0.25514559228110406, 0.12924692779787278, -0.19715257175912781, -0.059153459205028465, 0.3092731990765205, -0.08051905371679062, -0.1531598623095389, 0.2773067657499549, 0.26009153994580086, 0.16764195005624996, -0.0405795645565345, 0.13017357845388133, 0.29906584276763953, 0.2317450487025842, -0.12741929607823127, -0.2527234607700107, -0.09421747104311864, -0.2503451755949185, 0.14890332845536125, 0.08310520598401973, -0.3119057925181091, -0.04662854227208768, 0.09501313303018995, 0.06917762887193664, 0.10114410033574649, -0.2063763097305244, -0.25344056382316105, -0.12532643327130838, 0.2694063242225877, -0.238913604534753, -0.04998589411443776, -0.27637538950060003, -0.17125848047530734, 0.17232285257620442, -0.14695584673684856, -0.04186059040417012, -0.2375698374347572, -0.009228500998131044, 0.22819714331683646, 0.12875673622713185, -0.28193116534804996, 0.2826795614479241, -0.0679351910496641, 0.10156210876112699, 0.216801139959854, -0.053700928589616, 0.27111535526564784, -0.06302134477148014, -0.04361752140457249, -0.051473157744866035, -0.1897599429008169, -0.12292771851335178, 0.2511319643333743, -0.21377719248227137, 0.2475638278977798, -0.18854477492624303, -0.006247057665929258, -0.05254280791753488, -0.26801202138172425, 0.22165754710152508, -0.284355440018312, 0.14921326519774727, 0.03533057273045063, 0.08784436502190578, 0.2941721213521048, -0.06275274902999002, 0.2532396764455873, 0.04649076259407674, -0.13076201504923063, -0.28147116915579246, -0.12129981187200203, -0.15468600727418066, 0.06253405731519746, -0.2054770185099827, 0.142117872497822, -0.18813793194892003, -0.14502594918179956, -0.09592381076748842, -0.18928119525104314, -0.22414735849562764, -0.20100467889680684, -0.29256242287630674, 0.22796250210517469, -0.11088545581391747, -0.11873835625722153, -0.21995053242701004, 0.17380825417185874, 0.010172897757416815, -0.05870812313451716, -0.10676960915856633, 0.14113419969157104, 0.13685091944997846, -0.045463912641981664, 0.23396063617286847, 0.07308745355632847, -0.1375499821477731, 0.08537106527817026, 0.26404236596952524, -0.14246664257708375, 0.24433654633750013, -0.02249316287170697, -0.280156187998952, 0.27322626786014753, 0.014174987374603723, -0.27519519027207406, -0.08554901734952285, 0.11841751423236568, 0.1792531243822795, 0.25221594240035927, 0.1224438287290526, 0.04982415207319008, 0.2579962293894004, 0.02964017630915202, 0.25678995083277595, -0.15560661433730621, 0.00024992304053649277, 0.22442736800664456, 0.1421477278581568, -0.004323849459723784, 0.03929541124592338, 0.1702772385628369, -0.2537909738965679, -0.21827138884236705, 0.07272938312767187, -0.2894262093374703, -0.19909071291090977, 0.051133895292083446, 0.04698685188891415, 0.16773714152235275, -0.0711371280996948, 0.24681227320430732, -0.2472634072119605, 0.07113013158707916, -0.01225747776876764, -0.2794253138800474, -0.03357065918247433, 0.09716396936814008, -0.0866668112340443, -0.30224706320275724, 0.16018875599121282, 0.20144644002835177, 0.12958464120684016, 0.07508616848662061, 0.03958660225999686, 0.2442584233247055, 0.06463627561380922, 0.02314402038558189, 0.10974577427438213, 0.11290317354630683, -0.038011490712390336, -0.014213616038221443, 0.2285289817939815, 0.06797816497715324, -0.12456206107856291, 0.2663308989526782, 0.08361277210433851, 0.08669892129018852, 0.05344694305100798, 0.18422509227784115, 0.17207031458940578, 0.022100059867851494, 0.09404369044742594, 0.1909515031209932, 0.2622299328597266, -0.1511510297849667, -0.257356443583875, -0.010184689638613955, 0.22697028340553987, -0.18471576838050588, -0.034866188945731874, 0.17598992485969323, -0.029017116146582436, -0.1571869998798961, 0.09021270627915105, 0.30820284673711046, -0.26528335256758206, -0.1547165870294995, 0.2597845417704897, 0.033584629232740484, 0.1392936899924382, 0.23116246694033482, 0.18891824053195758], [-0.2854610456161426, 0.1560294935796893, -0.046006204962219445, -0.2623560882696903, 0.08031925877913973, 0.023788811311301908, 0.23307436402495416, -0.12462399403432986, 0.11853762498963455, 0.25834004482204853, 0.0809776596313019, -0.32939910932516664, 0.17935334990523444, 0.2932954919466527, 0.14956260559614273, 0.00936266684456123, -0.27396812482572214, -0.1063929152172292, 0.10322358004904786, -0.1646374360708416, 0.13340291010514088, -0.22038513995913778, -0.019064683050757508, 0.1548201380952361, -0.27102419650135634, 0.1003964496672913, 0.002603239067100034, -0.07961608732604962, 0.096474206216146, 0.22944662196088136, -0.12325952948919637, -0.13208239242664363, 0.06908688144598595, -0.22138695183014523, 0.1765891707850446, 0.03914644331647874, 0.005917989785538656, -0.10359081863579979, -0.2786471379143039, -0.16603690880548055, -0.05385339184500773, -0.2818561925085051, 0.013393944213375582, -0.21578272708159318, 0.1874658741233587, 0.05434738154895592, 0.0025540157991697787, 0.02098444709746459, -0.16450089506336346, 0.06544190482111015, -0.3027898008863497, -0.07004260458057793, -0.15680276207958632, 0.10994035193439938, 0.0440364847539057, 0.05189453088732136, -0.1459004879817356, -0.1606200870188606, -0.26317766580225344, -0.09692859544336634, 0.196016942310753, 0.2981886024035752, 0.13214866660695782, 0.2547336860890343, 0.18524457661251495, -0.12343466310207944, -0.229259459305123, 0.22525901922728297, -0.2951607275766327, -0.21031369548122625, 0.20780827362952797, 0.23241555555285173, 0.14156498082265745, -0.2506406588964049, -0.24611135597495332, -0.09671335486102414, -0.21514038880716566, 0.11490272112371723, 0.08851232268042358, -0.22081580470340967, 0.20080536430844134, -0.0526252518028119, -0.1636443237130385, -0.1610333765330191, -0.2848285717609589, 0.21897191564995397, 0.2849740627156486, 0.060609052220159644, -0.1297700543490116, -0.2489591195238545, -0.15182252331894047, 0.18377675160393311, 0.2111468973686862, -0.1337360881412966, -0.12295851462986675, 0.08665985782451034, 0.1957553381050293, 0.07850753367330507, -0.2640817226312837, -0.0567961539168947, -0.26952718776382356, 0.29018186028161946, -0.22431886072082066, -0.1885319493571413, 0.00221919287783639, -0.21792602740321096, 0.11657915699613922, 0.09263724561921159, 0.22784782995740732, -0.3042793370959644, 0.0914764405994092, -0.07857895832173763, -0.0466003105732389, 0.16165822301608665, -0.288009855407703, 0.07283379592593224, 0.05009089051485758, 0.025756352277054997, -0.13380171304884497, 0.025409139582600947, 0.03880349781985811, -0.2383961807437324, -0.1940145044399458, -0.06528903152093445, 0.08637374864537152, -0.03733033519239261, 0.2427094663399846, -0.023513848344135137, -0.005640831294168147, 0.17145343533922486, 0.1527598998614543, -0.03084761400307815, 0.07516848784268813, -0.15003496791051948, -0.05291105408997725, -0.06063337906517728, 0.04222600750738092, 0.3002608568708454, 0.0059854277397216726, -0.11116893784974301, 0.10748566218109527, -0.06804160167654236, -0.2621354879317037, -0.2521222660651054, -0.17655153283870187, -0.0937343193359246, 0.2702393649117199, 0.26102530443378624, 0.013674416739893964, -0.0811958426840437, 0.11591821376674194, 0.21560452445338238, -0.21495627320971808, 0.08204186437034623, -0.02264705780290871, -0.1672533666946887, -0.05240386847593673, -0.056038218629712686, 0.11956443874540149, -0.11346675126121854, 0.14872722514707964, 0.113622555524019, 0.07241102068590982, -0.13197906621321773, 0.028346080295587675, -0.03087780821346639, 0.15936776878505116, 0.20596917886608565, 0.222994619298566, -0.20355271963885038, 0.03418229502335938, -0.03280781681959579, 0.2081954402748672, 0.0456045237129062, -0.3081732857045314, 0.21357249625694671, -0.1263723248591815, -0.09356059837505558, 0.11427737904529507, -0.2899878277055474, -0.07297210257412659, 0.06471983748178331, -0.02527375334471766, 0.20335290280302123, 0.28401706102920665, 0.24568394416213138, -0.24818407745812412, 0.22257911163797645, 0.27112866282128967, -0.18664285188896226, 0.27769916812601336, -0.1032597618792592, 0.30366943217270215, 0.13629596379977846, -0.030312833635926243, 0.237850345472805, 0.16883081282104334, -0.12231141661394784, 0.05012384832842921, 0.22664083440823315], [0.021542973271171474, 0.15069716050939502, 0.0929437087892058, 0.19621734636863572, -0.26196733400207056, -0.1996076965748383, 0.22123113439872147, -0.21865916938961788, 0.24760029695722618, -0.17884012934992072, 0.2617636816582375, -0.22283290745632395, -0.12021118754779493, 0.202386683600821, -0.06093644925782542, 0.19559752781566458, -0.26506428901573936, 0.19377591301436725, -0.09010686583573335, 0.21866339467739682, 0.11418983149150239, 0.23564470063053516, 0.08550360548086523, -0.1762834132571821, 0.04097667031715668, 0.2943323065947652, -0.06708041603104162, 0.11738851163874797, -0.10128762754388854, -0.28630936898641945, 0.27681909145073214, -0.0685183661173592, -0.29092787606166287, 0.1795400328279244, 0.06526714278737472, 0.18043217547383264, 0.05329269287323355, -0.2068157447074685, 0.06332068029098584, -0.08385960921537577, 0.2860751153668159, -0.16496142737450656, -0.3309812917830254, 0.06238346059631213, -0.19905714140956876, -0.18132101965002517, -0.07641601537068676, 0.16795689602755853, -0.11108977049689008, 0.09822755691643459, -0.07456219085507977, -0.28935439277353603, 0.29632331023998637, -0.06390261438579996, -0.2002718158027334, 0.1529282089165936, 0.2484066146889114, -0.004124201335214905, -0.18581340969974228, -0.21919878091841735, -0.15920902842495105, -0.04180506187524051, -0.10859785381324394, 0.028934794849628877, -0.2996278143281157, 0.23150449765665715, 0.26985560685421034, -0.20451680427050906, 0.09004590238680965, 0.25534062401595825, -0.0009256693313468725, -0.26128741273671396, -0.1784403082471789, -0.27054086500472263, -0.20090406995986718, -0.2940934407407618, 0.19716838953620358, -0.08291064119542171, 0.1638151802056344, -0.27733114644664825, -0.16105210928747773, 0.2411618092297317, -0.1300481868842807, 0.2384512387585292, 0.04348236805438867, -0.06792341512077772, -0.1560675337139166, -0.05935816570363976, 0.21484367800975415, -0.0651244672286648, 0.23328656988475474, -0.14855110266778102, -0.061337456850756186, 0.055220035251986356, 0.14480160539448478, -0.08417359697923756, 0.051998631669291195, -0.16371062670099995, -0.2542157435164948, 0.019582023500774415, 0.22654751021263447, 0.16552230533091652, -0.2314706583746076, 0.2064852044887, 0.15235905171672612, -0.29293990659348895, -0.19302437123460026, -0.009522996264988379, 0.01332373009420944, -0.16038679936837696, 0.19313819770266658, 0.20587885770092632, 0.06841064211405741, -0.0456014574097936, 0.09678036290760733, -0.026202342048781496, -0.1858776050409176, 0.2695416936400929, -0.14167600417135737, 0.27088124115981893, 0.13610468680177956, -0.15162791847373433, 0.14459598141075605, 0.11076950338585684, -0.07728793356870234, 0.21330676248212646, -0.08233993310578186, 0.03878575156157366, -0.23652122297733838, -0.15550272712726937, -0.1306613942667242, -0.18228703856540354, -0.24939119321808634, -0.1129721933387325, -0.14872152492578627, -0.253688088384625, -0.03520916186486071, 0.060747028222228994, 0.13506786409271812, -0.17491273143437577, -0.07179831243483065, 0.08656624598996089, 0.08664997144310975, 0.20074815855015182, 0.2798396573457588, 0.2628107321112139, -0.023210501120779495, -0.02902595207404571, 0.06771155171885586, -0.18167866806961822, 0.19853005000769497, -0.19208696163754715, 0.20718443893444505, 0.09192021843608227, 0.12596222382632832, -0.16669138850110976, 0.21080035370623387, -0.1045443116529441, 0.26491907874363807, -0.029091271563899793, 0.21924003077581408, 0.20235988929960083, 0.18266855700364146, -0.21007378484609732, -0.23355106922256155, -0.1097990835731292, -0.20545703517392866, 0.15623045144599698, 0.30465720105302396, 0.20604361085306522, -0.08873044547195208, 0.2586140814802764, 0.27654587692234717, -0.11589861278399781, -0.20880192651093268, -0.06687748654036106, -0.2637015715748285, -0.14442867248855135, -0.03507992744845218, 0.161587941457233, -0.32054380046558856, 0.121305680284633, 0.08186682316791496, -0.1568002101000191, 0.03233004216011827, 0.007659733841827106, 0.17367285533335658, -0.26437900380592727, -0.21191548425671788, 0.042041357304033695, -0.2948898477758882, 0.04241553814376248, -0.2702553413876598, 0.29615653034117706, -0.02390367074495634, 0.12133513421826611, -0.16986128688397478, -0.023310964305418798, 0.13216620601320084, 0.25915874655135657], [-0.07912346695683359, -0.07997688579060666, -0.03880686036448823, 0.0814926672485774, -0.1440782287963136, 0.20544254533394657, -0.0282137604668022, -0.2562441049992875, -0.290768808045311, -0.12083089902247383, 0.23974628764982592, -0.003161489411439999, -0.11121655143616174, 0.03020784539546076, 0.2579840518892949, 0.1481477998969484, -0.19029980056446788, -0.26635618605304784, -0.16257415285650703, -0.06713669508744784, 0.16162991488064965, -0.17796091399104233, -0.057022060677227836, -0.11684334650734568, 0.052395172959776526, -0.23501431030751216, -0.2365910437908782, 0.1457876523795074, 0.1051091041365152, -0.10344423819462281, -0.24994188238795217, 0.255920710555511, 0.2765934283612072, -0.26353557761049695, 0.2598138253590725, 0.23193016901576727, -0.2105197158471733, 0.10425133280077686, -0.23005625741837665, 0.17687011897943686, -0.23591165283928012, -0.20916051648064696, -0.21903210573410725, 0.23975746760902525, -0.1916377631351321, 0.13648393625051308, -0.18959405005723406, 0.1481511413345794, -0.21985081242428395, 0.102179439385048, 0.07624131798742408, -0.20297030205324557, 0.2467891013634986, 0.19143809336348194, -0.22624674244594448, -0.13689029856464363, -0.29017773905274347, -0.2878065403116435, -0.25705136308674287, 0.039921075519403305, -0.21431545063591487, 0.1597655329833724, -0.07594673847928943, 0.08616888892791891, 0.25570146627887036, 0.23867538803295935, -0.10453554515073779, 0.08638596991179062, 0.06679645835236135, -0.11786742437531181, -0.12112123101157225, 0.2715055586233663, -0.28817278550611586, 0.1699626709657055, -0.10166123802283893, 0.2576012081773359, 0.2545921383293511, -0.21633360226609358, 0.2562322313066752, 0.22296031180838635, 0.10266972624094663, 0.23983293979239367, -0.18331051472005533, 0.1312303417247109, 0.12876471553815133, -0.18326624032378158, 0.07696016514520723, -0.09640525577687944, 0.2440597676119036, 0.06981078028788973, -0.17428454915755837, 0.10964909977565006, -0.12261806837286962, 0.21419768796014008, -0.2664047900535499, 0.2680767407090167, -0.21651931770337643, -0.29405074843364065, -0.29688271084586054, -0.24762116193099787, -0.061102440396808386, -0.19455323005287314, 0.08594857275151997, 0.21427170619050853, -0.14808194492420756, 0.26151424035975473, 0.03540540864110501, -0.1678093702669575, -0.2730387559162318, 0.23469288211086947, -0.028482675041393114, 0.18522340150146166, 0.27668687279986454, -0.1494804547887939, 0.18970727532364856, -0.2799371382209103, 0.30683923448183525, 0.05994984200324288, -0.047133258010119874, 0.03179767172884491, -0.2653456924732668, 0.25210824311905305, -0.21528319697840284, -0.20220047271131478, -0.09892167877426082, 0.14099184156828679, -0.0923917565524851, -0.29635260990863965, -0.026457237580959858, 0.23883755833112594, -0.1581701691772518, -0.1099659086206737, -0.007981633122636875, 0.008978232131384541, 0.07206746654265982, -0.16522103147662526, -0.02810558026187944, 0.10379956211787039, 0.06276761833690006, -0.13187038776327187, 0.1422792708534036, 0.25687966121674255, 0.11174805833802057, -0.22703299169063593, -0.12360941045156412, 0.15806820085418696, -0.06496990991269608, 0.19098214276071507, 0.23430718627318986, 0.05172537332371879, 0.0590148588754302, 0.14221434476070938, -0.06564737830278763, 0.1036400685807287, 0.27009761314877834, -0.16170794872533817, -0.2989991759637471, 0.2912075251863597, -0.025601054364145136, -0.06912704238181862, 0.22183933802550415, 0.17038699770059956, 0.026681680752647218, 0.25689198073713787, 0.13447339548880366, -0.20176436946165244, -0.028229168724750946, 0.07972786380829569, -0.12745659625158084, 0.023913991834913842, -0.10962898469675798, -0.08540075970922706, -0.006296861415688381, -0.23836887356064956, 0.2152564375437295, -0.24529195165519277, 0.04863756364991354, -0.15864363059077893, 0.25564573362783044, 0.06191294950600759, -0.1968067500717156, -0.16182923127572996, -0.24632902490023187, 0.24954979340793818, 0.12611795239548024, 0.15614833531641661, 0.2265214863649206, -0.005923746661056924, -0.17820863181529553, -0.2771728888603954, 0.25949869105475387, 0.2192432792432106, 0.21224958037183037, 0.028651464215161897, 0.0015986705795828606, 0.1648966624588722, -0.1341747444816262, -0.13422360678401657, 0.025921900890556543, 0.22173139727009616], [-0.23459437374644085, 0.03394983844042179, 0.19702413161180204, -0.15003944288761975, -0.20496190580101153, -0.204193846024271, -0.12363462014051033, -0.16727063064346318, -0.12105099593848402, 0.04402884270475007, -0.04212085110199663, 0.07055601575365457, -0.1418395278721407, 0.22666961993779064, 0.21354195380869456, 0.20904357367444149, -0.0085937159514962, 0.12406359806718435, -0.1833874349805605, -0.18304427592987382, -0.2511921092713478, -0.17296876718407705, 0.2642245121399348, 0.27650981632741906, 0.031332719368517135, -0.19747277986018938, 0.026520555252650378, -0.09133080218953053, -0.2737563872233121, 0.25915124705331366, 0.24455488260661784, -0.09801730995131244, 0.11748919580800048, 0.21681278960985473, 0.06285894076517919, -0.054446341357887916, 0.06609092560390611, 0.0189140490540121, -0.28101039442943343, -0.05210509023065497, 0.023153173694132702, 0.06626790539054125, 0.1842901899884805, -0.15199349607643645, -0.270213587203364, -0.11621848388462168, 0.23810667967713892, -0.155580529746456, -0.07452716994127959, 0.09872857906610875, 0.2638405544851992, 0.1821424204832371, -0.22643626761569854, -0.07504594916236491, -0.10307428588454531, 0.22364233089471908, -0.010457314715773427, -0.12890899909108855, 0.11062345451901576, 0.3144608300079902, 0.16350364475984708, 0.20366261836468685, 0.23648183280089077, 0.007536174531294208, 0.17112572886120792, 0.22028865855582094, 0.059509695779915044, 0.07247250121193126, 0.02557785995086983, 0.14901153253956712, -0.06576908586887911, -0.19777524530973273, 0.1085959140706976, 0.17618514906953403, -0.2825665527290499, -0.01580454439407721, -0.03352780461363089, -0.17217321258606255, -0.054928859066272706, -0.13416898786970408, 0.294439571819293, -0.17714915381841803, 0.004052607369707799, 0.2563969860618143, 0.18808030241914436, 0.1443540989800227, -0.18771865904984145, 0.07327845877222196, 0.05644945048705769, 0.06731746995153805, 0.1699664766816034, 0.008534276855401497, 0.04031367625919969, -0.16261232432515182, -0.09570991884976113, -0.13692051652696274, -0.11221228634298083, -0.2579557937614943, -0.22126394169144895, 0.1612060156475262, -0.20900077491363553, 0.1224684416893993, -0.052189785012796384, -0.16794573893244186, -0.1841006303056259, -0.26628071826067545, 0.02492646307274957, -0.14225807082838324, -0.17917074609629383, -0.19986232666246423, -0.008176295665227006, 0.10044194848868487, 0.09755131692280895, 0.25589431570588594, 0.056693516562998265, -0.2633963913287744, -0.010011721445269043, -0.2097986572730536, 0.04428815189433818, -0.0916522670999214, -0.13555153142500304, -0.13946339951977063, 0.05116975250582032, -0.05649837576854853, -0.03394945311453279, -0.05708111075129631, -0.27772463265133296, -0.25973562481561746, -0.004054866479679358, 0.2495005577804003, 0.24991395208083816, -0.013344386861666334, 0.09018386223459236, 0.09379349939044765, 0.2624907042466364, -0.023968937431415226, 0.009454172641212417, -0.05208854847642673, -0.2549202869874325, 0.01720527843401851, 0.11221019592034141, 0.136634036003849, -0.17673262869484813, 0.02713554722963487, 0.2001343636168472, 0.08662812527704952, -0.08644900296998624, -0.25632690950641507, 4.524238730876699e-05, 0.1915310370705757, 0.20828098207591486, 0.27596842091936064, 0.08411778879552853, -0.08622586127648964, -0.23648828165534572, -0.2639960623442255, 0.1576490909783872, 0.11596922125026382, -0.06050158628749745, -0.23466328590692506, 0.19358536618802394, -0.2191769955712977, 0.19288876661716112, 0.1596483921687636, 0.22514628557480848, 0.26461292672128495, 0.031106084698120807, 0.1506791770468258, 0.2299539510013797, -0.24900674536381073, 0.22485650398191276, -0.20766330520401144, -0.1536480725149123, -0.26115769651218146, 0.07976921880826489, 0.032354832775557195, -0.21453831553763303, 0.11234752371018719, 0.18319525886595675, 0.20671990672612697, 0.1509357170743601, -0.04912233758034831, 0.09148691040708365, -0.14137452526544494, -0.11458210649073639, -0.1388952990187914, -0.19435648643693246, 0.013355414162787476, 0.16531559476737095, 0.11492561879807965, -0.20026191493062456, -0.15875409422723805, 0.06153803445577173, 0.1831694741858869, 0.14789000933556548, -0.1488976502025386, 0.006897460209628211, -0.21254497698113345, 0.12491229008985716, 0.16044291374375302], [-0.08144572551512297, -0.12182727810660868, 0.23789839864574752, -0.06971172888934571, -0.24618476502575548, -0.03332293707492677, 0.2902072892086439, 0.018094952102335207, 0.18265287163500302, -0.19522850542532932, -0.2605404427063817, 0.06511567058353276, -0.20759319304245313, -0.13187242517219455, -0.1348610884437055, -0.11609100722331517, 0.20664357732667613, 0.009998252464193806, -0.2665217210005932, -0.16749224066738488, 0.1371921490572833, 0.05168748552874969, -0.02066832713896179, 0.053558271987126066, -0.060392016034412035, 0.05853722189142473, 0.23396405127189712, -0.16565557951496535, 0.058586759869702465, -0.19166695322771682, 0.24503044058238052, 0.10652339430472663, -0.11204151524127638, -0.17301533291921883, -0.18265527466540327, -0.05506388888078861, -0.2660995114832229, -0.21128707391733428, -0.07468240637525406, 0.06248078503307766, 0.049772034870172045, -0.2656993727252718, -0.12898363287159462, 0.07419539312224038, -0.04747193105287665, 0.21228219510378485, 0.28569460614259423, 0.24818225628238455, -0.09831457247678752, 0.06966839018124409, 0.2499071094822453, 0.19347983886798964, -0.2901232846407438, 0.19760878193475925, -0.2288038138166596, -0.13059950508720908, -0.28426890501681945, 0.02095443968651314, 0.031490624809918565, -0.09416055875454703, 0.28130405024072674, -0.2830349675068437, 0.06250453875347219, -0.1495876240629919, 0.026407743599202792, 0.04803746426959566, -0.09552714001641895, 0.15388486924297357, -0.2522346589841023, 0.2697398588299061, 0.11907985691991202, 0.010616814716105063, -0.000654197768633531, 0.1420478872101893, 0.04019003519477182, 0.00804530736127916, -0.20748876917314604, 0.20942784633081982, 0.04522487031977286, -0.31019075875076857, -0.15906528740551087, -0.19588306907940137, -0.2173335860963602, 0.25251688956728174, 0.3013382030296102, 0.11086883233165791, -0.16063127801971022, 0.06717143241073403, -0.2399255751479334, -0.1163895628495408, -0.017954612550209307, 0.31122985472177345, -0.24763838946916455, -0.11036495719833786, 0.2278942748890311, -0.2534970799901844, -0.14517258524413162, -0.19256163037393934, 0.13630243215067833, -0.2508914923599244, 0.06970429571364231, 0.030273964903512775, 0.20153319897211727, 0.047595114451357105, 0.04353283335781823, -0.0026881080369866406, -0.03497070849025133, 0.16451733666736562, -0.20067405607487043, -0.2708579459759212, 0.2830689993279354, -0.03432651766323976, -0.13369212012740075, -0.30270603148950587, 0.13356141693166523, 0.2963413039196693, -0.12512298353834878, 0.01823061496041865, 0.10730598440849082, 0.11714203311058091, -0.05015772478722408, -0.26787631858066546, 0.0818725836149362, -0.28260546157756244, -0.07645441577418066, 0.16814958589192197, -0.25987625339677817, 0.018677744948804923, 0.2736814046921669, 0.2225632904122312, -0.2663453799684181, -0.18004263366721313, -0.024570635929846533, -0.04774926685266774, 0.16308824759631976, -0.18802381521019493, 0.20795158097983857, -0.28772982779295586, 0.2135824003118322, 0.2882287985334983, -0.17556621610702017, -0.22166324565323073, 0.11569700196032402, 0.1350634049463931, -0.12746862452820806, -0.04769550462021007, -0.08888700089093945, -0.053005652043799326, 0.1700916682455698, -0.30267334235439264, 0.23817899744102622, -0.08888994169972676, 0.0031917982966106324, -0.05046393959530285, -0.26871076673187017, 0.2509668363441962, 0.23080839726974678, -0.16348481815663327, -0.2996788703711555, 0.22356578136457594, -0.0998487715485456, -0.20599179069683357, 0.1774411629994138, 0.283535055897642, -0.22180803140357405, -0.10610517650573553, -0.20837664989818944, -0.17999171271268913, 0.2794040182383699, 0.07748719383689755, -0.028771932756924704, 0.06499329572295652, -0.15522066164961387, -0.25623438997460296, 0.031292525255414635, -0.26445074063838675, -0.23356833277228276, 0.15158437435015448, -0.183703827912749, -0.077280620351663, 0.11237971980520421, 0.14909737017603727, 0.15119861461079157, -0.20251340362115006, 0.22027050163222658, -0.10941723165489228, -0.08568506800110792, 0.2040118175533413, -0.2722904902072725, 0.1914565165418195, -0.26902618078293955, -0.2424200704902406, 0.0894590482515187, 0.2368796814913386, 0.09043133976774953, 0.06870277282448853, 0.2766866429418044, 0.24594907045891762, -0.27623177039990576, 0.2818918866556955], [0.2634563331394244, -0.16156512887040506, -0.19064424721428644, -0.1756183719047513, 0.19666753077895685, -0.06973831707182046, 0.18177561933078099, 0.08180980851223074, 0.16603309599951593, -0.23891363034893262, 0.11748554520610079, -0.016104871566281983, -0.09457715999264793, -0.1484282913267994, 0.021069693452492756, -0.26905802797961337, -0.28977955829346486, -0.1933672506225046, -0.2629130911714658, 0.16455223075766526, -0.10253845479423475, -0.03373974218623375, -0.07716678773044289, 0.2487722140862869, -0.2406693860482257, 0.15303414839893573, -0.0346449264879926, -0.1950067662280379, 0.282133170362478, 0.07752449426043383, 0.03703577607466998, -0.19771594545084428, -0.1901903982447181, 0.14908136096662794, 0.26126206157275556, -0.19514389193948448, -0.2253745096143086, -0.13761431305718846, 0.25085661735462045, -0.024755048533041318, 0.1595644353178469, -0.08537053945525984, -0.0908010734371235, -0.1571047572651599, 0.2564660599816181, 0.22231396022057304, 0.20978133699166135, 0.037148843751182124, 0.2347943115448663, 0.013411100538721755, -0.07811978924873335, -0.021455338611495196, 0.15104796866739167, 0.2899410380718274, -0.20583487828121141, -0.12580403898999165, -0.11435037381000988, -0.08837530037759608, 0.11411996222638089, -0.11678980711375678, -0.047204781725996806, -0.1615066685367024, 0.2519603240720779, -0.06250434026821317, -0.0036256309833979056, 0.2736527900522956, 0.0924732908549482, -0.29961785468342783, 0.13733595342511198, -0.3098879540890845, -0.1488333904153324, 0.16566466996654441, -0.09123355554153892, -0.25903198388390264, -0.204829472912394, -0.27953133623410814, -0.08338664664004419, 0.08661090307295792, 0.20990828808624493, -0.29815710822933533, 0.2689614264265992, 0.09161065113320056, -0.15758597757602383, -0.2851188651170175, 0.10206171824830919, -0.2675796784351696, 0.09138893534780483, -0.20396484833101602, 0.04581206883006951, -0.06905088207225817, -0.05971565158852393, -0.1989788445537612, 0.173187025548805, 0.2924591962854137, 0.0232573870473544, -0.26867407924286857, 0.19134562935716218, -0.03258540700995787, -0.011755235234793132, -0.29021857914800675, 0.12214653854606757, 0.03343103795767541, 0.1871817815632965, -0.23838252867576754, -0.1921595399037516, -0.175641420424549, -0.0069321446345771715, 0.0850287829258992, 0.26681600079804507, -0.21496519884582146, 0.22491228352346668, -0.05885832326638092, -0.009443076653433354, -0.02277862852800714, 0.08891632934495781, -0.12628063028921974, 0.2875018577346967, -0.11406017489104031, 0.030149074893490755, -0.26209327044426145, 0.12393574921176344, 0.22625389295983847, 0.163364263571309, 0.2605464822901033, -0.2396906653994674, -0.1535321503246833, 0.2312485939212111, 0.06262804422301232, -0.2693769770958916, 0.2917865528578061, 0.22389633317410126, 0.2752258065226207, 0.2657436140847265, 0.18605958042173262, 0.24391727835396887, -0.27990561907184475, 0.11432818169868653, 0.10946606842520402, 0.054697253552985076, -0.26617631504116773, -0.041441112235206794, -0.05652011929444356, 0.2641239135090756, 0.22873632291849644, -0.22923237140552408, -0.13418331905819114, -0.05065866972746958, 0.09536501266543695, 0.27971896771096344, 0.010324438297346774, 0.14919869814627057, -0.03869655740417004, -0.06031906934894042, 0.09979209346788687, -0.1935157926888451, 0.12281967472115629, -0.11884725497345568, -0.04604294382009229, -0.04187121080614186, 0.18522909634448098, 0.22198785077266825, -0.1371492003331421, 0.23457599368973345, 0.023163397167512298, -0.04607340940614501, -0.021194630660793745, 0.017116475815762214, 0.1506421484291799, -0.017097805072248434, -0.006539822049223879, 0.23253161718217874, -0.07373038682058192, 0.29472067851541583, -0.25667151730471327, -0.11495245448208372, -0.09365005580034817, 0.19552504160623924, -0.22483733000453218, -0.2278128355351269, -0.16033659939740677, 0.2309770880310361, 0.2326473752045597, -0.06456838891485925, 0.0013189515789999299, 0.050045449681486005, 0.15016272929492933, -0.28311076051190964, 0.21648556278492317, -0.2360108226442167, 0.22513312780209302, 0.10615025912260309, 0.24061750356577594, 0.24702283166080746, -0.09405599267769199, 0.18243136223327644, -0.2272667057752109, 0.15004953007400115, -0.2963462027836747, 0.2206936887203501, -0.2629386272836897], [0.06691817665573364, -0.08661390315602077, -0.060566645861029736, 0.22993448561064161, 0.19277127414454423, 0.17394544881919335, 0.25655721500547685, -0.00627254409740347, -0.09216752551409582, -0.18659699590309947, 0.01633635405908375, 0.1564360620331442, 0.02572996792942162, 0.12212974662743907, 0.05245056342014632, -0.1772412416196802, 0.007549829532464771, 0.23311451695073246, -0.04176554174605074, -0.17942624743882862, -0.18584682116219933, -0.002343852063664706, 0.26631875587770576, -0.2918754782832548, 0.18762055714193768, 0.1953496872307382, 0.2845736616232821, -0.2031055513419879, -0.2571200706918619, -0.25527741152093647, -0.01895267768642009, 0.22753391654721358, 0.05832586164510803, -0.10945054558456227, 0.23066366745215586, 0.0742982434559431, -0.036704473172800026, 0.2607060249815739, 0.08254405770839589, -0.2243387473918829, -0.17274365345445114, 0.2544211442143014, 0.23339015396515836, -0.268469790436465, -0.08699628223584512, -0.09303672289712663, 0.22679670451060793, 0.17857731733503537, -0.08474365065481304, 0.07947756926195848, 0.011002595861758236, 0.09048883980054152, 0.23861276181055546, -0.0798407095821404, 0.025028928636860296, 0.009407344321679376, 0.27131693349227376, 0.0581236610448915, -0.14870906242923573, 0.17624424272227363, 0.24616342894478502, 0.012244075003614439, 0.035656968405807135, -0.01720078300104656, -0.12240019632863283, 0.24069057769764798, -0.0039142118876870045, -0.17094429053551, -0.023177337084338726, 0.15342344704680475, 0.26028759693942205, -0.2067434574185105, 0.011517683760714954, -0.16436355449436052, 0.2749544948675797, 0.13230559047989168, -0.0649295746012493, 0.11342026261241986, 0.123538807070355, 0.1377051457778056, -0.23568362337799467, -0.2931741960126036, 0.22478471739865205, 