[[0.2994885405923747, 0.3201741785782268, 0.31835840506416274, 0.30009986429527885, 0.22345521805677362, 0.23183921030418858, 0.0215091120623884, 0.10251971447178072, 0.015317854576663821, -0.06088225294510484, 0.2657403299402732, -0.12045174078822939, 0.19586759629399214, -0.14084103735008094, -0.4790817781819116, 0.31224546256079344, -0.10102577834647676, -0.5966382459092314, 0.3954589829058808, 0.22236295443398307, 0.2600266218180173, 0.23938723130963863, 0.11312170094336182, 0.3192857213642683, 0.11456682553418737, 0.33872754951058326, 0.3081803587987012, 0.17700556030282574, 0.28413787996308537, 0.3942959808522091, -0.025577491790770533, 0.3883415075471127, 0.11058279026752688, 0.34833321879123696, 0.2617800469817968, -0.6004932270818057, 0.133034533391918, 0.08455184419279792, -0.4269115784259931, 0.257817452635961, 0.3611777925104331, 0.1655136215270091, 0.33819886708854463, -0.037109097732565904, -0.5844432191619623, 0.2528924772560534, -0.2798032324234336, -0.078664039436115, 0.24311990379209147, 0.2971037702000359, 0.2579507822270375, 0.43252168783258077, 0.2268836732668791, 0.10722527180466454, 0.3005905021995561, 0.26427504550615166, -0.4151069567813241, -0.7078535464321134, -0.014725468466667531, 0.22721994065848858, 0.37016293096230407, -0.02899810523088493, 0.2612144995597651, 0.16378945904307413, 0.26870241450949356, 0.19734536775222308, 0.30251154346593867, 0.3663089819938551, 0.2562666288754112, 0.17156080514442423, 0.2628789798770185, 0.20249343262757885, -0.23580781926643413, 0.027834506739472405, -0.18171486998329447, -0.8396498195580051, 0.27824572458412816, 0.02076366676721718, -0.24977630362168982, -0.3429382936079799, 0.2257102851597656, 0.3629190690798812, 0.17057293753175046, 0.2707801619620653, 0.31841727488075533, 0.27019256259452773, 0.29828794989542373, -1.0786117902607388, -0.15276699827100917, 0.3517008539262075, -0.07753600965891828, 0.1257474467896632, 0.2695688105755599, 0.3305775380466469, 0.07157032437073145, 0.307480892938518, 0.2394319401081233, -0.8244950142502137, 0.2381073401505863, 0.32538884839542326, 0.41444568728056347, 0.2818682465512944, -0.49434988354164544, -0.4750437816439028, -0.7963013390445514, 0.16343219968510378, 0.1335645882576858, 0.1269384609597864, 0.23816224753536253, -0.40787869820989725, -0.36278286592250764, -0.1653103896667182, -0.16104546414798068, -0.5074517396620254, -0.8059737242588313, -0.45696431263529663, 0.3392965322203908, 0.15646110126912127, 0.3575076393360466, -0.9276805163259483, 0.25175687918654677, 0.130748603549151, -0.4995782896442337, 0.2647406614458629, 0.33636538818573625, 0.28131171561392687, -0.12963426614994147, 0.1467389249060886], [-1.4460912887173052, -0.271868579822104, -0.6079826494056986, 0.5741720954593685, 0.46579546592362037, 0.5829852284002546, -0.017662971731563965, -0.41674593359974327, 0.2741444764947211, -0.06219586826382064, 0.6147977589685057, -0.2856210838055853]]