[[[-0.08066211407081365, -0.08566203749120835, -0.09948047592328976, 0.025772855246237566, 0.07878503695928936, -0.035106231263132365, 0.026670029505155242, 0.0052525811062615535, -0.01900602848492022, 0.029252580627213573, 0.029277790409245396, -0.030522197505740385, 0.12398536285233148, -0.04273391857410627, 0.04605552191366604, 0.04686048368995098, 0.057832615685529026, 0.016497495837946814, 0.06658775398032901, -0.010905136515092005, 0.06832258019830331, 0.08847779134115771, 0.067511188694529, -0.07250899317251015, 0.04833560153415117, 0.021407371478127622, 0.05617638933883806, -0.015977586491084217, -0.02877465088892202, 6.222087091769477e-05, 0.08535654836240468, 0.0016589133036031408, -0.060322100056875015, -0.059502193602536016, -0.04203887698676025, -0.06900999944165719, -0.08957005670907095, 0.042338142269393725, -0.03814296291279426, -0.032840408612121084, 0.06358207543134445, -0.08111407516902595, -0.03916031399930247, -0.032851303049174704, -0.11534410241709857, 0.01311518121706724, -0.014243673678389529, -0.04297215157468585, -0.050164935993358646, -0.020923873843073225, 0.08851850387568683, -0.04807154052025087, -0.05090931701383952, -0.05306551509722584, -0.018548716348620927, -0.04618097663808227, -0.056876014004464986, -0.007976066134057564, -0.08423792232967893, 0.08000529065853881, 0.039362930633019995, -0.013188313491397137, -0.012226117272066427, 0.056195326870325274, -0.0070226647941812, -0.02217640326752582, 0.04164635176145144, -0.05374959190272085, 0.011814332234755911, 0.09788913043208287, 0.04782066655628227, 0.004588270886046909, -0.042122983984793555, 0.057904060537228116, 0.12730664947977155, -0.06674395821957398, -0.05499595711115256, -0.012772510077028208, -0.020975361922015538, 0.07203694176527799, -0.02542103306126243, -0.060124754963574584, -0.04391660850870434, 0.04858252380694309, 0.07956282205988088, 0.09981336556883845, 0.08713156814810472, 0.025553561759624106, 0.008104898165522111, 0.0039715102796109274, -0.05425429458647243, 0.08043977515399785, 0.14352872054773697, 0.1322235103616294, 0.11526536896430321, -0.03821058512735539, 0.04759888817429141, -0.0038284476881428786, 0.09202202986386536, 0.09373729326884107, 0.016914239001594347, 0.0361983343373681, -0.08251886689024983, 0.08099675686832557, 0.027880179710511804, -0.0969993002872751, -0.06907381653869007, 0.004426484867921661, -0.01924312454058356, 0.01629224778064548, 0.051564279206872794, 0.014639499155011193, 0.052193345714158214, -0.07251929626723973, -0.014359540518228724, 0.023104514018721843, -0.029305835774917684, -0.030829249671023802, 0.05602158785952847, -0.03474133426449843, 0.09266761266578032, -0.07255312285432505, 0.0160927931806591, -0.06526311839275709, -0.07784488855630613, 0.0652612908192565, -0.01087829463673169, 0.030931150527255747], [0.06334775176319717, 0.0270197764932412, -0.027802551919364458, -0.06126619844120384, -0.018668496778239063, -0.019101834918027114, -0.01441930085153259, -0.025641137749757497, -0.012749722428111098, 0.008813652146388714, 0.007291509971812534, -0.10677764375474451, 0.09109123782066599, 0.03576133265712587, 0.027821536128606, 0.0841758121771533, -0.0494324882399073, 0.05750033440901104, -0.015162595702271776, -0.09374056787640732, -0.010028868526504225, 0.09683543047110664, 0.09586432009128239, -0.0865577349165045, -0.04949708647760145, -0.07463895939284933, -0.07714735049792974, -0.018047297454102596, -0.05710115231147002, -0.02770941718717234, 0.0572432964888254, -0.08172879874969383, 0.05325325615247749, -0.042490656815223224, -0.011221362502414664, 0.03375657748346014, -0.010211093329642838, -0.07888284517315176, 0.0849407329225248, 0.05470177540647473, 0.02494552474137434, -0.0006844517211263183, 0.094592852609215, 0.016413860436488393, -0.09137603415132863, 0.03533458756444921, -0.07231955973765312, -0.06424980672760759, -0.021351441940842975, -0.009433902189850345, -0.04193261158221111, 0.10021181402298558, 0.0025687909801539992, -0.08778366820620229, 0.04556912707831057, -0.07209672941518663, -0.04922413136599467, -0.0735028160161996, 0.08768462599658458, -0.018272171116180725, -0.0030151763305572604, -0.008157917913649136, 0.120627739555634, -0.035953035304614085, -0.07731768787575245, -0.08670724142820084, 0.038387618473245164, 0.08287069964898433, 0.02388782888766668, 0.024051230873711343, 0.01866965632329699, -0.030968313452740866, 0.09730066074219428, 0.03785756691737238, -0.00816679414715429, -0.08797905049170436, -0.023320231072433428, -0.03610487454035528, -0.0374875241379229, -0.0858199664111441, -0.09804408928392427, 0.009268571945047613, 0.024964629905334372, 0.07154398107462744, 0.013056056243081518, 0.013354138287943781, 0.05244341817407424, 0.09696302325053043, 0.014560537608290267, 0.006339983185729025, 0.09384036678977567, 0.08316443930031348, -0.03418765856278838, -0.039077885731704114, -0.02648637709898842, -0.04989451362969439, -0.03199859037981817, 0.10531689909235782, -0.05255681551977359, 0.0635242778570153, 0.013368381640421888, -0.007874028166361898, 0.06096261987537632, -0.07130468055429767, 0.029037261410566624, -0.029779555980782607, 0.01006484848125449, -0.05781243533140992, -0.0011519710789461176, -0.028671705040331556, 0.016737808390773455, 0.022964195870585014, 0.018935928723521834, -0.03482206749333288, 0.0447786256394808, -0.08244913646284428, 0.0834271922645231, 0.074449501093317, -0.061795970886993616, -0.0034048259166638683, 0.005111918632357642, 0.08144074214313242, 0.04572255051478921, 0.0009406219058463902, -0.03438356782509218, 0.09263212665992834, 0.04122830615254429, -0.10613910119579967], [-0.08610431143189316, 0.0524923304012894, -0.06274656358809037, 0.014818991785922197, 0.07019950439796363, -0.011096094850537065, -0.05703381363223574, 0.08329110164205637, 0.06987742805899824, -0.04675331446490078, -0.05024332430788769, 0.017516489398724702, -0.01995059475115106, -0.028358064866585313, 0.056350763075250464, -0.08286802900349892, 0.08135557885314201, -0.04266501492130006, 0.008423124179436902, -0.029484393770250555, -0.03994198119870734, -0.0664307864980758, 0.0144690196266667, -0.027139179207824115, 0.0657186551448186, -0.014200292137950236, -0.08070107352283484, -0.05781831719942517, -0.0821397006323807, -0.09128604534765435, 0.05991391889268986, 0.030580557194423725, -0.03835815495126262, -0.028614328850941402, -0.0826932485675338, 0.08348910267957634, 0.016068071950166494, -0.051488107955142505, 0.04602317732941017, -0.0870392248401063, -0.09637342111575785, -0.09793913462218262, -0.034258157926492776, -0.006810583560823409, -0.10112792421994163, -0.03635604736553438, -0.028830569520710624, 0.06244172430059113, 0.08083530771987867, -0.1010111874729427, 0.019568808070454732, 0.027636861846287896, -0.03127998627916235, 0.010105705937838643, -0.016689380443488396, -0.052835701702789256, 0.06762318098207733, -0.04281383258897638, -0.034265111706977415, 0.05898503658098321, 0.05225703794599451, 0.07647116051246784, 0.024489699175181463, -0.047065149130086754, -0.046430487407334346, 0.010595355316472554, -0.08208723375261957, 0.06694587699480699, -0.09256528567164646, 0.06239482342099019, -0.048186297049754204, 0.0630385795240374, 0.056909504796764335, 0.08229317926308385, 0.0038735924916319647, 0.11205273235831034, -0.008786421233136426, -0.09857113983072092, -0.07415608645043181, 0.014558853936555578, 0.0072843713433477664, -0.03387703739940027, 0.03181577973910672, 0.0684411753637751, -0.0771318156170672, -0.011852067430145777, 0.0752597610687882, -0.020077220466098805, -0.04828726704693056, -0.023160413858378814, 0.06147872542769602, 0.05149830238061782, -0.020225729918408025, -0.04756017204647384, -0.10759317597823881, 0.048576266836852365, 0.004939555616282452, -0.0918954209061179, 0.0999483348528897, -0.07158201282610985, -0.10436045489341587, -0.05759162381137997, -0.03016308628175607, 0.0841935329446537, 0.019491757467401987, 0.050811918392116864, -0.09704312802594359, 0.005927842148688235, -0.03330511779200159, -0.08780472626750448, -0.07254168218934431, -0.06556581779831347, 0.08160210648304238, 0.09517568329905297, -0.07077505962240088, 0.07128739406506301, 0.04785542813612775, -0.019571925103941512, -0.029917256301912123, 0.043015781038865226, -0.002208209277303537, 0.01010977609929234, -0.06402808361808617, 0.05405274835672915, 0.049001468342499924, -0.06131676036834801, 0.023971098526779824, 0.060538992604791765], [-0.08375002898862814, 0.0835213703152755, -0.06834276851988193, -0.08871192618110539, -0.06888051574590567, 0.006672579809439697, 0.027079701299374467, -0.026164601023461503, 0.08007681972167949, -0.05244175256797428, -0.0106956500014553, 0.017990945167853975, 0.02796583969035269, -0.02474674114673794, 0.039679551213253665, 0.012198556471949108, -0.06986361961932963, -0.04348552214544104, 0.02818845754009311, 0.04018571890232903, 0.07166180011039357, -0.04790664041802334, 0.08703373210441112, -0.10351166662528379, 0.08704641191253627, -0.020515000706389324, -0.022836999638199865, -0.05011487811464586, -0.02949412227367426, 0.02203571156236325, 0.015138904857906125, -0.10285339362631409, -0.018308513901351194, -0.07174519160589707, 0.09163061456057718, 0.027288159918496327, 0.034871006648287524, -0.03635875728227702, -0.0025581539549877717, -0.04646883229517154, -0.05719493505430279, -0.07251402479904209, 0.047858415573740626, -0.09177506944793337, -0.07431185641185896, -0.027851944250139985, 0.034907728778988074, 0.08324689238795988, -0.04298416221065457, 0.06025477983970969, 0.033040096877339026, 0.033938710373558376, -0.06094279816092122, -0.04658545482023523, -0.012038500274077286, -0.09353570736113379, 0.06381126859324945, 0.06617785884620411, 0.09094642117324939, -0.0252584989075153, -0.10272814455949113, 0.023557749615367073, 0.0762510723237669, -0.05664679269613625, 0.09187041926730602, -0.08992115147679415, -0.020071778158242966, 0.014019743886158752, -0.04816870733151082, 0.0655496846536441, -0.042066831929556535, -0.0378068467939311, -0.08714450138745945, 0.08716523310688318, -0.03386801053068569, -0.05366171943543588, 0.08812147902918292, -0.02966591906280959, -0.03210633913946631, -0.0658926993274693, 0.050214914458996104, 0.01591497350302248, -0.07601542660765108, -0.03689183855746517, -0.056239004771135866, 0.09442318425414152, 0.018902705245340434, 0.09382869552369258, 0.048624066161917126, -0.1360371835743817, -0.021468198573996213, 0.013825199710295447, 0.011340274029678951, -0.01943520945385728, -0.1060408643951184, 0.01751069131490911, -0.010641128865959975, 0.1231627446263949, 0.059207064381324, -0.08660065325338749, 0.007222304342385281, 0.09358945975091898, 0.018748178191156213, -0.09370944132616245, 0.052575824325041216, -0.024792659022763147, -0.022440311688693704, 0.01873468066466269, -0.04942694615589014, 0.0040968356162709415, 0.092879373864843, 0.01703369640098138, -0.08223885942885517, 0.1125290659697132, 0.06533308085286506, 0.03581365756505738, 0.06503129828958532, -0.05028438705969314, -0.07567168021728939, -0.05063834910145603, -0.05883128539201374, -0.05258550815403409, -0.01818734142623307, 0.0739694554400836, -0.09017433619734397, -0.0503780028594351, 0.11774567187833589, 0.03719670532088353], [0.10155502710397177, -0.02573060772582603, 0.008405995986637568, -0.012540417475244411, 0.016030830737750627, -0.08043809989369353, 0.007266081158665001, 0.02200409402456002, 0.05160660226870136, 0.08576330219306776, -0.029186122858466907, 0.09935896455160358, 0.10111262979202887, 0.11532218497261514, -0.05583770825907497, 0.03056028789508593, -0.020288359020250828, 0.10814916715642525, -0.10112352097004085, 0.02214734274098287, -0.017004389089349755, -0.021770538154457866, 0.13078782819239915, 0.0334353432537838, 0.08738540698431728, -0.031035090420460428, 0.11437381623467842, 0.05374575550339633, -0.024633085238256292, 0.10611533326027038, 0.13683220088024095, 0.0028633386413506965, 0.04326882665100146, -0.09597760403718959, 0.05242653839541004, -0.009778310381374429, -0.0627030762262254, 0.11065872398010881, 0.09629363718504409, -0.026294129477777373, -0.06442507585906844, -0.07230114784748398, 0.037852875632836375, 0.05271828402480829, -0.005198914232402921, 0.10316019277469435, -0.07210788106113282, -0.08268078400826112, 0.0231293377603501, -0.05493923836351885, -0.05885981752778324, 0.08055956193370163, 0.04611981329307533, 0.04524135621346988, 0.04704603226848988, -0.06052171692151284, -0.024612510888477213, -0.07925782463371349, -0.009939506582376158, 0.09748098530056791, 0.10071686585778487, -0.04453737388471315, -0.02476738372405454, 0.014040220688773197, -0.033550625188575454, 0.031622961338834354, 0.10928574322703292, -0.015676929401919885, -0.003520698779432073, 0.04700173062244031, -0.09438521035149033, 0.12489145345272351, -0.022469205126254797, -0.06344401468588369, -0.13226218418312263, -0.12316614507670816, -0.0810337712592074, 0.11718963081166418, 0.08970299729101813, -0.0024004876057946833, 0.04396713993373572, 0.09482440996795649, -0.005049791463107231, -0.061617605458076145, -0.0312525063160152, 0.06660019040498416, -0.08562067960447255, -0.005798361257032537, 0.018960369213510735, -0.06835696905024564, 0.09659508344309059, -0.009093722802310378, -0.03222377696249418, -0.025745672585467314, 0.1259555632673613, 0.07935696570962625, 0.0729903403420795, 0.03418012021800976, 0.09524172683810048, 0.09024132590685083, 0.07604226389153107, -0.11865830913120315, -0.037734139995311056, 0.08740854456474889, 0.0186972268138703, 0.03938537710745712, 0.015328351236882053, 0.08382824391214462, -0.04211920131724484, 0.04613998097712919, 0.053549099858606945, -0.005044955861623166, 0.09240471842057676, -0.09517335858171172, -0.06718799277133372, -0.04853428672315437, -0.029440738462433547, -0.058472355828748594, -0.028683856227941895, -0.05217075535579995, -0.0013049045239769022, -0.10191164291758392, 0.025612048664011424, 0.019389078478728783, 0.11774566194776513, 0.03371688240970748, 0.10902490871073182, 0.057237488905552275], [-0.10527972026482613, 0.025827640307498755, -0.10146214914713807, 0.05113646676950803, 0.06745742951069776, -0.03141118524236164, -0.04093419547059013, 0.10226647255027504, 0.07443704401397273, -0.021969900456618254, -0.09534747190489468, 0.08041765455928783, 0.06152897528640351, -0.009998725515446949, 0.09283909179078659, -0.021391403761357286, -0.0640709002695625, 0.03965864935194711, 0.026309999023220145, -0.03783610808056912, 0.0884471455220002, -0.07962264021180855, 0.040902044589374145, -0.05262691579368649, 0.05660492282161413, -0.005493172794620436, 0.08039376810038404, -0.03557775292740381, 0.05528242263226453, 0.06379420983842397, -0.007980872678743046, -0.009435131074166287, -0.04528273671510113, 0.05530327926625281, -0.04185840442969623, -0.009741427262871059, 0.02265797090659263, -0.10219456913208294, -0.10927506221919046, 0.059156429095057916, -0.09742324036300935, -0.08929265884833733, -0.015461710823834499, -0.045790251247702925, 0.01806733450875609, -0.036388077276541544, -0.061502561322636394, 0.0804794273127661, -0.022362365048069224, -0.0822969572620462, -0.021806739255111507, -0.08490903338550776, 0.0684634769575974, -0.09866664672480996, 0.09287612315005002, -0.06215673393110225, 0.008120332280757684, 0.034292555479815086, 0.06890529268880145, 0.06619772678870738, 0.07972200126199813, 0.06963343453806112, -0.0007638100990841163, -0.04740234600329742, 0.04690568210974712, 0.06938369686067519, 0.07804628901562982, 0.011577637726771142, -0.10142945933732468, 0.08587250697223796, -0.052812921551149576, -0.10162302833849315, -0.01210083652870053, 0.0918307839167165, -0.04963936933593509, -0.08767474324390262, -0.022746706173504428, -0.0947324541940483, -0.04837261731135927, -0.030532771391827484, -0.003663297723026284, 0.05499358288511864, -0.04490229279916225, 0.0003925833537320255, 0.04885582475940435, 0.040380002125587795, -0.09140529501472903, -0.030305924976957062, 0.09439103238763036, -0.012624670673641336, -0.031146124052888715, 0.015016858363488303, -0.10233615277333542, -0.013281133655175947, -0.08261544908807825, -0.010348533781880961, 0.011223247001463385, 0.01666731243038378, 0.046682950371390634, 0.0490011168728943, -0.058283801605705086, -0.09758033610202743, 0.014193284891147623, -0.009065612832056404, 0.042812397748008726, 0.03522054575762893, 0.02056562953623187, 0.005361589845507991, -0.01633706083662721, 0.02353365726751677, 0.052327238345665536, -0.013615003540175955, -0.026640843576096345, 0.0014951450243113592, -0.03302993348123111, -0.056556693246221285, -0.05642979514436728, 0.10118925616584183, 0.017489808261300168, 0.009134481775183409, -0.02511129276173693, -0.06263245213180499, 0.10349281434616787, -0.024644027373446332, -0.09548260529312357, -0.07201257124122047, 0.023548124589617102, -0.08380456625653708], [0.08950710706466909, 0.02466046786528008, 0.051091040354730013, -0.1117242312567984, 0.08287302666400212, 0.05007512833210305, -0.0010984632737058488, -0.009197023506493929, -0.044403698094681456, 0.050543088573732534, -0.004681513028574643, 0.022120198846754004, -0.0037948048669338296, 0.08186851785554049, -0.07992551187845895, -0.016176878429069563, 0.07520967202069033, -0.05019286951708301, 0.005247260700240378, -0.04761805986350231, -0.1058506603952638, 0.06970747590976868, -0.023623171751783304, 0.03840049971875827, -0.0684390165250474, -0.08357797371800303, 0.04369466080463685, -0.055089263939247596, -0.09105212893197172, 0.08388495418146288, -0.10880871304314226, -0.08682281800363406, 0.08234477531400071, -0.06267078290568978, 0.06410451349396779, 0.08711609156462052, -0.07739004212972278, 0.054221270254397796, 0.04558383395237566, -0.09171845408583987, 0.08030101631607497, -0.07144619651728372, -0.015963137258287963, -0.02180368278372664, -0.003097893746014777, 0.09167323909333018, -0.05091118968968907, -0.010820498466307685, 0.043493778388166794, 0.07501650873472836, -0.09643984409726235, -0.048992864296027484, -0.08930432412147286, -0.022012106745868783, -0.08074929051446264, -0.09719110319728314, 0.01291773840725951, -0.002038436735660853, 0.035972838113411496, 0.06795636113526447, -0.06692910400369614, 0.11871300389816604, -0.07175694707817083, 0.07080973229297734, -0.06284697711150751, -0.00047701274611137556, -0.038113170806260345, -0.10254886982511215, 0.09102169838343234, -0.013883588802576032, -0.08692971459327441, -0.067636708222782, -0.04741563062548228, -0.05050321402832502, -0.008891650324454931, -0.0035874320635177225, 0.04795376868608684, -0.060839712276166226, -0.09795427333867633, 0.07531413776092737, -0.11084427664222186, 0.009145087503860824, 0.03273713289745038, -0.020104436749048202, -0.08985690853374781, 0.058283934894402645, 0.08340080424949935, 0.04396517320638436, -0.031358923330513565, -0.04749320490919069, 0.07743550832617475, -0.0753764825123396, -0.08337201506583951, 0.04527941569409012, -0.10298748707382549, -0.08200632823334847, 0.052380928989756076, 0.101704886777976, 0.050181945261515974, 0.020711833095970304, -0.023530555297935782, 0.026760900218051123, -0.06422268836081037, -0.022498395051354057, 0.0070508361015130345, -0.006162445504634332, -0.032712265182006504, -0.03471122324742196, -0.057619613248573565, 0.058428252153434855, -0.02198180991994182, -0.08154731512999826, -0.009574400202323047, 0.07965355151792716, 0.0234459407442691, -0.08651475101413497, -0.05229529919738578, 0.09193233248936583, 0.08716983097810727, 0.023241815961253694, -0.11071829793212046, -0.043540036874254555, -0.04704705079329841, -0.026024143809417272, -0.08939156933676957, 0.07826607168041012, -0.04161721465319815, 0.05209480989887217], [-0.08194816696606831, 0.007857329127621543, -0.06658010699257018, -0.0258535727191678, -0.06271260208071393, -0.03408075857874628, -0.04717064518018811, -0.07166541836336354, -0.06432539011339099, -0.04061717018847997, -0.05705930043269884, 0.03577334690549496, 0.03070393138028451, 0.012341084554776388, -0.041633593870391415, -0.03751885398331762, 0.04140129320205891, -0.03573289418547528, -0.040889339107286815, -0.07191747424131716, -0.10854243292674881, -0.0007014035647520177, -0.09059510435251482, -0.050664642411155675, -0.04646088692539492, -0.08282113823137387, -0.0847858755649279, -0.025189462054823263, 0.03411585877526287, 0.056950418447746, 0.028019507818707337, -0.010422834760845568, 0.06806592267420665, 0.02809107239336103, -0.006305862625251924, 0.07576857194561226, 0.10139443824330271, -0.001900966109076793, 0.05518566339316889, 0.02390566792571332, 0.027759416705407214, 0.06906484871147017, -0.09954683446190539, -0.03158989060667613, 0.02116949649073988, -0.0024691962131048015, -0.09412276598302219, -0.03892556528258435, -0.007947784273118364, -0.04587153327286542, -0.0517706077516977, -0.1286969966647408, 0.04627563391240619, 0.07105847290828675, 0.05187573286967469, -0.05927659861252222, -0.08116480051340873, -0.00080381514425832, 0.006769364633703128, 0.01912375925551117, 0.009069588490027147, -0.022341146450162094, 0.028518312503486094, 0.04339862780529087, 0.004957136609253415, 0.03347269679772944, -0.078330195057535, -0.06468639997750689, -0.06878192098039489, 0.0964223341634715, -0.08032772755119512, 0.06926279944942612, 0.005976207838288169, 0.009668509505167306, -0.01997580596674457, 0.05227228503010431, -0.06137749123397482, 0.06486844551424314, -0.10693108842352136, 0.0940212343160331, -0.06266934907681229, -0.053271756780823416, -0.014823246680643044, 0.022484305154636043, 0.030886587516069895, -0.03409750974724921, 0.0712640204419606, 0.15839284849501248, -0.041783087043831144, -0.029636473552240566, 0.07839626159231701, 0.08357555945010849, -0.1266770213384539, -0.014538925166346474, 0.09936040465506825, 0.01027269377022218, -0.09810142741093006, 0.03300652492770985, 0.07474882462228273, 0.05697535240918378, -0.015142088516790877, -0.05517382051382041, 0.03586741905340297, 0.10237247192582374, 0.04014005790694242, 0.018658502509749656, 0.07119650917030888, 0.07175137775644885, 0.021345665736065486, -0.05667131027592329, -0.06100570355410621, 0.003685211202589372, -0.04627707502947235, -0.10863315925591537, -0.007888995146877176, 0.07973078288824047, -0.08726159243621569, -0.0947889440059973, -0.05981162453217682, -0.03399121017219737, -0.09147935368204804, -0.05548676206394748, -0.08947513924434919, 0.06699925052089638, -0.006162770596470721, 0.03297738074122554, -0.050431882310519024, 0.12251384878363983], [0.012435049806715986, 0.031312953369619215, 0.04562279955234305, -0.06723038703321563, 0.08610795763873749, 0.03192955105843637, 0.049280712456221606, 0.00035025077083732255, 0.10397775193739425, -0.04389731317335401, 0.058322460473114436, 0.007998952883435684, 0.04789767028480326, 0.0324545346664392, -0.04118424474862617, -0.06416911114291352, -0.09946601749771436, -0.03939803568221871, -0.07569390275028658, 0.08513491870550838, 0.03519743458383379, 0.03949986402749671, -0.03421439550287773, -0.08152701304845847, -0.014874507053330342, -0.09589799106434369, -0.0668630056010131, -0.05162659771542697, 0.009197219386826213, -0.09904947107237409, -0.051182283740246526, 0.013974594808171452, -0.07303787371892972, -0.01793590515761986, -0.01698424459103258, -0.014256427648152504, -0.01417272435501677, 0.09282930733397274, 0.07867867603270018, -0.03857880169138177, 0.04201659126751366, -0.07045240951566693, -0.08363307503431608, -0.06902573805747934, 0.09216819783215853, -0.0027082303643003597, 0.0898355235189561, 0.10069083816874677, -0.004999786900092123, 0.041858071451455967, 0.07321961354694519, -0.0566011371047089, -0.07829046434480819, -0.01092131292851169, 0.03305277681313464, 0.027600538508817888, -0.06435769747299923, -0.031049856765591497, -0.007302306640345009, -0.01876688245118248, 0.07270434481056494, -0.06321516264934882, 0.007395619206737721, 0.08934699861860439, 0.06138229336325394, -0.08977658281741938, 0.09115039653623051, -0.10555777796773634, -0.01545207578849481, -0.05291551165319792, -0.08327167132390977, 0.024205808701131547, -0.008485423159800116, 0.08944279038010591, 0.04851659797745282, -0.03479074554856434, 0.0632248637884767, 0.06090050820131981, 0.07467151955325527, -0.06324520011276705, 0.06466916373596435, 0.04072069984388261, 0.03593537153707613, 0.02609601225994772, 0.08607922221631126, 0.03251369147590929, 0.08988898741607089, -0.039543669482295075, -0.05551706298124724, 0.020064298215858225, -0.004865559486881739, 0.010554752477319886, -0.07669584959228883, -0.06316309274662535, -0.007694505195565851, -0.0704755625008094, 0.037862033610904164, 0.037843241042634396, -0.0614446271631872, -0.09362111790070986, -0.012035005108214075, -0.04732933898375365, -0.0824016051262597, -0.061303076426287684, -0.0032069157943998335, -0.08470434928127292, 0.055787736194597815, 0.046226881219027925, 0.018989991729519307, -0.002955933330918819, 0.11664143840263229, 0.017054618734843895, 0.012927154945671265, 0.02480495327776161, -0.013245068046350584, 0.04117112846467894, -0.0018540101177635152, -0.033503193791446825, -0.04256574523588912, 0.04909381485539428, 0.06710489384609475, 0.01651042201438786, -0.05133230942850985, -0.046438384728195156, -0.036518100644231485, -0.06251208094367011, -0.020898734279512342, 0.004211423791779611], [0.0823764001969119, -0.03842947809606477, -0.04366001526273958, 0.1124392285898789, -0.10357353241119759, 0.12614876144604364, 0.003253386614579189, 0.06516267191840693, 0.016679310317894654, 0.025662921575702477, 0.1203344057597421, -0.07895628081636612, 0.07017282405134091, -0.019239250197971573, -0.061384579124158664, 0.03960640425133435, 0.028168159220441354, 0.03743039286350431, 0.08585671315017464, 0.003046676721962704, 0.05036442610079608, -0.04673353380104004, 0.0010039729397322641, 0.09975253886742161, 0.09947855144068585, 0.04084259881844571, 0.02752481844548296, 0.05222118776265331, 0.03307387428201531, 0.02333559522734828, 0.11067256595355225, 0.029959323081850234, -0.07184937033589818, -0.06588297165275502, 0.047273256333243835, -0.078163545009083, 0.12398207435289182, -0.01051038787949649, 0.039206483828751484, 0.013174558666183288, -0.07619088636854507, 0.025745250515559974, 0.0808795444097651, -0.048916913614954816, -0.08513128158563321, 0.04455277650933685, -0.034723142630845465, 0.09104245043333178, -0.088371481936477, 0.09756822809762081, 0.05943709213237918, 0.023401654344346653, 0.07286712039937204, 0.09939612515039878, 0.050165684459051854, 0.07510708587312839, -0.05345443922376883, -0.08537541493003464, -0.05586371227679275, -0.06015463807362789, 0.1171087817302142, 0.05976948383542605, -0.01537603601916374, -0.06369126334178636, 0.012982430554799855, -0.07428666821803895, -0.0037299127721540835, 0.10417396080991696, 0.0367511031625306, -0.042914114486349006, 0.11267729221250287, -0.0055306965031552136, -0.061273544174268536, -0.04166216191926462, -0.021693758649303067, 0.05274061735487188, 0.10259772089443008, -0.0810555522182583, 0.02384521788998212, 0.01586328004851824, -0.049879144931475675, -0.06702566395077324, 0.010770879779298845, 0.0241561619579295, -0.03201735030330017, 0.008922282103619861, -0.024022983894227166, 0.023797662792414204, -0.0235605778676526, -0.08875146655032076, 0.01822209740015979, 0.12274606180523374, -0.038248949096805936, -0.051448185933864465, 0.03950662562371382, 0.10338058371695011, -0.08954843702226674, -0.07571656059427113, -0.05410902216878202, 0.13052925042401212, -0.05987424064006355, 0.02099726353792647, 0.06372024761847005, -0.0427051831273265, 0.013845944764468716, 0.06851022880899078, -0.010384507363593014, 0.03581018802251335, 0.05854025973792787, 0.06223643997625715, 0.04868831067042247, 0.06646050512264287, -0.022252260164771793, -0.02956418225227499, -0.11223182713270505, -0.10253929916217862, 0.06581427471345211, 0.061468367055454755, 0.0929724771182087, 0.06442673366347433, 0.029966756069526635, -0.0695206759445777, -0.029903097487670362, -0.09178853776332414, 0.06387201769769241, -0.028950178106145866, -0.030587065223384842, -0.001000941720201931], [-0.035578399353410665, 0.027311638991868364, 0.11282363321538312, 0.09418032323969734, -0.08962882150213373, 0.01102528703557472, -0.04714710634977744, 0.09471112918380731, 0.04189264816703711, 0.02759204774529286, 0.12219397637374839, -0.021195782724155763, -0.044426089118302294, -0.056990656590321084, -0.008076152758197364, 0.01991992161705187, 0.017706634379353894, 0.033091153235482215, -0.07549440908135106, -0.06602189984142628, 0.09084302282142194, -0.01779851677393386, 0.015624341708456902, -0.06514656903461477, -0.06436698814165108, 0.011473855017780591, 0.008673156163440636, 0.09676921784292022, -0.011451284074884608, -0.06991210213144473, 0.07809188487857237, -0.054642954880171936, 0.01776395269421704, 0.05065937009513535, -0.03421077979922043, 0.014254324344366132, 0.0365652058569495, 0.12068997127382998, -0.03701898832739198, -0.10305060483696414, -0.020733286721196557, -0.03768793438732592, -0.04580425647090959, 0.09570897959175897, 0.016886817709865963, 0.05019488298973328, 0.021183728550116385, -0.0224723298311158, 0.014272545444165499, 0.030611186878892187, 0.10628770366084199, 0.0197017247253673, 0.020606692247069725, 0.04949618159087692, -0.017156576762725473, 0.06512045741773695, 0.0038332746061545773, -0.08900995504413642, 0.02899334159549762, -0.05986333691462107, -0.06309007159771783, -0.029233169101641195, 0.08858868238753656, 0.05587346073598018, 0.06422909651133864, -0.09093813786848293, 0.0033018559109210745, -0.056449425725396164, -0.04872895047110311, -0.0182461528667146, -0.02652126511101692, -0.04245031554581071, 0.06632289148120857, 0.0762056554642801, -0.04676517709179477, -0.018603256732563796, 0.09031948149559148, -0.07260396422968284, 0.05841431402487443, -0.018423402315709655, 0.09485071918262254, -0.07784189697663994, 0.050633753983732495, -0.06018333624979566, -0.08762622262907944, 0.10956057716029063, -0.07072512298545208, 0.07070991382071486, -0.031285913874479196, -0.0013163067746969034, -0.06795673377910666, 0.052940553991022835, -0.008636853655315793, 0.07598610175673091, -0.06461550084095437, -0.0011149645858920488, 0.08264080816826962, -0.02232438607922125, 0.010147837901444747, -0.009700993494767888, -0.00853249709663985, -0.02725978187694886, -0.002147073511360974, 0.03658828589473784, -0.10125160681169482, 0.01806813796651654, -0.05174254730801873, 0.0641036876400125, -0.06476206351865772, 0.012091620477580138, -0.05303553630363559, 0.081129818436502, -0.025712879731983537, -0.04397126924390081, -0.07207144802972162, -0.004573756682576068, 0.09686293933406949, -0.004026329100312788, -0.005920109700038719, -0.08951094810796499, 0.04344757902588469, 0.06677881708842795, -0.07993822368804836, 0.0026435376902303725, 0.032035733576965854, 0.06871277723549134, 0.10653351793112557, -0.024716675247550716], [0.08037635856434507, -0.016222189160327145, 0.012074527900116108, 0.04724283835591415, 0.030468148588302543, -0.05470278750466246, 0.0953027777359931, -0.0345508477500922, 0.14152686435033437, 0.019903915208607268, 0.011650347889276108, -0.09802925676991345, 0.0015948042977355949, -0.035574833177666854, 0.008204116155334763, -0.08822872274195094, -0.04521826733424335, 0.033890481379734425, -0.07680172638410579, -0.03315252758391009, 0.01418495804334342, -0.06836693239377965, 0.053278005085057735, 0.09229273463104688, -0.09914588601644841, -0.012523306263881736, 0.0483084697258726, -0.07732003864442037, 0.024649831336938773, -0.0408366660118878, 0.05735045661831966, 0.01637131956654667, 0.011583219529820462, -0.06049454891247741, 0.06600377140468854, 0.039848281151116126, -0.004837464002536624, 0.12388683722819617, 0.09191165212642911, 0.06621537146148605, -0.013628898618790289, -0.06224100126483954, 0.05347576410485256, -0.09499319496084814, -0.01987535971173534, 0.024323711118655895, -0.030113832819439725, -0.06064056117132026, -0.09127057544649755, -0.10356527521873207, 0.09306636916330907, 0.13164110359551429, -0.02742640794703615, 0.05359008684088992, 0.07069191668839633, 0.01240554138935826, -0.09058588211408053, 0.030422411894779188, -0.09585935178455436, 0.18225252019382462, -0.03144219147932869, 0.07214474458168435, -0.056325126420605096, 0.12986413817646483, 0.08823366728881721, 0.06587440296223719, 0.12914273882683994, 0.09048814969386766, 0.017831580888666158, 0.04164538182175466, -0.11643387683417984, 0.09123974618269458, -0.09404073065470195, -0.04475639849413128, 0.08559135641398614, -0.11355627229422016, 0.0012067836033527468, -0.0842394889861479, 0.009254626647601473, 0.09470136355931474, 0.11331435401605952, 0.0671273427287822, -0.08519133655314276, -0.023719572464806757, 0.027096978312017565, 0.03708263597244266, 0.01515935339423686, -0.09640187799064698, -0.007849608575957383, 0.07016029086911667, 0.07033616990929319, 0.019177143840465302, -0.04934824650858225, -0.033662528666497764, -0.01454255115591112, 0.13125307414538256, 0.0668088266635043, -0.04721809858257505, 0.015225663080764134, 0.06859212305217073, 0.05796443627466645, -0.11329337901810103, 0.05045155006627726, 0.013645723542883152, -0.03516425199111484, 0.056705624040795884, -0.05406863768584886, -0.06570767140948007, 0.07307817192626036, -0.023220039223756688, -0.17793210012716892, 0.13745848529595311, 0.09054266598391761, -0.09836721780609489, 0.020888401178404174, -0.17310648255231315, 0.05634832022829279, -0.0534501379696347, 0.027746543775512247, 0.0593400635787529, -0.0012080582051845513, -0.07723938201517519, 0.0581686653607538, -0.043079480731124484, 0.025957212682421002, 0.15398218812820003, 0.07111536296556653, 0.12678228828263893], [-0.0641321073827277, -0.06000927361010809, 0.07903683445510788, 0.018732561962301907, -0.05511225378836311, -0.08514078306187864, -0.019972888306375086, -0.04033603354781987, 0.031631586293303475, -0.12181960243165108, -0.08764139336232175, -0.007283349544491691, -0.007261034940101967, -0.07773526477643113, 0.030896396524701473, -0.06947883831937446, -0.04133093440246535, 0.06794793240634091, 0.06384117220075095, 0.03965515302543204, 0.07406284126371948, 0.07035731761404157, 0.028130458976385237, -0.06962106943923267, -0.048438814058899805, 0.0008835785858092811, -0.045028605705274394, -0.05950382105929409, 0.04663754089983114, 0.015100244904888144, 0.10643269907524165, 0.026270721702612694, 0.07206527694891408, 0.0756036752424526, -0.11461111164141514, -0.061990681610809645, -0.029905950360240758, 0.048698442271650835, 0.02501020504336018, 0.06358976593111498, 0.04541805038730872, 0.06257355846927591, -0.08202469289214841, -0.08951613084730461, 0.21515892680172585, -0.06296010277506253, 0.009549514418159627, -0.0394786405790547, 0.016484063992184012, -0.022170990929029865, -0.020145766165885738, 0.07759066411997158, 0.039205660324053086, -0.038617994555146515, -0.03943656412743158, -0.001996065928009873, -0.09835522715362813, 0.05965174875233804, -0.07282991524692842, 0.09911397326619205, 0.11178689218873024, -0.1253356107840619, 0.017630889222765712, 0.10594585155678429, 0.05285032559051413, -0.0466809484690032, -0.049373228599460306, 0.10157797403560813, -0.015294724448602188, 0.04686364383417622, -0.08327337263986069, 0.03077403259566046, -0.051636768546605455, 0.019924945626176905, 0.1147836263355693, 0.045030732409541384, 0.012380076846412975, 0.04173352365698182, -0.03126530594747054, -0.044114935407582906, -0.03680017289798463, 0.04908285169455595, 0.03824047572681354, 0.014989184360050487, 0.0027918794053407446, 0.07149144493711636, 0.006319652824773736, -0.10035246065838146, -0.05736217792954039, 0.008607338278157435, -0.07117203809018727, 0.03806883143005852, 0.12488986501496074, -0.014628917567364171, -0.05228892198946415, 0.1130684013071538, -0.013928759320230718, 0.03481010050168276, 0.08737471875500402, 0.03327658325127193, 0.07694416530314829, 0.03277165350706173, 0.12624064918831923, 0.000522646907792802, 0.13228119998107976, -0.05790612035077168, -0.07644285966084302, -0.07537945079260555, -0.07595302680654652, 0.020221032729313717, -0.10026506387205447, 0.0427579163736442, -0.07518624142725037, 0.01271814396399432, 0.03449433216421028, -0.14638011399469564, 0.05794457334250349, -0.07937221330394321, 0.0023691996334088542, 0.0394565735693479, -0.012169973916190999, -0.004565480305652134, -0.01140175107796763, 0.060862913191247994, -0.07982048791487313, -0.02439782641683226, -0.039864934095947505, -0.034026357674567256], [-0.07368852648267972, 0.016776141790913267, -0.1269557224716261, -0.04361941365272233, 0.09857219510618852, -0.04103539414139111, -0.00821470475206951, 0.06952113123199709, -0.02415112422235869, -0.15759824286951174, -0.11243585932912434, -0.04266430383882377, 0.009185248102192522, 0.06028206652268795, -0.04702201017411945, -0.1307682017340825, 0.10775507496259393, -0.04577557834739824, -0.015058978442916909, -0.05601044559608308, 0.041243617687966375, -0.09500591183262411, 0.025762850695848105, 0.005624801398068153, 0.0005418707259981596, 0.049508738708633517, 0.06572832230867943, -0.035771947979688766, 0.0502687369713028, 0.07427120625377906, -0.04720884382039171, -0.04688333320082241, 0.011017023561677173, -0.0036379185495076386, -0.0729469659203259, -0.12363802537706574, -0.003237325839697605, -0.011433651139214455, 0.1115977661358148, 0.0761988596871709, 0.05107461578209542, -0.045556545354270124, 0.027773371713861652, -0.18401604647377268, 0.20077753003510165, -0.06028642904641271, 0.025892638526591225, 0.07232321765387666, 0.027710733460722274, -0.041357456312018454, 0.003099794845947575, 0.0676697649903851, 0.07311588752102524, 0.04228201866423414, 0.10036748991826493, -0.05331510002991355, -0.015367124265026042, -0.07305965346284878, 0.015880409452603085, 0.02662105244886248, 0.0030823260394598267, -0.12952785300246275, 0.032364289687863514, 0.07368591597415881, -0.07883308944520927, -0.027593754339821946, 0.05907337858973832, -0.059823347360017945, -0.004923102001409634, -0.018287899556936413, -0.0974599808313804, -0.03239242496429436, -0.039041403168477706, -0.0723136188160034, -0.06040988228653135, 0.002513122151975367, 0.02774508121351092, -0.05364868323770023, -0.022049746421108102, 0.0006265082958644107, 0.10241970157599932, -0.012137762943743457, 0.009306706871821115, -0.10962913281376196, -0.11502172727120022, -0.02447073418013177, -0.0463416603913053, -0.133812620481509, -0.07236503072227625, 0.08081565542953831, 0.05346375162042916, -0.12912271489691265, -0.08350099891732604, -0.05149832770846058, -0.08771094247758966, 0.07103909598526045, 0.06246760332175943, -0.07012852515550937, 0.0785251468532672, 0.0011404018210507026, 0.03710544362459678, 0.06961503340332638, -0.021706258059023882, 0.06635581894783198, 0.04340856719743167, -0.09052251104719664, -0.06824440939614451, 0.007712917691189005, 0.05838054020943901, -0.08999757308924211, -0.07619440464073568, 0.016245982014844732, 0.062037744024426654, 0.011105862567300848, 0.04042420455348618, -0.06355332249949122, 0.038243377959377996, 0.0719910700160015, 0.06140875139700444, -0.07306779242299986, 0.014565280660213394, -0.023424215078181067, 0.023000591898235462, 0.1171034633613835, 0.0049039383100179116, -0.1020637440732454, -0.04235356046731197, -0.02862898896108348], [-0.06530963581020012, -0.052004889486181136, -0.041723662482977375, -0.0187558273004404, -0.015122255417098001, 0.027675706830558637, 0.03099138866088362, 0.03520577781016862, 0.006272370073138153, -0.14205781410833623, 0.027968457603783258, 0.09163491754595517, 0.018769564530924824, 0.14242628670729912, -0.03634594355438941, -0.1310962527242642, 0.041341568294242105, 0.032588463966307844, 0.023940299021213623, -0.08174960509802902, 0.032739025767248145, -0.09292682855858095, -0.027100459934648068, 0.0069731229067874914, -0.041621257189639826, -0.0038203997825797735, -0.04136804926055149, -0.11578295502938685, 0.02088483377356636, -0.09213163876375788, 0.018823738327175266, -0.08203568489592117, 0.07037313726575199, -0.00742601812807585, -0.09479355463380575, -0.20521708557690638, -0.0005463518219532138, -0.034857058375642104, 0.1175077422147492, 0.08143237171069909, 0.1356366623372325, 0.027559297049174595, -0.0662046749147615, -0.06434681512985713, 0.013613055861709725, -0.10312061381714185, -0.0030937547050258244, -0.022556064723625386, -0.13107333011996036, 0.0017475945049363793, 0.060336709266773765, 0.11847777374020255, -0.04067029661316707, 0.05637148303982286, 0.017872127702672762, -0.06463342232522008, -0.03174811962719834, -0.08421296032943432, 0.017210415079882555, -0.10047316879943705, 0.031697008283106516, -0.07780807553718336, -0.06381227477472928, 0.026613776195620227, -0.026119986027843274, -0.08446248749102586, 0.13469546495300969, 0.0444764284264273, 0.006513443382785234, -0.0007592460618058463, 0.0008485317772131304, 0.07235145703343326, -0.0218655359882988, -0.0652359211709629, 0.021589938968616707, 0.04693624380792347, 0.08437493750837645, 0.03210980974627129, 0.02737702396620284, 0.12892219897667564, -0.08124704258497259, -0.11478324250555642, -0.051588782004807536, -0.08445295558512675, 0.06157489635879775, -0.15114746968056803, -0.0914787477772171, -0.12002689978834032, -0.12818577265315084, 0.04019563980793723, -0.09745092624216029, 0.05878682050435864, -0.029955773603184157, -0.05065125776178623, -0.04073994267225169, 0.0005518777060706766, -0.08956322076809572, -0.003972736388965665, -0.06632586502481289, -0.05451927880956175, 0.02851834243929754, -0.12172924549176144, 0.1665876738790214, 0.05508098298915594, -0.03928652900319885, -0.007477316983661116, -0.050336187644356205, 0.008891986573202702, -0.02442424750322639, -0.027117332102214092, -0.07844265091990696, 0.08854984607864519, 0.12278383940107268, 0.0072697252417465935, 0.10623213186228614, 0.012983972117941405, -0.10238099434114369, -0.09334115104236385, -0.08459674127290435, 0.014752663230096571, 0.06723931465467478, -0.04757024888570832, -0.045252361000412814, 0.09735963434801174, 0.04600590653813887, 0.032822165363193635, -0.05403568587321002, -0.06956547437706782], [-0.048753573445713634, 0.047590980591283825, -0.04175841930275565, 0.09209494225692805, -0.06730010325599026, 0.005411485754650351, 0.07078901404350356, -0.11769182871415275, -0.0783994529246683, -0.09782298798209894, -0.02996631566564054, -0.043646884199032995, -0.037428865771933495, -0.048393711907004124, 0.09888306965407986, -0.07412802943018935, -0.020276242147595106, 0.0895697144122395, -0.09583214084859164, -0.08523578148667244, -0.034634253296481975, -0.051626364544485825, 0.04082471890752344, -0.04376984785741255, -0.00917105729118114, 0.011641304421877009, -0.11971654364637979, -0.04665644372317075, 0.04356939737055847, 0.052017633956297334, 0.12458598753826569, -0.007056819508189497, 0.015883355481805313, -0.05238589260629801, -0.12809903963903085, -0.0007815024382988303, 0.0297622129437214, -0.0864558821350655, -0.037167932774467484, 0.014173654673644289, -0.0774688291678525, -0.04860507974849721, 0.044014302032853475, -0.137490985262133, 0.09726386883484349, 0.057253954038101275, 0.03143259807315374, -0.12043127592405392, -0.02884745538835579, 0.07250028885664861, -0.08800128639767175, 0.00048624752765405785, -0.01491236330995707, 0.09029754473928363, -0.025532973117378333, -0.005074189187438349, -0.011404430606617616, -0.03808293443147964, -0.023823406009343823, -0.035779045183671435, 0.03994513735135601, 0.04423160772724978, -0.14951498552144366, -0.10014057543967562, 0.01001451044976757, -0.09044836783027364, -0.011113326796858962, 0.0020042822693486957, 0.0038708965852294716, -0.02860506723174053, -0.14537529147648612, 0.0306141722450769, -0.07844774372899091, -0.05387209468694533, 0.05777690202415035, 0.022482579005883015, -0.112841462002425, 0.01032983890338031, -0.029017502878247496, 0.07271082465846779, -0.0523725153097564, -0.1257151407452573, 0.06727807785690551, -0.09775412857395105, 0.028022970367647868, -0.08196360434573116, 0.026670969097001472, -0.045127404546632915, -0.06731435353373613, -0.01382755937549263, 0.027133697906887497, 0.011700026282304031, -0.03158587443877344, -0.048777020581393424, 0.0007373689200929177, 0.07095958116935135, -0.03105502292296741, 0.055560448555198864, -0.025466453929548525, -0.0813051698459683, 0.06436061996649206, -0.10599280075283433, 0.04514737925891389, -0.05711679632968786, -0.0079403212483092, 0.08155452673906383, -0.09199012420742396, -0.08562514856272004, -0.017250772197113504, 0.10934493792638678, -0.007899260229275123, -0.10123434616074482, 0.02711544196767379, -0.10008774358235145, 0.09035351714165396, -0.03440188442358404, -0.08771047784670775, -0.1127491356766545, -0.13381991188322978, -0.04927554918150809, 0.04116933825417935, -0.042611208389876316, -0.035413781976152754, 0.03126020971094722, 0.05715582105009105, -0.10390534833101252, -0.16649650894178253, -0.0446982056075626], [-0.01243995075258828, -0.12433413795540708, 0.04762559955429065, -0.09380104445019773, 0.03881716103494362, -0.004940463354552653, -0.030615235399436197, 0.013386846400404533, 0.022433670170685056, 0.008109109918195773, 0.013513397550742288, 0.0458091820512195, -0.12165062090258084, -0.023780528171514152, 0.04868993910761686, -0.15158606222416457, 0.10402184344158544, 0.03843101404153872, 0.03376048599808647, -0.11691608838423974, 0.008133796211761654, -0.004846178537347598, -0.09659256983762035, -0.15530744992904064, 0.08487830819997691, -0.1321532674954294, -0.11840809127452483, -0.02876762869385222, -0.00254012689106907, -0.14585635589544996, 0.08440703548742669, -0.07367288326930721, -0.026179154099777488, -0.10542371179940584, 0.029560770881298506, 0.0765385185197825, -0.05542315620373829, -0.06448840878550209, 0.08804114193776859, -0.04399498797558681, -0.11757873203608195, -0.03276169097056073, -0.07768873070683012, 0.03808470461576403, 0.1372139330004847, -0.06192780244636787, -0.11412731794249377, -0.11161321697444579, 0.0644097165311548, -0.08630187781258247, -0.10819006699207659, -0.005660447703534184, -0.009891530904158655, -0.0435944490640946, 0.008039892587970675, 0.0405845193699407, -0.08269904673572928, 0.08595857240808986, 0.011303438363101874, -0.02384155319180294, 0.008462985053823969, -0.008491587687127263, 0.04951060199690229, -0.06866997964811711, -0.007973082307482435, -0.06585877210542482, -0.05473259069295291, -0.13310469687290907, 0.013827264575884093, -0.00048616921810359253, -0.09246834597783415, -0.03630495583272431, -0.03231097115589224, -0.10344801643302684, -0.019241258349588633, -0.03218639578747183, -0.009728353062897878, -0.04203243273860379, 0.05186296393465953, -0.09136276506104325, -0.0017052793426928993, -0.0076021318843919865, -0.06157694211609786, -0.04624795208613195, -0.08549109442705226, 0.04558886865931322, -0.04150270398889581, 0.06630466910221532, -0.06214618461163535, -0.043648735363793136, -0.03638402681396377, -0.02590521555364703, 0.03802935058463354, -0.036704753045493796, -0.02191211617539902, 0.023887526890082004, 0.01903384552885394, 0.1351317604717814, -0.09476578050983651, -0.11041051943118906, 0.008782686292362802, -0.021285634624600144, 0.0669439171379285, -0.024169922704866793, 0.10899631977004604, -0.030654550569385385, -0.008304815556734797, -0.03790354442739502, -0.08427304966858898, 0.019119217547680097, 0.060880279113142186, 0.04541755092563891, -0.00016198341915388083, 0.09972038019542565, -0.010756333519372559, -0.07920548727363672, 0.05282815901863919, 0.08596702993592399, -0.05834418929812277, 0.04578128041838078, 0.025060683095289013, -0.08370540175276943, 0.07794230112317485, 0.012384411103817458, -0.08560574860270373, 0.04033995253710147, 0.06015224046848211, -0.10171907776655884], [-0.1484046733017173, -0.0039831107777849725, -0.0039412328461823475, -0.1133305473687751, 0.012054579953683505, -0.0835632153340432, -0.03644909344460002, -0.06210020752672852, -0.040789529225023644, -0.06217130351537998, -0.13848339645082783, 0.09225433515500486, -0.07418608698335667, 0.00259451881240727, 0.13718491968872215, -0.10769871128575027, -0.011414923341156697, 0.090985101405429, -0.05320808580671654, 0.058805268535905134, -0.08817425166298846, 0.013208886671111558, -0.05555494783732346, -0.06247964969272827, -0.026994713010258943, 0.017781376626623185, 0.02458477215603544, 0.046174170314718425, 0.05829812178794673, -0.05647584638950904, 0.07177471646011896, -0.05388196845857651, -0.007882565846044392, -0.09608248804910462, 0.0021859585571150438, 0.037203805943257076, -0.04096336031396751, -0.028360804905794675, -0.09698624974471236, 0.10969598689153293, -0.07973562325527311, 0.05432932145421287, -0.10330009601636253, 0.042077622097766304, -0.06322744736756175, -0.08664729022191868, -0.0029594515548253594, 0.039739359508314864, 0.01566049062228728, -0.043979976893562825, -0.07130107875646167, 0.03057510136468227, -0.1045708755510477, 0.08361909883266529, 0.013608782670336318, -0.050573934732258505, 0.05456437112164023, 0.006720480593902086, -0.04202254725964082, -0.09649986242685168, -0.13032662331216974, -0.01565045620141594, -0.022328826081852028, -0.005286276719350467, 0.020371501874628557, -0.11928540876850097, -0.0599096046386646, -0.13342534384381638, -0.12576539651380583, -0.04733044641079879, -0.11528614317781474, 0.002868028373508071, 0.027252828185867484, 0.04208267601489284, -0.06721713699594004, -0.03274874943221087, 0.06327443901956116, -0.14511530570229242, 0.060436836875134875, -0.06966202154255746, -0.1058012675063909, 0.019403358854085697, -0.06266632080511687, -0.06468226897534957, 0.013866743080751708, 0.022274080369477478, -0.08141699756303301, -0.032166144392636827, 0.022549101040981706, -0.05049997279492829, 0.012068050637004798, 0.04735179552055689, -0.0033159083799470354, -0.0845479431613183, 0.047740947354709476, -0.11239410849667997, -0.01809504876792243, 0.06085247537932359, -0.008290153065211416, -0.027398202748891445, -0.10150284137623371, -0.012747467797781112, -0.006277087666814022, -0.07497573557140408, 0.0396263943222989, 0.023718169992962286, 0.014065780944017447, -0.004163827914065098, -0.09507400424687537, -0.030465040126590105, 0.1087335020788241, 0.024343061299003942, -0.07585790763737904, 0.08874269820431793, 0.051436626486406, -0.009172709626413741, 0.056909529618616984, 0.07816631698058345, -0.0122832631920048, 0.033527429593002346, -0.008607357699842857, -0.0312471008823475, 0.012841100529586112, 0.027126820696696433, -0.0030939634492740077, -0.15139747634593784, -0.0411688106037716, -0.03774793818751651], [-0.17302830834002325, -0.04864598226501586, -0.12412993924245838, -0.031336627949325964, -0.018114700027795628, -0.06691114937418577, 0.002725223720775302, 0.015856377035448975, 0.07492859590330064, 0.06200066401949803, 0.010100636789594495, 0.05990381291706086, -0.06659077660259843, 0.010186378817399585, 0.11591173139102406, -0.13409564794969672, 0.00379320003627312, 0.1290710094793624, -0.04440144741410175, -0.041840752296855604, -0.07207220655047213, -0.13190359286917927, -0.1000801095561137, -0.03120866460411994, 0.007524589941270402, -0.10336466463406066, 0.06509608713930241, -0.027162413864503007, -0.1045829051967394, -0.04725781642115376, -0.05487106669736177, -0.09111775390615492, -0.07669324524307759, 0.014611350559699848, 0.007050892504788434, -0.034604486197696564, -0.022302895712067883, -0.06587291682461956, 0.025731596924951194, 0.024552482829680308, -0.01018588985148175, -0.1031684029113694, -0.000999689648816631, -0.04885284884363393, 0.008349223688233706, -0.17841986303121152, 0.03280210814981801, 0.049989249330197286, -0.09261265385976954, -0.11827194793956004, -0.027384548481362084, -0.016901373700511403, 0.044457393188007774, -0.020977629050234085, -0.08899925421024074, -0.027171606805764303, 0.03203555173087567, 0.0902186610080597, -0.054256993905240136, -0.08543461288307468, 0.027947158470099463, -0.06160154332485219, -0.0418809477934703, -0.10173334657560808, -0.06175442108724816, 0.030749035510047585, -0.06563337105983245, -0.08892659002329395, -0.14258339185084648, -0.03624935230156228, -0.09730226915438712, 0.04427029511451677, -0.018148334595895557, -0.05817699799970867, 0.026426924382077683, 0.10499861779854165, 0.025970610061032434, 0.007620376236587356, -0.06596594096196827, 0.0697504543794834, -0.01248630190357258, -0.1002899114230994, 0.08750032940575518, -0.10903960851339763, -0.024895722611985853, -0.04101852447164895, -0.15891945943771577, 0.08921758346733016, -0.009366655083028825, -0.03361674772449715, 0.0704533459001741, -0.0027564581179727325, -0.05735559892925299, -0.08548048309303531, 0.013669209674835404, -0.09043217828457711, 0.040748133758636035, -0.010213034494626745, -0.12733947864063583, 0.04538357741088322, -0.05530372118338046, 0.060609475757900814, 0.12058071707575742, 0.06547780511611459, 0.042999950327608255, -0.04693702836394706, -0.0826862857089728, -0.08597394460868009, -0.000615551091123173, -0.04710911043613481, 0.06649720547754516, 0.03358928187789959, -0.034611578402771986, 0.15606484108872049, -0.03650481368694154, -0.08164593810344938, -0.1058027171821393, 0.001711715506555232, -0.12929383141747353, 0.0815046917500164, 0.02688864363542858, 0.014864536518235058, 0.0656422385068971, -0.02346152297069555, -0.13866302295032912, -0.07302472354529624, -0.08663203630059221, -0.05287762199154901], [-0.0157733898193741, 0.011486926163865712, -0.13542764043047223, -0.1023367611291838, 0.06295827426283637, -0.004012741000432238, 0.06074741109991192, -0.04416879543044693, -0.06434385030622329, 0.024860066680949266, -0.05081268165969904, 0.031661188124294325, 0.06009972772399677, 0.03845351049288036, 0.09117208081071941, -0.10047036853643702, -0.06874238721184618, -0.003947244654466885, 0.07377519418229975, -0.00892552289425837, -0.062519969641765, -0.01550281525250704, -0.042917927953347174, -0.03958372722376114, -0.10966033592954137, -0.04629315492035477, 0.00019235675241437118, -0.07935935515763291, -0.02189780010425765, 0.0379074602502736, -0.1182808419562095, -0.11731910192052897, -0.027099605836895784, -0.12811077290806494, -0.09382550619423123, 0.026928435671108794, -0.09482445954178877, 0.016990261355516997, 0.03868618206054127, -0.0308696803923074, -0.09229044296404926, -0.1278900490719195, -0.03139894405833454, 0.04870516699848789, 0.010145910252432421, -0.14957818376959914, -0.015964363383808657, -0.12010955715591569, -0.11383398267225406, -0.004263160487699121, -0.0024278964104874072, -0.057762352548743866, -0.1305194639785221, -0.012796528689205137, 0.028969200378956183, -0.07311635978017135, -0.0976609026482959, 0.07074917276221046, 0.08201820305506606, 0.07076680973546351, 0.03154693676282925, 0.05445814785214555, 0.03330291728756949, 0.027155809520446092, 0.012204768612451624, -0.09803127146316168, -0.009224621773064438, 0.03737229274318765, -0.09007171354659803, -0.05934410965844981, -0.06678688253302181, -0.070164274050083, -0.04004622365625268, 0.04783898036459785, -0.004054390321105572, 0.05781616663058452, -0.0836586766912426, -0.03723981502241326, -0.029739452455647235, 0.09578705145377815, -0.08849869957219446, 0.06278468212015319, -0.025544304786194925, 0.021795267226222225, 0.03339902596094757, -0.01879844755470611, -0.12918649793181847, 0.05522299246195105, 0.08442041726534497, 0.03236173517451944, 0.06106630180471235, -0.030260244984615298, -0.013831847656088884, -0.07582157304685627, 0.025098749521331946, 0.031056660413549573, 0.0120515368992945, -0.005249295601503052, 0.05289760882145875, -0.06894555908606832, -0.11087965175919971, 0.0730615288317643, 0.08908973144760532, -0.029192528269567745, 0.14195174563338053, 0.04311973286326966, -0.06294336840798422, 0.023389126874609697, 0.03467504405428781, -0.043334414631443684, -0.008373115775062353, 0.0896784594349202, -0.05201795234266471, 0.11986387114633118, -0.0265460009922595, 0.04192798856456206, -0.031534033595180685, -0.07476290257619508, -0.0966051300414584, -0.06987510959853212, -0.10684885141859565, -0.02373183332874759, -0.07129098759822354, -0.017584664541653788, -0.0016212846235055397, -0.020619508444108592, 0.05379673743330301, -0.07617857575828844], [-0.08672029306290258, 0.058485150124179486, 0.04503366626527586, -0.005434805747158304, 0.03351875934018336, 0.045050902743981235, 0.013187416552999999, -0.10667029826450099, -0.05196676659008481, 0.1057319369927588, 0.002163623095030507, -0.06892207209796629, 0.019751584403581452, 0.047192818308035976, 0.05878741869958754, -0.15783312534801655, 0.11167697691799118, -0.027091137835008574, 0.006156520711297094, 0.024894566327548818, -0.022104445965659893, 0.010257882414182936, -0.04906181942378453, 0.01931263981850431, -0.0063667749277316645, 0.026897804507961327, -0.11205133684165106, -0.13948546241144055, -0.1058161242617768, 0.02099515455545035, 0.004920505240350852, -0.09383782596318108, 0.020882730339732977, -0.11061917722626147, 0.034314776947762964, 0.028331684604467812, -0.07727290998391348, -0.04898837040262278, -0.07333183825012873, -0.11991586527932085, -0.10296478699576427, 0.03646257829849491, -0.13295508073769335, 0.034316733979974964, 0.11797079038697743, -0.044178692846341266, 0.011191765207256569, 0.0820970157884452, 0.009512903505513998, 0.047256664791654315, -0.07505616673213764, 0.02666504480226193, 0.015394084283527208, 0.08079384859000985, -0.04372229461184982, -0.0743202591410056, 0.0013263287188846353, -0.07287232028202487, -0.09244541415289044, 0.0014320227735752189, 0.020231481063977624, -0.008695197954289798, 0.00031960374949102253, -0.08400258695951049, -0.11333442415436021, -0.13566830979559177, -0.10171388971238984, -0.12166346568671138, 0.04209415351972983, -0.12230366406112202, -0.14182288590592035, 0.009851560381228738, 0.08304507664810078, -0.03775232238301339, 0.031501412636592056, -0.010883471962781374, -0.14257873941692695, 0.04276851435090227, 0.01207207661433992, -0.07915921145511454, 0.009012915048742999, -0.02244060438549628, -0.11701957745862898, -0.060721858018541706, -0.07609738405911304, -0.06314169464375291, -0.06956629738670306, 0.1384571660743629, 0.08718155585632668, 0.053949221775222676, -0.06266780731431897, 0.035245629984766796, -0.0935550176465419, -0.09115353792719061, 0.03168362070646828, -0.10773443068073575, -0.044118225453744046, 0.01875980897519506, -0.15307409222708424, -0.06180993363692344, -0.11116244674480295, -0.052927003087760965, 0.07834977905926944, 0.12224122396373531, -0.03606625141535093, -0.06849266477698081, 0.005758847475613662, -0.02599065230842842, -0.0999436186298299, -0.010802793443540255, -0.013717382590420032, 0.060152509363723204, 0.046476585817416934, -0.04282771910273673, -0.006257782862487148, 0.13353569415626249, -0.1264391359538168, -0.05747746071841929, -0.006151739108799761, -0.036811000444580584, -0.10274065450345019, -0.007628953073915918, -0.030788017820888407, -0.14758998192817577, -0.07114939404556062, 0.002391329465677322, -0.1371330070622041, -0.030624372368029548], [-0.10601775476631917, -0.09018578421015994, -0.016417763169725635, -0.02763082900319244, -0.08722530833742595, -0.011894767645709573, 0.06886706556868874, -0.05976933406040842, 0.10402277576815101, -0.005454249012900562, 0.045748514388621604, -0.07503069350815739, 0.05178433917169762, -0.024731563219238896, 0.036576452084807, 0.01860975540204741, 0.0701187801405061, -0.010853722678819455, 0.05246669433282542, 0.046444790870692046, -0.06415274475143622, -0.06323506436459969, -0.0824242945795445, -0.04204370906973544, 0.024802854759985938, -0.1036467366681803, 0.025342855020785253, -0.06640073707368456, 0.021862256714899584, -0.1372737901772766, -0.049721044808120604, 0.031572965112452604, -0.0852205911701067, -0.12691943130284059, -0.10516898174601544, -0.04273803172221689, -0.07814708094039335, 0.06532145670183914, 0.004155034515186252, -0.016586475182356793, -0.09991352280838584, -0.03240545189703615, -0.12473742763413821, -0.04122415847730788, -0.06544393801578513, -0.01064980934376244, 0.03886664232515142, -0.07187494521562293, -0.11817843337201947, 0.009543210438046292, -0.08837647349284668, 0.009043876530193158, 0.030695670765604744, -0.033498417661866786, -0.10435030715680697, 0.05320029348284789, 0.04684283220597702, -0.02206314373860226, -0.012135611637333302, 0.026308956427574765, 0.07532119770855769, -0.04080180361876233, -0.02156223128710121, -0.03411986628592513, -0.018133292684263717, -0.05177527480129085, -0.06280926086039439, -0.05137469504126963, -0.0447665771900522, -0.08356718943063408, -0.0038225589405169566, 0.06504708895960805, 0.10508860014666968, -0.02533776281192633, -0.024575587303316188, -0.03993668101549313, -0.025696896256392102, -0.12417531113805716, -0.011022585494829512, 0.03657629158456003, 0.10066343981788047, -0.057780021363336424, -0.023223502547776574, -0.0927780110957266, -0.06218943196863016, 0.04250710291524261, -0.06549533083963478, 0.12224243092643185, 0.023315358907351397, -0.05854756645615818, -0.03026697551357544, 0.0981178985204014, -0.02649715158221855, -0.02872417875297164, -0.01511202162180861, 0.08601664909370628, 0.06388888056667674, 0.09830297949849141, -0.05194984859698855, -0.06749531462884997, -0.09302178590524889, -0.07706290878009381, 0.003401988977706127, -0.02309286210673393, 0.041401256333280526, 0.015976124325090865, -0.06157607012964388, -0.012856918329362706, -0.12261295206230774, 7.376258818728603e-05, 0.03860068118410621, 0.02582565539788016, 0.04692507460839784, -0.010174720259713001, 0.020670597761820775, 0.09252362461200914, -0.04299164420107914, -0.07677082605780959, 0.05277029118082694, 0.060593017956213524, 0.012813519685757667, 0.061654312821846545, -0.051981320488828676, 0.027497041591163954, 0.0364616943676786, 0.06901694744846026, -0.03740459577521115, -0.04582803334149656], [0.03653196258214124, -0.005927050342975087, -0.0288206496045472, -0.07733121957320957, 0.0298508216620862, -0.04883400811985721, -0.0034223673392429813, 0.04988749776300554, 0.007250203252721086, -0.06947264146067117, 0.06249712921612819, -0.04201718033769646, -0.018248459022997512, -0.02474810526516341, 0.055856850149350316, -0.12634621179334798, 0.055643646610067266, -0.05437817901916595, -0.12887183361049367, -0.07619213858356981, 0.004685856855816895, 0.008471319693784205, -0.02823742928646888, -0.07048894945097331, -0.004543008964656092, -0.04873320063001672, 0.03062322561057923, -0.1135195516182941, 0.053122895115230384, -0.07222010742214277, 0.032821113339593144, 0.0809203389545321, -0.11887551861784744, -0.04942995104555403, -0.05659727906648723, 0.046772160879996354, -0.1195462693592825, -0.07923195814057894, -0.047724987168289296, -0.0006093238440589819, -0.02498362374190504, -0.02755378436334407, -0.10439307765780625, -0.05183622240863243, 0.10372729173934526, -0.1090009316026803, 0.041946515131486416, -0.07235784233943551, 0.019434651248223845, -0.018387722249281743, 0.07952530689552377, 0.04739492840162427, -0.10672907529874874, 0.08795962717869793, -0.049468035852392726, -0.042544703864120334, -0.03714975075431973, 0.07410644647941024, -0.01974186737061179, -0.12275792734808344, -0.08760556827157735, 0.04287741509999064, 0.04872623064208049, -0.02803216106544233, 0.04443869885775527, -0.11421729445789856, -0.04221301919514817, 0.04105241679475478, -0.006769322943329239, -0.06390176837328834, 0.006302132564295167, 0.06171389770879744, -0.07023032358225753, 0.04534896282617469, -0.015276488905906807, 0.0389492637539856, 0.041966661525925805, 0.0075419526958456955, -0.11766694387844755, -0.06419315496782846, 0.0737726267883704, 0.03754145237744422, 0.035463645127334936, -0.07080828212540384, 0.013010907543578318, -0.05507429001776166, 0.028642568670088325, -0.004493170272588813, 0.06478439077254175, 0.0916145067979884, -0.04721124592528089, -0.05031521831049414, -0.10769819419404567, -0.022356710429256157, -0.07302636774948944, -0.025738489720841473, -0.07306670923427411, 0.0821421313264657, 0.003256886302488919, 0.004287497784033674, -0.10562870373619691, -0.04099242337203299, 0.027527347262080757, 0.06383569089658783, -0.0615166183458148, 0.0026932723608191333, -0.11402190196999705, -0.09935422863385043, -0.10759259649088712, 0.011770038126586927, -0.03477277923123485, -0.030709432588767502, 0.059475335407892016, 0.019108499907470357, -0.022022764286925005, 0.05674731173228492, -0.10643133035164855, -0.07656086023862337, -0.03057460703650854, 0.09718455373450374, -0.022449595376908233, 0.004297035564470656, 0.07184061850604857, -0.036551657852016535, 0.07228019081158533, -0.05961480902963586, 0.000818610704717778, -0.07525937096704398], [0.002491266917949049, -0.07270589451546658, 0.08321341384539599, -0.1059225846135755, -0.06465993284881243, 0.03767747622238249, -0.01776674179815087, 0.054154583181506497, 0.0658448374884812, 0.005106766052560755, 0.06048128744050465, -0.10569466194309637, -0.08730551426836368, -0.025621665289368614, 0.02816218804445959, -0.07213881933210128, 0.08864638658151419, -0.009961022122170593, -0.029344228686875733, -0.025403500624561252, -0.1133875121486066, 0.043744712103555974, 0.032180818700083866, 0.005629721717802955, -0.008999863727430751, -0.0661762909262009, -0.05997653400388207, 0.06145379477389585, -0.10382960335167249, 0.043061925746266445, -0.04429265158793856, -0.006869242647886232, -0.08057322394027061, -0.09532771636320368, 0.03457100973469283, -0.06108003401015479, 0.0502944727659651, 0.03548864646940438, -0.04222101559515309, -0.08756603182186774, 0.08030228405566353, -0.10771918432784781, 0.023118819294416525, -0.0933762212626307, -0.014329144744914996, 0.027424934409274144, -0.05505829743010017, 0.08781658601090331, -0.08919065865939792, 0.006439944655340102, -0.018066664193750605, -0.09529112281588267, -0.014579706733748771, -0.05329549128781452, -0.07241305786695196, 0.015226774922905941, -0.013379745064124031, 0.06421070501324272, 0.035985643556073255, 0.03387082956500474, -0.05094874076671367, 0.0010299967586261728, 0.017029742566380814, 0.018042456487425404, 0.02738677282154042, -0.06686441815960292, 0.0444899683520347, -0.0618421408698142, 0.0015806811045821002, -0.026703828781393654, -0.01990787970845684, -0.05177956357319144, 0.08106489169788231, -0.09048783074081741, 0.07794351711587437, -0.1086549907933684, 0.052258506595525174, -0.020148105927470655, -0.06573663928215352, -0.08795834473794842, -0.03689640952877047, -0.004885266574836094, -0.05791690579295936, -0.04060138969463958, 0.030059757982423527, 0.06596707619433023, -0.09240609976047169, -0.05030858664942545, 0.06430062109370595, 0.0964843764818461, 0.11505436365304753, 0.0018003467547420939, 0.048420913454281386, -0.11110511576666811, -0.01697128669491803, -0.08788241640868596, -0.09106585015004597, -0.024679622811991708, 0.027427287724446674, -0.09958308454071425, -0.07653117001242617, -0.12233224077428523, 0.09846341630372338, 0.026065137753942133, 0.08116472659679434, -0.005499369603304336, 0.047056637392380876, -0.06818577530805797, -0.028443957085572402, -0.08019866573682626, -0.04149808330791978, -0.050337829056515376, -0.03735723298962645, 0.06059095428104897, 0.049878474067381155, -0.06682874200570255, -0.105934139918019, -0.07604454669731682, -0.010560651266470315, 0.05991657412377407, -0.028252412824908403, 0.04845208910066038, 0.018830778476865748, -0.059114079253737094, -0.03810814524399765, 0.05428315137896117, 0.05173893418714116, -0.08957698007762033], [0.0012148369814648447, 0.023857550636040448, -0.05260032113979072, 0.040278708422084496, -0.09043785963256169, -0.04167010149169242, 0.008935855943771524, 0.052278873249560084, 0.06469501824238881, -0.013401342597048048, 0.0902342823054451, -0.06029084831287687, 0.028846973399847767, -0.0888770007200665, 0.07459210437363226, -0.009194084885551864, 0.011769681892934432, 0.09872789710907846, -0.11179528269264696, -0.09099521558530979, -0.090981340704447, -0.08648271660098164, -0.08434422443607086, -0.025680930481093288, -0.005194030908405892, 0.030074616172788678, -0.024141932986626584, 0.023372127904152887, -0.06329949067848264, 0.05192330360764307, -0.07464631489165964, 0.022197355696694943, -0.06624858581883525, 0.033520730683757896, 0.011277379540741131, -0.068004782657154, 0.05258515562881182, 0.09802901419567235, 0.015118051640796973, -0.060164455800310206, -0.05494724124186797, 0.0017729785665312595, -0.07818421598186498, -0.09388076054491684, 0.07817716458052772, -0.07980844813050234, -0.04951853212025223, 0.04240072925111725, -0.09283752545262276, 0.056973943266751446, 0.03143978348440123, 0.04622649232566496, -0.09998252637664992, 0.03928110881672857, -0.0025107993315453686, -0.08012396315650466, 0.07082303165343717, 0.0971450702678504, 0.05292548500681086, 0.050333603154745596, -0.013444894559453292, -0.07081330224356903, -0.09521788282974537, -0.10508091396725379, -0.0856691163404454, 0.06727008508113436, -0.08726673238389215, -0.028009862875592442, -0.040590903791970646, 0.07201295107018885, -0.07643486038036312, 0.041134856836194146, 0.06144092633938552, 0.03971866051645113, -0.01986824918260476, -0.06772411315506648, -0.01789994697249362, -0.04040651191811974, -0.08232809781644272, 0.04118219747018961, -0.02646951193412681, 0.02370350617903963, -0.13312118376287937, -0.04122493568915683, -0.06175864272060471, 0.0357476018006313, 0.0264970109978394, 0.0728313925128749, 0.09063688742695739, -0.017708178440592526, 0.10794298961954496, 0.08345693104448974, -0.05688427699050785, 0.07046770784264429, -0.012637221843120506, -0.034749999348350116, -0.1039160235819602, 0.008338548938132578, -0.12224832634378585, -0.035231865754782085, -0.10828118948474555, -0.10060014457180622, 0.11005238797820241, 0.04719473331276472, 0.10268013382067197, 0.07526839125274723, -0.07249382695818844, -0.050088057414002296, -0.06574652040635445, -0.08379158763382144, -0.03579153693079704, -0.011277169329895082, 0.056621373956270094, -0.055917605044178136, -0.06732731928946202, 0.10989449129275915, -0.08259372589066788, -0.0015476620877986425, 0.008542313045872805, 0.012296639077052572, 0.057084216463809276, -0.03439359603062481, -0.023719776368579772, -0.08002063963851967, 0.025661633815508556, 0.0442880899259807, -0.03319493553184439, 0.03063505383829352], [0.02902802954546952, 0.02510833458613679, 0.051356653027171545, -0.0770221682574403, 0.08304604297173443, -0.07850110435389898, -0.04371818403593132, 0.009176243169126942, 0.10078700010971639, -0.03822751169880889, -0.011744596576720412, -0.07243852735108282, 0.04316617349115693, 0.01593903017276957, -0.011004510629373578, 0.09661587976726459, 0.010769068222785422, 0.04982571408906468, -0.053364917507884524, -0.03007846831406603, 0.06455701267902232, -0.06636464091387982, -0.06021711240575259, 0.058927945060575325, -0.039958110880752816, -0.02934037473407896, 0.021264279553482823, 0.052581550105662275, -0.021100546193701095, -0.0849676079721843, -0.05913958278646168, -0.019236967388291577, 0.07586188444484832, -0.0679997579744152, 0.0741077872936743, 0.056624275816628517, 0.04310404511835021, -0.03577509071128137, 0.021674693599516834, -0.006648239583797783, -0.03413272623354233, 0.08059034814251298, -0.02988257618578887, 0.06271753557607418, 0.02927189782917012, 0.07649629118632245, -0.057696021870359396, 0.06311134734904443, 0.08242327483175442, 0.05001052795845866, -0.10320009553249913, 0.07636673941496859, -0.05580392405053003, -0.03400592148684231, 0.07101442473806169, -0.026563798392485877, 0.03225397063944951, 0.05303686545385808, 0.011958902394662269, -0.059652659674541135, -0.012085489197916128, -0.01871080337585446, -0.035365655501424884, 0.061937590488481555, -0.06127808932694959, 0.022784943434378153, 0.08282824809413213, 0.08079306550533576, -0.04989556434438824, -0.048875594386535354, -0.054002857505098534, 0.05008341143283696, 0.012604535029002396, 0.09168379597402744, 0.06050001352108051, 0.06084722078469102, -0.05511338244672866, 0.014095999138413334, 0.07539347558480508, -0.06976949125797645, 0.08148347094850111, -0.004059135312775817, 0.05591413954134352, 0.09794492027044523, -0.06080859051064002, 0.01910199270477305, 0.09246922692145072, -0.07041472485311069, 0.0895028484535326, 0.0424939042058658, 0.05500924900370732, 0.02330665246106357, -0.008301130414084416, 0.05376068879518958, -0.007934800352046285, -0.04938677330732733, -0.06243155008376478, 0.06845070635578979, -0.06116215913434572, 0.01751775835695821, 0.004894181778681774, -0.07649485349311656, 0.0632164066742055, -0.09371333944374168, 0.05480012209972062, 0.03285763086928138, 0.04457722518635222, 0.030264731996139, 0.08141421314799567, -0.10377632837279363, -0.10645458347944797, -0.018437180890148383, 0.02673590043503881, 0.01379446451022147, -0.021495712628620656, -0.008806736390005895, 0.026360220019140717, 0.014415449788346978, 0.005454224334409898, 0.09135445719086019, 0.038426384405448204, 0.048407261589349826, 0.05939102327414886, -0.09224599726524227, 0.01699255132869046, -0.08762478770022496, -0.06026120871706566, 0.06301045307776755], [-0.08437275506704481, 0.060483823831287725, 0.02087035708440881, -0.09051881976845129, 0.05887974826131004, -0.03687458570596146, -0.09112869938889157, -0.07793655462209204, 0.037517139521946845, -0.06340181360308728, 0.04928068546122308, 0.0849476463736586, -0.07557120326097684, 0.09731714791468453, -0.007585763431738364, 0.030979533900801447, -0.06385771428608283, 0.06526975406751379, -0.021596084787768064, -0.0001444002090859764, -0.07571092630292438, -0.017715164612518937, -0.020275264160571037, 0.04572882305274654, -0.0558684110480427, 0.037540213708984055, -0.08696348467371429, 0.0804837107122148, 0.055046423405451676, 0.013924950495698418, 0.09437369707470278, -0.04636434569127491, 0.0971764035300129, 0.05938942804440633, -0.09432424840015859, -0.021319945082477264, 0.0033915302098659335, -0.028396060801439846, 0.052182281158773165, 0.06615304756337065, 0.04457459227224881, -0.07115952726082493, 0.08546385661933587, 0.058810924637778164, 0.07155386330649267, 0.08242173808062417, -0.0606180076743632, 0.058162727446524655, 0.10003022975808061, -0.06785776286627752, -0.039390859586519125, 0.09521041254692168, -0.030740974411704834, -0.024418835112287905, -0.08965426690080176, 0.03333615612064009, 0.03814258461643945, -0.09266741299034803, 0.08319135047887068, -0.06494123862028768, -0.049070424691145184, -0.056508897864284424, -0.05693315237013948, -0.06048708238191769, -0.09262121169773474, -0.008405230956822886, -0.05961943083663952, 0.04447349827442159, -0.06928660683353419, -0.08669103808743726, 0.06128771816274486, 0.0401341308508571, -0.007745950123886144, 0.08441142521787294, -0.07820344384143507, 0.07586699726984507, 0.0765855140122912, -0.012600270833568369, -0.011708259311380267, -0.04602232392754436, 0.09999654035976216, -0.05798142797861906, -0.021406453892063165, 0.08619444717602341, -0.04290276756622902, 0.0374692410244634, -0.004561194935070279, 0.027930270861334164, 0.01652848422474615, -0.09307943031677605, -0.006316710888492373, 0.09378592942772226, -0.09127343782489561, 0.0034357021724246853, 0.013379039822727146, 0.043027790930240416, 0.09890075241609071, 0.036268933912202775, -0.039031304315484294, 0.04318868610787111, -0.08448494445683814, -0.010349818619070696, -0.017902239304174967, 0.07512685598513738, 0.04887670272487725, 0.0008104573714949442, 0.05078744991820254, 0.015060662608678306, -0.05898836129821047, 0.025745377078040775, 0.02627932042747354, -0.07749678222188809, 0.08915296820515012, 0.06913345807231443, -0.008009528039872094, -0.012099125047838827, 0.05984872910149744, -0.027589325741584105, 0.02456162494213038, -0.07833725221886456, -0.08519407808530595, 0.0012194327493690953, 0.06218560636922735, -0.05754179392023787, 0.003405569349810911, -0.054979309007951956, -0.048748850778685106, -0.05120252439833409], [0.02810988644752868, -0.06919488243756883, 0.03011911435809725, 0.08664986366786995, 0.03812325012018605, -0.055583516126047776, 0.0784563167578681, -0.027757022376190002, -0.0864603454496816, -0.004477983417987802, -0.0559417132886495, 0.04048554689930012, 0.026537397852399308, -0.06883323180480123, -0.09891576310271986, 0.06867555178246323, -0.030134499115833283, 0.06502364847569414, 0.04498319132038023, 0.03631577036215253, -0.09105663711716938, 0.007068615775914638, 0.0385199736389481, 0.05399350104280479, 0.049952427208232286, 0.08502109360535826, -0.05109265107482457, 0.008164080734308937, -0.09965371212502408, 0.061384634829074, 0.013471116014343809, 0.07433624129568761, 0.06777968128049819, 0.019658937479783825, 0.028582206456119308, -0.009831134624446444, -0.09338490726201615, 0.0410688041473013, 0.023854159903188593, -0.011638112380207039, 0.06468013660449021, 0.05762160384339657, 0.006597345477061298, -0.010516562299054774, -0.06310208425778958, 0.08962881333904565, 0.07472299386405448, 0.06153691590317781, -0.08946539368438805, -0.04542240055922051, -0.0728099092961837, 0.04371922507305695, -0.04914897911890719, -0.09411829730217923, -0.047186442659848574, 0.05371296536105816, -0.028396412605840388, 0.04228480312487437, -0.014332853975401932, -0.08814781458176602, -0.08281215802149122, 0.08135749697943881, 0.09610307501748244, -0.06966744665724456, -0.09945682884282799, 0.06282746428625757, 0.024115703661616236, -0.07270298991150137, -0.046523339882810016, 0.04382269371694433, -0.07156866901082187, -0.054889173912045224, 0.05361889731409211, -0.0554359225829169, 0.08909964547733884, -0.07851324797884418, -0.07331671007273644, -0.09244140133386146, 0.0185162339167962, 0.0027469994391474684, 0.050593143449278205, -0.03747860573885835, -0.06757410241994746, 0.060532591447038014, 0.06696110720899914, 0.05174873915745004, -0.07493784806203074, 0.04420287482963142, -0.05915893053098867, 0.0755049590353567, 0.06718884020436461, 0.08090570871891534, -0.09808809058982744, 0.06114185309683223, 0.03626325742300124, 0.046560272537856995, -0.09914163963973195, 0.039641170660253106, 0.0832478548720601, 0.019669836424642193, 0.07434911646002423, -0.027772163519823242, 0.053828014785890194, -0.02298297858835127, -0.09666280595255977, -0.03990902039515403, -0.0016098979121423884, -0.06721132612208744, -0.025799418553429515, -0.08963482307424014, 0.09141605848549489, -0.01835819143398984, -0.0981083491372212, 0.09969844444527398, 0.024294179601571736, 0.01838975462879114, 0.04285229876624322, 0.04467110838497307, 0.07193807399715221, 0.08864431065890363, -0.0031796430933998393, 0.04198908711647786, -0.015324258767077298, -0.04729811188869009, 0.01928715679464195, 0.001781863620276658, -0.040296120849010776, 0.054038966778267], [-0.0242702248369732, -0.08912326534247142, 0.06839233675103455, -0.04963059491139851, -0.07711707611958149, -0.020113219940543173, -0.0013674848883751167, -0.06622575422264264, -0.02413674928364507, 0.07689820116908105, 0.04250717221317313, -0.055999742057940435, -0.01603421419156815, 0.024812833374853627, -0.03838528286343837, -0.05516178353036598, -0.06757762175902837, 0.03908214842753894, 0.06641985477708363, -0.014029607124924627, 0.011957708924348684, -0.09713065328133239, 0.05236129766575861, -0.09393164531461615, 0.08907046962939803, 0.0008936614610537942, 0.052907261652860915, 0.029976466388679884, 0.021949052254776853, 0.11481128243548416, 0.013619742116002963, -0.043792393450011874, 0.09891417575846372, 0.08798793875618728, -0.061697955118920275, -0.018438191637718784, 0.045117157607660115, -0.022584548447275397, -0.023417056021951307, -0.030162016966772124, 0.04817993124854584, -0.00798396027976005, -0.0868424682286913, 0.11915935995792168, -0.008116699194679052, 0.07887350243750758, -0.06833719854632994, -0.00912325488155689, -0.04451418141074798, 0.003973130100081658, 0.009069966339789163, 0.00860389974255218, -0.03527651364129803, 0.08268454639664069, -0.018041452211792337, 0.018158454726233942, 0.09527861355774554, -0.02945429895814098, 0.09931072400380361, 0.06770710633603919, 0.07008335194472795, 0.005814509095750881, -0.08991175472319302, 0.012538048062179955, 0.1024189249798432, 0.0685511076539067, -0.009010376888870275, 0.02228605998148882, -0.08050689936763333, 0.013621012441418149, -0.013157335380372318, -0.04510776311617736, 0.08681722086006285, 0.06711815808640968, 0.10222800678879716, 0.037337085790372385, -0.028163939884576675, -0.0715337985918031, 0.0999706236741548, 0.02288733728133001, 0.023653311614193085, 0.07049035052381096, 0.04577002185782037, -0.015664431891325218, 0.015282945370334141, -0.024184317160638093, 0.04256071717943344, -0.014469089660034126, 0.0624004479656751, 0.05421565224118952, -0.11118354582339646, 0.10997358201262211, -0.06502762850319833, 0.11242993831499835, -0.08026621899145266, -0.011013383221051243, -0.040432308834601006, -0.04950648659982028, -0.03441296846749178, 0.043904424600515204, -0.06995120167786431, -0.02096919187765035, -0.060725109478937375, 0.03253314378074653, 0.06734047287603052, -0.035146659529852006, 0.002883834197250737, 0.0064348878008589246, 0.08042298473508333, -0.08629412990014627, 0.06979856003886149, -0.007104896758833089, 0.06012113707693066, -0.04780361152488526, -0.012981102182568682, 0.03478442837588976, -0.04216605841559562, -0.02993159170987639, 0.0769167664497996, -0.10337887946578053, 0.039352493803937114, 0.04090646996163627, -0.0012672487602577195, -0.008041020345518634, 0.020989929970887253, 0.04178102864756252, 0.018241090763026598, 0.05086593504957432], [0.06354124307493186, 0.06252480836087679, -0.07918423140992678, 0.04581504936489346, -0.022615331220435547, -0.03286371464237054, 0.060940181805494466, 0.0263614167721735, 0.09417151269233967, 0.09922472161325081, -0.001153704030885486, 0.09793644280261152, 0.08968563827240061, -0.025915567465398668, -0.062004624029394884, 0.06216626593815905, -0.04036658901411581, -0.04834535388335631, 0.07978184592983024, 0.04935414337454733, 0.0024164904794737024, -0.03442661617772937, -0.03663886386847978, -0.07834968667374964, 0.09075432288650802, 0.0718518333148203, -0.040535577284710717, 0.01033916186959272, 0.09737418475537371, 0.020011942718999743, 0.03997827931059363, -0.03294648325923483, 0.03496125051729841, -0.09542606055092129, -0.08089792311074234, 0.08485979409543662, 0.08040298470120587, -0.07750382159582557, -0.040432679653875925, 0.015027120361458023, 0.04654203371768335, -0.007792388658778806, 0.014988974139551612, 0.02938965120052337, -0.12640200376877442, 0.1190536684850619, 0.09963126696022663, 0.018999647541520188, 0.06220297576569191, -0.05387125814158199, -0.08449253747086963, -0.05969997720136444, -0.057027522165323204, -0.010767359379131656, -0.09316521226260888, 0.036746825838480345, -0.06277217717067649, 0.07568893317906389, -0.006715332627110857, -0.03522867766163214, 0.032295701650450516, -0.06470294735724845, 0.04137319172011121, 0.09207510123722673, -0.07552610040430713, 0.004601051293955556, -0.017586538159658188, -0.027346136525888697, -0.03778821013722031, 0.014662061427279743, -0.03418880985732828, 0.07565176966277128, -0.01748761060053449, 0.06479083947951417, 0.029199551936578975, -0.03502016031090884, -0.03661998225770993, 0.05729911402942784, -0.05318234697583602, -0.012147206782626275, -0.037331247852408045, 0.10781108902842416, 0.09301001501955287, -0.0006866565778851457, -0.04571266596596456, 0.07237792015049227, 0.09893788755204126, -0.029221497420083405, 0.11558374532355747, -0.010235599199707037, 0.03408643947713289, 0.09707528856831274, -0.04629711520100405, -0.04756339571762791, 0.04493381479896531, -0.02243065825271786, 0.09917225819137525, -0.012924125755797447, -0.016309978041706266, -0.09911681926571364, 0.07875529920946578, 0.04215476825547414, 0.024221860027260657, 0.05708656595463457, 0.04631265349039597, -0.10986516200873842, -0.06461692167757092, 0.03185369214796622, -0.06663540357807934, -0.009229713356079389, -0.07530038225961215, 0.01957142818844953, -0.027286112121101262, 0.02183637442115576, 0.13761024661538285, 0.04072956753617798, 0.07969753627491916, -0.05701765907852835, 0.017708984515396844, 0.0035659419509412316, 0.06439427196360951, -0.05805561190668185, -0.022840384347799468, -0.005017240053277621, 0.0808965107731947, 0.053500055448088356, 0.06500181747253625, 0.05818654727158215], [-0.09851451068299077, 0.052787864653404584, 0.0034159481250802333, 0.07119754145912952, 0.08099944953648125, -0.03823360308457247, -0.08656327471327412, -0.003070219634401035, 0.00351587615651202, 0.0016126180838250083, -0.09412901410815554, 0.022047673165235718, 0.08312731008693006, 0.07362983353988974, 0.09816988924000151, 0.05803122680891966, 0.06215529305068372, 0.05736588049044327, 0.013286467130714023, -0.03546125017911145, 0.05818753468616624, -0.005645395336000258, 0.06257715135544531, 0.004499712941314776, -0.04149402226769137, 0.014573257917383987, 0.0627889170731208, -0.03419191011324351, -0.05919744431281999, -0.07817420264021918, -0.11098326639418585, 0.08016364157117527, -0.05139521162840287, -0.04205824269208468, 0.04247793749070452, 0.04659989416818954, -0.03526204703123477, 0.036444219286677945, 0.04145970245911789, 0.034971290994441365, -0.08678208021288984, -0.06795766101456739, -0.025124630544010672, 0.028027375927382227, -0.03194082136873089, -0.04613028233414463, -0.026865868333734815, 0.09733529379975533, 0.07876526954546388, -0.014879448476343862, -0.10410920668246511, 0.03434147234213313, -0.041044604439398634, 0.01838841956458964, -0.04594388238178558, 0.05356190243636256, 0.039342366085591274, -0.031192095790996154, -0.05993913917883874, -0.03894034047567694, -0.06799211098754608, 0.08289842958187647, -0.004672715462324521, 0.003754670903165156, -0.06532683394496047, 0.0038113931586755815, -0.006848656750534517, 0.005371145254954309, -0.11317755765404312, 0.09649925902698159, 0.04525592071506925, -0.024988650590910485, 0.08104541225321417, 0.035245738038577966, -0.07518072258569336, -0.06816097238805648, -0.0018565900999669741, -0.0021707280930749317, 0.054129346438278596, 0.06289714634118543, -0.08656224492411552, -0.045148341333989775, 0.07479750413444164, 0.053460003427461295, -0.01680100194386468, 0.03667439403144838, -0.07065148345584624, -0.07236789187233424, -0.0848846638429971, -0.051084833253773915, -0.08447272203346472, -0.05902391400886672, -0.09764827071360323, -0.10623199144222274, -0.006724088159249241, -0.0690145639740049, -0.06327536946935014, 0.04500514990547405, -0.09276337042820766, 0.05812652359754556, 0.04562086812573438, 0.02999161043193304, 0.029583439843162355, 0.08362563707695411, -0.04708340967803103, -0.11591013032886362, -0.10044890472705267, -0.07460552478715929, -0.07731789370425769, 0.03826239623709804, 0.048419613974038975, -0.0496742554101346, 0.07979872568963615, -0.07032205889035668, 0.022775993125893113, -0.0781246289426432, 0.05791633898501557, -0.0917070929947736, 0.035385737364605346, -0.1035730228160734, -0.041193849250465514, 0.05741101113883168, 0.11500077307757457, -0.09552701432445794, -0.03859062454916778, 0.04511183929722168, 0.04201220212981831, -0.022918350247829518], [0.05692832906088195, -0.04112645241684124, -0.07972610901386538, 0.03164277290440191, 0.06198153260830098, -0.09073638141445309, 0.10798099406558219, 0.08067051279159912, -0.0026406041000271475, 0.02274914042019726, -0.05331446627968125, -0.06875252522933745, -0.1077070437135768, 0.04246924801866456, 0.037511432082786546, -0.025972064491478493, 0.018858653516035006, 0.018470990178126697, -0.11589781215964229, -0.06073177711464123, 0.032701940469434226, -0.09269262251327151, 0.019305383767755077, -0.04017159804960281, -0.07406194049506891, -0.06714448311779844, 0.05717799827049555, -0.04316649115653265, 0.08029051224107193, 0.038174478259196225, -0.10761290703197378, 0.06683754849055279, 0.06348102321698007, 0.0349164163628167, 0.002392024117943269, 0.13576973249965854, -0.020263293521584572, -0.1202917634029389, -0.11493539968099593, 0.005844844232726994, -0.05289401370328653, 0.09015163928476558, -0.10953171796462638, 0.07095031695385177, -0.08579028547926526, -0.08068829214204984, -0.006587922200835608, 0.10301310743568448, 0.027660001560721254, -0.015608510551186606, 0.034843695121084824, -0.12530338696535664, -0.007791810893641492, -0.005071602822819297, 0.04684750610919683, -0.08341551735696467, -0.05026767661478928, 0.013517894350658591, -0.05754068434612534, 0.02509825966963503, -0.0492928283877583, 0.05670414087336812, -0.057949100331790446, -0.03689832467247052, 0.06360244164326559, -0.11085461760773804, -0.12110837600007364, 0.08062602694105768, -0.09376287943789512, -0.041240912666469356, -0.05625595143759232, -0.11503555554408648, -0.0326316497972587, 0.036301632340323825, 0.015156349229978569, -0.03218490405532222, -0.006771162936419367, -0.090452540655589, 0.0396499742293952, -0.1289528724635389, -0.06806118354265446, -0.0038688621138157097, 0.09164753641511361, 0.06093012428002521, 0.07583059693642835, -0.07147876824517045, -0.018241670000651678, -0.051022439037291256, -0.025373646643794746, -0.05760223821169635, 0.032923552657835566, -0.06610903601859648, -0.07518317573333694, -0.08648675252408265, -0.08243320465973895, -0.11382817191669596, 0.04099639474371293, -0.01616839476984686, -0.003956418663415182, 0.0019756037530421844, -0.11898388103277985, 0.04054774653511768, -0.11644557878127704, 0.0739231930267921, 0.04242256063656852, -0.12878534580529524, -0.04372912903047917, 0.06496487357114877, -0.040629576857572146, -0.12228313468100938, 0.11445326700450983, -0.10583835449202264, 0.03440138174057127, 0.0804682710274862, 0.017827471222398313, -0.018770221063913906, 0.031176331985495666, -0.03953671188528188, 0.06136875847311395, 0.072331166814004, 0.06037029508379675, 0.04258172129944237, 0.02044668386194061, -0.047636165334482505, -0.10396393784636007, -0.06941467206219094, 0.09337189946241296, 0.03820772454104475], [0.036341646181815505, -0.03863531147520717, -0.13464249073084072, -0.03759147798601635, -0.051535746808846726, -0.09057867451538591, -0.09868994709465238, 0.06625676741974192, 0.07524046862872759, -0.059748382947673935, 0.060700888834430256, 0.22082593874144665, -0.01797236197734921, 0.06917510852089918, 0.08393560295924815, -0.08293651211600912, -0.08994377851340417, 0.15038931264822203, -0.05409658546446915, -0.019624813807768978, 0.038305813645330714, -0.10346946252611815, -0.08045918954779692, -0.10432350836062802, 0.03978041981475646, 0.01307097865037077, 0.08054934750983488, -0.04654949383415726, -0.12119189652474008, 0.04749066028138913, 0.0715577004546807, -0.13496248350089468, 0.07797146051659552, -0.09270195999821874, 0.003701498441768059, 0.15019127755140183, 0.09885859541142279, 0.0731614334727052, 0.036113547253433145, -0.1255114525948402, -0.08636959918772948, -0.021572188551536097, 0.00261482736511521, 0.08923235444100382, 0.09489808736484767, -0.00020992458874802714, -0.1755074168636432, -0.17211917287299777, 0.1028229668004282, -0.11996887132721354, -0.03882661789631087, -0.02786278186474931, -0.061120381724197766, 0.008969656134226182, -0.02832958149686732, -0.016319637834236414, -0.0159614511732368, -0.04409745681444242, 0.12022798058275413, -0.0452421669871952, 0.01998340961092648, 0.04279261029575395, 0.015006665994358912, 0.09200318300142772, -0.13081951032784878, 0.01054680501119446, 0.03745866936771605, -0.016993044288642862, -0.1192594989950519, 0.008292045416790636, -0.0968034773008642, 0.09180378432374921, -0.07079315723955533, 0.12681154906724926, -0.12447925129485995, 0.10615375540113182, -0.11048997126317034, 0.1785014154371044, 0.09044894696675632, -0.09680886393466105, 0.03439486165435192, -0.12396079066963336, 0.14581498774205842, 0.07000399051405601, -0.041049794510965375, 0.017087763786330933, 0.019779984825491384, 0.07339913586111106, 0.06975503425226388, -0.08320377145730523, 0.011937070642821493, -0.09965746248254441, -0.16335086424487671, -0.054388665654364274, -0.017070248306924298, -0.0485923870419627, 0.050331940724289516, 0.07255562130653409, 0.07523143807683398, -0.05132384397842546, -0.10510734795928683, -0.09050125019319472, -0.004060586916538883, 0.14322049907140869, -0.0013771464341690543, 0.04209869638833477, -0.07268257846657618, -0.030528079518169212, -0.04076866354441008, 0.042770562474017275, 0.06841742340699171, -0.1128553473463636, 0.08665957028251806, 0.09394331308548193, 0.07160174281059681, -0.10011459647057208, -0.023629086526857256, -0.041759221181043873, -0.08430465868576252, 0.036462026397137984, -0.04356204562273771, -0.034077601107988895, 0.07523158269264105, -0.037738830560041375, -0.11593263055820512, -0.009950738575736737, 0.017384941966994933, -0.01762215351540637], [0.02505431832771725, 0.024064849003327594, -0.14266557327707793, -0.12082189516715232, 0.11868334208964632, 0.03391060275836501, 0.08761157451496289, -0.015105417584209625, -0.07653243367688604, -0.05785272226683294, 0.032770139142394614, 0.07993038286340637, -0.10229724682281566, 0.01734220278507612, 0.09040142621287593, -0.03758854768323566, 0.017039897137452357, 0.138324147947426, -0.16369215123333272, 0.13123983295624544, -0.08839672335781097, -0.022663444611478022, -0.04000516037661686, -0.1271623206386167, -0.03394208335256043, 0.05111256938063215, -0.022619084696897065, 0.07785122799852084, -0.017360915153620354, -0.1265231599901802, 0.014544712405299419, -0.18603296410369335, 0.11746368476166563, 0.023381736269026926, 0.004675508674456378, 0.09877914645415883, 0.02792095825878793, 0.0698604620057642, -0.06850859791450001, -0.04975529198933784, -0.028362352912139156, 0.10245665933834677, 0.021418284712330486, 0.12045440438413241, -0.05752055687489199, 0.03245410941780212, -0.19556457782824624, -0.08635424700609733, -0.09814955481959559, -0.08507632472214467, -0.01158434912343899, -0.03298100526040204, -0.10425215405487079, 0.015850621060047955, -0.007662580339478102, -0.04494093821166029, 0.023878309125253103, 0.14725520401672912, 0.09044080384987123, -0.04244042517292054, -0.057645838351505344, 0.12269088049711939, -0.08628943628459661, 0.0803737493792181, -0.022530099460684624, 0.01453621609165615, -0.1251484183232549, -0.028736176726487088, -0.0708331093777629, -0.07548118086705455, 0.10184365666630435, 0.042021103456619344, -0.15667931996012305, -0.0042387040766648735, -0.05489017465182874, 0.02049080794909606, -0.05002484279847283, 0.13075386680805315, 0.18906844925446978, -0.16070956874944867, 0.028179636500795656, -0.05236908677328659, -0.027526583505896648, -0.13287230027653088, 0.05787436246098915, 0.056542974354475965, -0.05118839785539256, 0.007142420225033712, 0.11673101671857558, -0.16092108974647076, -0.021807344956468917, -0.168828575566025, -0.13039782782474013, 0.029389926254993207, 0.07365507080827931, -0.17026546930490244, -0.06787874932223954, -0.061474979874850566, 0.030880877556427596, -0.11836622347948642, -0.0013432937223583593, -0.07426440754917761, -0.12432201434564262, 0.04404656518773772, 0.0475306694323031, -0.018815486955185184, 0.04047308688855793, 0.14396405260773976, -0.05550025859866419, -0.1229092908272142, 0.09582368106425464, -0.025721196141641475, -0.050301989688029625, -0.004920366278389287, -0.006799612469575446, -0.06336082434635427, -0.08684807493120687, -0.050825179081714404, 0.013743927448435691, 0.031542651251723244, -0.08285972384113167, -0.0024513983897332804, -0.06889952933105077, 0.07631032066338361, -0.049518106536516365, -0.1657293424453865, 0.06072480811375184, -0.024540904658896086], [-0.11525069513917438, 0.054928863624476056, -0.12047047442577964, -0.13207572351025282, 0.02659776694335811, 0.028461435556410286, -0.03750740039987353, 0.08528825496593828, -0.12276180466339416, -0.17674742561837095, -0.07506483264243888, 0.05334079769659533, -0.08984838797007885, -0.08729035212774065, -0.030291209820985755, 0.03466560072697855, 0.017950536825397448, 0.15493086147690893, -0.02975096481353837, 0.1004215678785193, -0.11350111377942378, -0.040600321007795155, 0.025400609926448672, -0.1830704289153672, 0.06645006325375179, -0.0061371589548345745, 0.0016929879785836314, -0.06510073436435536, -0.0688804989274036, -0.021244980164712622, -0.012924123825106213, -0.02288432406393105, 0.04851374248095728, -0.14491820990128407, -0.06550494292898996, 0.06094231163177956, -0.0024281188828376037, -0.020581498104869797, -0.15886551885037703, 0.08630005529035033, -0.08911795722638567, 0.06720736588984917, -0.1285268527892446, -0.024436331702062043, 0.02140826004957092, -0.09529446031301349, -0.20389828853683856, 0.02249745520151508, -0.03760786189714829, -0.007837192907169159, -0.07478809496865624, -0.0629677013685897, -0.05965070610923165, -0.12665592592256078, 0.020179893365017687, -0.023926671734316084, 0.046356722336609604, 0.09493584371063588, 0.015336600442324964, -0.0884453345495144, -0.09877757956819448, 0.003430847120849894, -0.03448359027317474, -0.05193443681676222, -0.020455989252767676, 0.02728060804044631, -0.013101808200553556, -0.10408901139418722, 0.01971678632407251, -0.008031894093006727, 0.029722018614280796, -0.12598961640999223, -0.1634973859919945, -0.011054942823597803, -0.15268813729832706, 0.20994874236035574, -0.06636018632498276, 0.03814989672067429, 0.07394850992387783, -0.08642770152977795, -0.003993656394995586, -0.058551919590677105, 0.15108607860875117, 0.046405157884476265, -0.10484920423786567, -0.09501034118676373, -0.04678924111012924, 0.08118982928414145, 0.03528021422998607, -0.16744177294572843, -0.15227326337473662, -0.10690040711672179, -0.024463782711072128, 0.015328792550498066, -0.1249439696846947, -0.1367891988765069, 0.02234399773074387, 0.005627525763376722, -0.019553748183858324, -0.01954227116138093, -0.10582626361828673, 0.08217570836418323, -0.04863240085402313, 0.06390175253856081, 0.05323730862212528, 0.0128101993124223, -0.06196130516785152, 0.021635742912639044, 0.06538977902738796, -0.02598231039509967, 0.01961726141098904, -0.11392005889427206, 0.05476387018193424, 0.14199449627207122, 0.0431209221828256, -0.051317390152007696, -0.1309416290430577, -0.017948135214212183, 0.05030308743134709, 0.04587728730961033, -0.04666672191276493, -0.020756250677394533, -0.06720843343107949, -0.0795417963353874, -0.04770217474979371, -0.06571789651666703, 0.05260575420936122, -0.017309371009409373], [-0.06658585615222477, -0.15982377708802958, -0.0531249584761877, -0.03523025769470293, -0.1195367955470106, -0.12343252132112059, -0.07389553279782679, -0.10992024165363445, 0.07321469456937632, 0.05979782180782327, 0.04774805389120314, 0.1299051225086542, -0.14201612587092588, -0.033784253884516134, -0.037147046518768746, 0.03608845635530789, -0.08766912792793743, 0.023992724326189065, -0.05119216664272899, -0.08474672213950993, -0.1370509265171969, 0.021546272179246328, -0.0635784666589873, -0.005193762206384745, 0.04078866761409906, -0.02390795972453891, -0.0983374279955018, 0.04547803387124404, -0.0017879913277822133, -0.11820982447915776, -0.10191340876555453, -0.10425183239421427, -0.07784038222285228, -0.010920912176844374, -0.11261678456226099, 0.12056787948970688, -0.12034728772006689, 0.05343544371434661, 0.05199753976050876, -0.0840156095000186, -0.15027369012820363, -0.14157424207166613, -0.02629907420550353, 0.12625294102525733, -0.018546054442201025, -0.07776260860465396, -0.1550413910395817, 0.003510640061608961, -0.10928336390922347, -0.051701799009938466, -0.05978070151868714, -0.08226179135969934, -0.11546758384739729, -0.16162836683354995, 0.0068817983089863284, 0.051331295279596616, -0.03146984763413481, 0.1466313292128952, -0.03977182664996995, -0.11285119298893978, -0.07107704626634118, 0.024554809654085415, -0.04101847549980042, -0.16285296451729006, -0.06919811497937839, 0.005796085331548424, -0.0665148601666609, -0.08229134423297621, -0.0056932484583004355, 0.018347761400089573, -0.08339815861121816, -0.14299595245596916, -0.07855603086083303, -0.08460079893281779, 0.011496672877191458, 0.07469378065065867, -0.02521162206901146, 0.045452841087097975, -0.08732728050036771, 0.05549305929812607, 0.00038678257199533566, -0.022797602144054335, 0.06460652985054618, -0.16194997689882687, -0.022414143268800497, 0.039523919982982554, 0.0036457248798510557, 0.11871019501278575, 0.01699077389007435, -0.009956578957860965, 0.05738893104113008, -0.06615791667736853, -0.14417602878838162, -0.03993544242996404, -0.03588138458500715, -0.14624488675965636, -0.08096657614947825, 0.02360589389697714, -0.0347817374506619, -0.015091590777535033, -0.19553691255686148, 0.06615411779830664, 