[[[0.03667969851136633, 0.05371279671238917, 0.0013672515262422563, -0.04823124704888729, -0.03767442494530578, -0.07003050567960782, 0.047131274183920525, -0.05871728057308905, 0.0670942913095929, 0.05047122312230496, 0.034980097080714326, -0.08329237310290555, -0.007427891954925517, 0.008676990841880578, 0.019837240648373868, -0.07874823795862472, -0.07954002177924323, 0.029635409805961042, -0.042300865979526224, 0.019504531321955624, -0.011288890277990859, -0.08881867208621376, -0.020402176831205876, -0.03552793966657041, 0.05127967453453912, -0.10830774415079848, -0.05310012003081755, -0.016086886764246303, -0.026022875477958746, 0.03570175769658735, -0.03439667528764931, -0.0033155104816634797, -0.0038346381192298513, -0.04091446206106462, -0.013088271609155756, 0.06112344886472468, -0.01003734329573946, 0.08455059821536873, -0.08580720670721283, 0.021186283453062466, 0.03349381633244529, 0.031223356849612416, -0.0220622195347144, 0.014414577197971902, -0.052185566142639805, 0.02546592475851226, 0.08199258732008721, -0.04682722333275568, -0.04275554435504247, 0.08056826539527391, -0.0001607106915907255, -0.02361000972237466, 0.043548457338079744, 0.05047658547560217, 0.07401983103632064, 0.09978093795509498, -0.04330264518234537, 0.04130475414058687, 0.0632780281903854, -0.07847360801107169, -0.09063307773458619, 0.009895906336012315, -0.012469710530966436, 0.06801030842840211, -0.0707934008601037, -0.007710560432593132, -0.08626817417182776, 0.013619052406851758, -0.01680531288339977, 0.03453047654786712, 0.018641717294265652, 0.10635037495430454, -0.07164702557147384, -0.05380844553220138, 0.04176524822720119, 0.005177920983512995, 0.09685510165378444, 0.027504058957383757, 0.040393496540017094, -0.04377824735125818, 0.07381093302851295, 0.04465390890504447, 0.057359819699996824, -0.10621571759899824, -0.08313147183741922, -0.07390776899474734, -0.0873372729896562, -0.07182771450730369, 0.040319556725125806, -0.041597902253235335, -0.04497296184338519, 0.04309973557314395, 0.025068454918977152, -0.0800398918323196, -0.02809145669756317, 0.07891257275180509, 0.04288320636638345, 0.017594617966138437, -0.014199928530638622, -0.059530974628979334, -0.0063547709666872815, -0.07281775102858164, 0.052851889954502684, 0.033742398804792725, 0.07677481476352552, -0.05683860265254422, -0.055656142690845824, 0.014951394590198843, -0.07707049011743682, -0.035550633128924265, -0.05561360473815115, 0.03469191063541393, -0.04407890942104196, -0.0409118969043817, -0.10800349187878586, -0.008740511611776716, 0.08949809959214787, -0.07988664658167444, 0.06106497309142609, -0.06618252227169692, -0.10285521872323729, 0.06808962129020174, 0.08108583845798446, -0.045132702784257114, -0.03268269315106807, -0.07732176935061046, 0.050960362460219046, -0.08533731698709428, -0.0001828909123498914, 0.09719727720859381, -0.07802892064822227, 0.054966973658544666, 0.07764686772395299, -0.014913769080383473, 0.010338712537461308, -0.007588071756815975, 0.03195826822020224, -0.06438755286599693, 0.03140602789440268, 0.04850683779561112, 0.080432493221304, -0.05483385363969501, -0.07895071819869717, -0.04266828670499585, -0.061533020140331025, 0.053446488508717735, 0.07357788580536039, 0.08757597311463386, -0.051247484327003365, -0.08540377568650175, -0.06215219865363878, 0.0019200791834536577, 0.0736036682429435, 0.08707618074405434, -0.06047143800064819, 0.014676611266888096, 0.06190063247994593, -0.022733978958570888, -0.01526188402400499, -0.07687508964644484, 0.09554232485496698, -0.023165156313391114, -0.045527099435709484, 0.06982880205880604, -0.011819925020546306, -0.04945326907732109, -0.030492453527860595, -0.06090433875857274, 0.05856126086136882, -0.03450308655539423, 0.08434689769156932, -0.0125916480749327, 0.08266382226770608, 0.03911793047794371, -0.013341630645198943, 0.041779464762285244, -0.03645374910314065, -0.04755298651077076, 0.036362833919000144, -0.06318716876712033, -0.024272175745709522, 0.08213951694954906, -0.04712218024442432, -0.00016625927549922075, 0.06568894235949581, -0.04420156109720544, -0.09370131158423323, 0.07761909237426974, 0.03942899570707628, 0.00300660547940626, 0.02517416599874823, 0.0160750472827946, 0.049833241197454435, -0.029897248668301707, 0.0026576903708379063, -0.0029527597421620602, 0.062286767468728806, -0.0583727666835324, 0.07195525873769384, 0.0910267187040961], [0.07097917336742078, 0.0170230910958688, 0.0511272988765139, -0.06120439187082776, 0.05738611196214773, 0.00017119883569612703, 0.08669181022876564, 0.04278416427874684, -0.006190977988274925, 0.011167137768392902, -0.0437427356657325, -0.004947507819666889, -0.021532028838650154, -0.003621620333827917, 0.07137343543708612, -0.06573738800080076, 0.05831705155764166, -0.047819330063696985, -0.030925241416779155, 0.05915290231698681, 0.018831061562778396, -0.09690341782828973, 0.024691232355011267, 0.019044025989093803, 0.08385025812852008, -0.06942357664180498, -0.02350637571344833, -0.053209098388657006, -0.04078455054555692, 0.08741723214157016, -0.025694367314054715, -0.03406682623270927, -0.03551300484927696, 0.08187228935161116, -0.017720007127263463, -0.033958578252622315, 0.06126529662282087, -0.007820854381224008, -0.049434218958388815, -0.05731717698129371, 0.07701320193327173, -0.08732746577969498, -0.033971385436190854, 0.030052525768568365, -0.0024767135471874878, 0.08635842202428742, -0.037046962156878124, -0.03328527286277492, -0.07357686826846224, 0.0146898059853362, 0.03063387774973852, -0.07014696440311485, 0.06670311381447892, -0.04833615979383136, -0.009286196025013786, -0.06386019464983184, -0.0719226574742577, 0.018732073627010792, -0.06199660751026168, -0.029154796861450696, -0.05015376074912103, 0.09235538458270574, -0.012638843565674986, -0.050180788828452665, 0.05838619686551608, 0.030407964295312454, -0.056150952608251134, -0.054910634246088975, -0.015965131198948743, 0.007875021163130477, 0.09332560007579886, 0.01797723287032795, 0.01694272839711449, -0.055144021557094636, -0.049060342414288124, 0.09380546298963181, 0.007318043956497563, -0.09244309306422079, -0.03554485666616772, 0.023161304398238356, -0.0743831314330415, 0.03621855329466724, -0.0004120144899058283, -0.08222533435388923, -0.0054376646062335695, 0.015489906173214416, -0.041071620752834166, -0.029433750575235326, -0.05557206097650512, 0.04127562070104952, 0.009011917481683339, 0.07655103107686022, -0.002718732095630819, 0.07734836657676426, -0.08529391365854616, 0.021836269830033672, -0.09484943927681275, -0.03877001589929606, -0.0733574449792629, 0.043231292889598004, -0.014242877254117508, -0.013564070192761167, 0.017926818635287646, 0.0450791844906579, 0.1019154939257619, -0.018024236987163822, 0.01886390781630979, 0.0008822360943820154, 0.07616269339568456, 0.049288174331788656, -0.0940219071642714, 0.03250668539544278, -0.024191405712391003, -0.025403805447906224, -0.05437962598312433, 0.03071994766087015, 0.005558976307543032, -0.04538646231364897, 0.007414917378556593, 0.0844437480948665, 0.09942368509335554, 0.05470604759489284, -0.0702074232889946, -0.07382925886241273, -0.0922690558151238, -0.06581011532398257, 0.023534693221705174, 0.0681216540359495, -0.04070969955690416, -0.09425853291936687, -0.09392992372759246, -0.03562857476832086, 0.027130009405903426, 0.09196370560195846, 0.0003330869214998759, 0.04461393681829435, 0.02050023318394357, -0.08684921081543316, -0.059191922146787354, 0.06952499355508261, 0.0352408948866107, -0.07891123488980702, 0.05861469000138372, -0.042402212663936956, -0.002489110809986587, 0.08965218200046518, 0.018916293260071115, -0.03603706402841265, -0.07052515679543463, 0.04861059278025351, -0.004261220688426403, -0.03147699469827397, 0.06867930881884739, 0.06082877274643266, 0.007872249292127566, 0.07972824897580356, 0.09360080792191312, 0.010755030190094253, -0.07108115369268016, -0.04588408378055671, -0.05413234427806514, -0.004449276978317275, 0.0016851491246896038, 0.04158194975086895, 0.08502980861259202, -0.029610573514840616, -0.057118637429027674, 0.06725929243285123, -0.06469320540629929, -0.08113719794399833, -0.024341601015480326, -0.006864505883457752, 0.07909532363942488, -0.010412269747143425, 0.056094722829508475, 0.039556692592226106, -0.06317837946820415, -0.04065521757389578, 0.06361424193148449, -0.01946580813416887, 0.02064180260744047, -0.009442266013932131, -0.05599829881320146, -0.053813345051693245, -0.06157559913602117, -0.0271205112869375, -0.027835097150127587, 0.06571787849646026, 0.010921091501340636, -0.008511536892297451, 0.07555652722356174, 0.08767227374712286, -0.021801222012375894, 0.0374178130143324, -0.08930888860148295, -0.037896461150506655, -0.029950461205795424, -0.07903962309741445, -0.0028020345128637815, -0.07558426796077142], [0.012786504835909351, 0.04728731124907926, -0.0279381264793044, -0.06041078380666678, 0.01700368450612084, -0.00685648913266734, -0.06162537071806386, 0.06507929350473675, -0.008997847320224864, -0.053352690648538335, -0.0720865742799868, -0.0510256914701631, 0.06143927559359586, 0.06587052914448396, 0.05604588446601001, -0.10094389440538008, 0.06817455793418924, -0.03112567842788099, 0.03356530753701668, -0.02224634369861582, -0.10046003492466564, -0.042350293441951924, 0.09088702041824157, -0.00161937540995844, 0.013597692368267437, 0.007083874476146454, -0.04956459161289689, -0.029985709083899168, 0.09539629537985926, 0.012020402133820579, -0.04169580979718983, 0.01261576660643224, 0.05744256638062948, -0.09489620844052842, -0.018978739401579115, -0.0036771465747541484, -0.06106722215467471, -0.0022373832060083366, -0.09347420775108642, -0.041903368092135976, 0.09611440360553716, 0.01723818116004802, 0.07392597706491569, -0.10099341291268127, -0.039156357498854766, 0.03560747285759881, 0.07721382834386549, -0.038838123991521985, 0.039082221663504016, 0.07210217975589941, 0.05053886035142362, 0.01998225358934749, -0.06462775646749487, -0.059750942850700504, -0.0018338120508393499, -0.00947651107608972, 0.013035376198108562, -0.022082959466608848, 0.05167399105147061, 0.06631837615238051, -0.019420608660877567, -0.07299744844473272, -0.0603821120051983, -0.08074375943121471, -0.08704908337075323, 0.059977995193443705, 0.06607427986010715, -0.01978346808986651, -0.046778567476508756, -0.02030941486677145, -0.006211792640818678, -0.022631397104756968, 0.083250115925626, -0.04372582943725357, -0.016020980948908723, -0.06910238634978953, 0.08688727685088996, -0.08413586724629997, 0.058295995302111304, 0.013089732273844228, 0.04742024360063216, -0.06371526479186496, -0.0021667794817704237, -0.08580308949813263, 0.06286132588558649, 0.02343314336868475, 0.05039227233919287, -0.032315423668478595, -0.09504502543050983, 0.04396402661664031, -0.09447090871424675, -0.06358128074701155, 0.028524444170338784, 0.054701682592864814, 0.044952792904049695, 0.02232812599493658, 0.025706680443189484, -0.030481483167160647, -0.02347513115079795, 0.05027673480060327, 0.0929540279563664, 0.06131968328995389, 0.016983856662767673, -0.01367998312884604, -0.007187944758181161, 0.0771626194370373, -0.049045123262189655, -0.04195590602685621, -0.031868614320144824, -0.02195419575159008, -0.08663993666109798, 0.018451566062011423, -0.01154311813330944, 0.008276491304752696, -0.027355925491163807, 0.07090984983668144, 0.08699230188833303, -0.0012200252278961867, 0.051444513888095636, -0.007681646880736842, 0.005228675586382412, 0.04293370844610432, 0.0864879007358812, -0.013907710553084226, 0.03687967884072508, 0.03934773694734503, -0.049927290236348926, -0.006361146787118054, 0.06603385519577554, 0.0019012458020719967, 0.08205266274683944, -0.03738761987591585, 0.04118834217661209, 0.03453939507349849, 0.06236313655413495, -0.09667201874433408, -0.09185076641463412, -0.0769053452349112, -0.031070811343671484, 0.07404475626356331, 0.014675339537030038, -0.03541923150265025, -0.065711203139594, -0.08826172165096953, -0.027566496697020673, -0.09847211979357598, 0.0024862637472082907, 0.06361435271830015, -0.07381832057936005, -0.09191986763628004, 0.0914988378858254, 0.04713906487667032, -0.07279684729176679, 0.009056424138258528, -0.03084823578662445, 0.02120766507400837, -0.06977481715843688, 0.028749311399047614, -0.030755333946009326, -0.07820044207214161, -0.014763210388623693, 0.08352065972121459, -0.05969338898146832, -0.05636396659199684, 0.007862740241432667, -0.08720184107414912, 0.09457416901229161, 0.0492817155352593, 0.04734443459102672, 0.06984676929335074, 0.08330520733949945, 0.026421712035250452, -0.041211067547404036, -0.066515779389559, 0.051496775455919734, 0.0812521990353421, 0.06726950310727367, 0.04851718175870298, 0.015613814936054867, 0.03754148794326794, -0.025322385460040325, 0.004378503694377532, -0.04604800106543304, -0.031185200810425556, -0.0012461091240835978, -0.07462460206362502, -0.0026678582805300007, 0.07297229676376313, -0.0671857251196034, -0.03798536981629407, -0.04620734610748222, 0.0866151521156337, 0.06152967344111842, -0.03350691134048553, 0.027296258121145008, 0.003626506286827733, -0.029590651110413674, -0.00865760218095728, 0.0678681029097407, -0.07283874566799453], [-0.07710763065677854, -0.032525474319219316, 0.038748790783258116, -0.0173634476557443, 0.08030132270982822, -0.06001269909375488, -0.055707131705734, 0.04325212536181665, 0.057376866974732196, 0.07832178999604293, 0.0018018297271632467, -0.0670691635892667, 0.05750176790841393, 0.07414794300891123, 0.030121728288483866, -0.007974675902245328, -0.008833011795024744, 0.057465677123987716, -0.023890594983166005, -0.04762333187813755, 0.06399458691259159, -0.014164046565667629, 0.08482706816673334, -0.0052443460407163855, 0.016373417297447714, 0.07007698100679828, 0.01818015266656558, -0.08285284858904012, 0.03832738113019813, 0.008196520468961408, 0.00668192779578399, 0.07561267523264464, 0.06569391353882807, -0.10263353359470806, -0.004048017812309032, -0.026854118022680076, 0.05574246421059488, 0.03312636560627551, 0.0021951378084637593, -0.08857152269554659, -0.09734358616671782, -0.0018265844249863983, 0.039495030901604194, 0.05287491403642221, 0.02481451350842878, -0.020552766011404676, 0.0313808723105947, 0.05044986478670042, -0.01855900980733938, 0.01679033988801967, 0.07792196345295413, 0.09588588365747977, 0.0027528939196714538, 0.04650182114087118, 0.0016598259692213744, 0.07648610637419735, 0.0006871166896181708, -0.05143570654314913, 0.035323759131612044, -0.08837473356429235, -0.03702716637091727, 0.10502772788721991, -0.07310008206186394, -0.05557458657727939, 0.02137687702119502, 0.08243340742638491, -0.05315913146323973, -0.06891191952356329, 0.055860779766289455, 0.054057148579594566, -0.08409134384442857, -0.08527850018159021, 0.08772127120014027, -0.04480724238779432, 0.014167766664689014, -0.0559974336944824, 0.036576065875169116, -0.07620339119063758, -0.005982456769605306, 0.09838163694085113, 0.06760388908130818, -0.05729993374686416, 0.018820603984027434, -0.08711555370722619, -0.0831332305221155, 0.039663427107586295, -0.05037400126481527, -0.08606821079992429, 0.04432081337595796, -0.03696069494922325, -0.0004919421280633043, -0.07830121285614557, -0.020771188877973485, 0.02606789111287847, 0.03448792762169925, 0.011458789677395814, 0.030692803720531518, 0.0008519498102960031, 0.021366988108706346, -0.07280378988719637, 0.028756957327522373, 0.030497525834983684, 0.08668619560734869, -0.07667132654241551, 0.08083137881432474, -0.08073309271718236, -0.039000615830919357, -0.009444157345061393, -0.0006914390437161335, -0.06675923254429388, 0.03132833710989236, 0.09192129399607639, -0.06399665004204542, 0.05121013783878919, -0.040285626018614455, -0.023820924733489932, 0.084440536748062, -0.06768820166791384, -0.05127792089623625, -0.04407710764156227, 0.09436745931831846, -0.09456567908205415, 0.08830544510462521, -0.03738205243472151, -0.028823125025892342, -0.055423137078571404, -0.048414823819626925, 0.014134205593297512, -0.1042662694756637, 0.017851707898421186, 0.001010741358478353, -0.08393096155630683, -0.03094421516628757, -0.09452302096009846, -0.08312659724855355, 0.03163129486884881, 0.09317610825817037, -0.07792257476795479, 0.030653187334971185, 0.07240008132700551, 0.045898533324215327, 0.0808976066786106, 0.011111204250099264, 0.03752795727386009, 0.08490088586220573, -0.0834061073381878, -0.027975590246442014, 0.029085971713164453, -0.011656550637753841, 0.028641955176054022, -0.023263090645034356, 0.004642697657310936, -0.08641186432412994, -0.04935132465594608, 0.05691085989534215, 0.0868632724150906, -0.0339939581532312, 0.05763334569978498, 0.015263532698026517, -0.10236310937547527, 0.09104542037084243, -0.07301846821856474, 0.025512038757889897, -0.058861909700747346, 0.007256336254213581, 0.07200718107038223, -0.01452522700160367, -0.04166217300875397, -0.09104326884327305, -0.00519836041608046, -0.04487462561815798, -0.0714194117774645, 0.011577927107292189, 0.05137916276302331, -0.008438890881070924, 0.09929137550193638, 0.0785435929449982, -0.04104743088993782, 0.0815022576636093, 0.10124683990016757, -0.06953520958828022, -0.04105960341832871, 0.010938713155958298, 0.08794133145010223, -0.027002732363830755, 0.07145336386712511, 0.035511907113180294, -0.06151811702648714, 0.05262858508732573, -0.02938742529962812, 0.08688384512815486, 0.06278144821185154, -0.04755632208981317, -0.09857626064003491, 0.008558356769734252, 0.030960428824782258, -0.0007452549937505148, 0.07563525781842566, -0.09310071937103052, -0.035574446313163643], [0.07145942574137065, -0.010477067721764308, 0.0024578444061579842, -0.049368034867494796, -0.08838132020953136, -0.05930245430200021, 0.08642852041734092, 0.06860016951697276, 0.023241080303898296, 0.03502025231973469, -0.024661982984004568, 0.05866777816659128, 0.05112069985767785, -0.011294449029432777, -0.07735482242078763, -0.052711239471218946, -0.06061446522402492, -0.030163717370000242, 0.03060236511073245, 0.07453716759358703, -0.009242383682776514, 0.02964141143193322, 0.02217762726442282, 0.030544640906016024, -0.02329595942534587, 0.04279507386784244, 0.004377924468552174, 0.07767177671606872, -0.08064316266705072, 0.07028595200464553, -0.08366339660288667, 0.08997279490332098, 0.05923424902933595, 0.021313942664262987, -0.09627608447046264, 0.00802259081850836, -0.042964005364215234, 0.10204009712931057, 0.006507978967611038, 0.016865639639956798, 0.045772374425661684, 0.0190278307749832, 0.02178698213141226, -0.03705484531682831, 0.012452242994362903, -0.008220164760926062, -0.04676479995549559, 0.009928486575074908, -0.07143713541240126, -0.002441698696280738, 0.10210948245864494, -0.04801254675283625, -0.04320822137071423, 0.034732501274151416, 0.05376829043550493, -0.022214619397046973, 0.047404092174847604, -0.0896775877843924, 0.0647605663964746, 0.009135964314749934, 0.010021030413931941, -0.09946418592811401, 0.04654589252573819, 0.08822132326760965, 0.06149338112721767, 0.019496230429178262, -0.035013297001466916, 0.018943311652663903, 0.011870272112517283, -0.046951931130148235, 0.054564611194373044, -0.043756457323773756, -0.0025103045190760474, 0.01723318725484631, 0.05051731899741442, 0.06895029213135434, 0.0006481314327885556, 0.059070330753436116, 0.011334188142334955, -0.018888928866374086, -0.10267757653394355, -0.03973308118846132, -0.030261684507272613, 0.028003903176190233, 0.0051724702675347515, 0.023661196390079478, 0.01892285543433026, -0.027860082487838472, -0.08126819812519302, 0.04780115625575678, 0.049770610395922954, -0.0027726793118100983, 0.0817505594856983, 0.07905032505144305, 0.08548039046216714, 0.06386102015463441, 0.002093101981926797, -0.08704258418412812, 0.014442221754413918, 0.054487888647679505, -0.056197087487402944, 0.09807794299613654, -0.005906135500638491, -0.08294425023489058, -0.04477743686505841, 0.09431640911051953, -0.004948064853901889, -0.07115025877083574, 0.050627725919506116, 0.09330929704609973, -0.030325912111526725, -0.05095650733662212, 0.022836173035619134, -0.06540204527730314, 0.09140259209948516, 0.06326196574531025, -0.024904762795852325, -0.017505543151392206, 0.014808137894203866, -0.057530966805151025, 0.103800159957316, 0.0797892801940851, -0.04350160258436342, 0.09809793163571208, 0.006342807514965208, -0.08280154579309898, -0.012790683021387724, -0.014254453605744186, -0.045467908725070026, 0.04397307735667695, 0.07269285543271384, -0.028534431268637524, -0.026892431334500404, -0.06354630497804381, 0.024509335866190925, -0.06344968174141205, 0.0006840955754518383, 0.021150137847776702, -0.06043193983939727, 0.019627728300022806, -0.004687322695490319, 0.04516017970909239, -0.05468938662942211, -0.04881251245775331, 0.0007059721962629818, 0.04321495036900482, 0.027367188137491675, -0.02603090432990039, 0.07619032716151633, -0.02182982638074565, 0.0024868259993131264, -0.07477853414835609, -0.09571620451800811, -0.03818008817084895, 0.03126187302725045, 0.0014031948226807213, 0.09439206773567174, 0.06588077598261895, 0.030714085318856076, -0.02681762042836794, 0.022152451050865263, -0.05209209528095219, -0.06441452511127599, -0.006364762217184707, -0.004498976335929191, -0.050665107757781415, -0.047135782511845366, -0.07172715299902702, 0.006671820935628023, -0.008750664217145307, 0.018148354908046265, -0.03741238520591319, 0.0693555500540843, -0.039619602929160024, -0.006551386472177574, -0.03873390984687955, 0.01627227439530291, -0.02873494954200625, 0.0887997222726777, -0.10516957694466673, 0.04757999387244967, 0.08450249288623281, -0.10014510981645766, 0.060015819650490014, 0.06536074707302653, 0.08167141273889462, 0.049465775300367346, 0.028514743447332302, -0.07188107727286273, -0.010602959660997602, -0.048401728607472355, -0.0006019052320505186, 0.06019668301514638, 0.08965114750177852, 0.04467281135937832, 0.059711158112529694, 0.022622515652428375, 0.02828055687176362, 0.05327215185442637, 0.09637894198826438], [0.0881672153882299, 0.015320885951147351, 0.054490668093600474, 0.0812813108163082, 0.010104331830967686, -0.009514215562195706, 0.02844771334858725, 0.08150511822039477, 0.06411047517285408, -0.040874209156427234, -0.05233613440895545, -0.07968966926362483, -0.07830483911026401, 0.08239773594534092, -0.048586400119754555, 0.024696811269183414, -0.08646928327645442, 0.055890955660690744, 0.024237745821220392, -0.08207341773686867, -0.03410383397920372, -0.03793044085219865, -0.013253559254750068, -0.005425222579830021, -0.09056527676724077, -0.030904409670530725, 0.05143484201839956, 0.06736839340557377, -0.04874971708714185, 0.04756297809878379, 0.08748679520326522, -0.05391285980753011, 0.05759001127323529, -0.09247859765882205, 0.09382825172811063, -0.05470566618847362, 0.0678754840797732, -0.09838566465557462, -0.08543836079549882, 0.008147492421492267, 0.012993068315963554, -0.08827341226502343, -0.061971826247313205, 0.08168361574360741, -0.07767684740423254, 0.05727784205701942, 0.0672102625651781, -0.024767233084262534, 0.025050306889787894, -0.10098583629631086, -0.06336732860916011, -0.03131278405390916, -0.039705671460025405, 0.04386059004752105, -0.02558491061237948, -0.08058300563714034, -0.08042187664819603, -0.015682866200894187, 0.01616244372034687, 0.10462663242751254, 0.04385195169752925, -0.06427441873226117, 0.03187426912313128, -0.0847993806040646, -0.03072059625732026, 0.007759421908436402, -0.02583215028265848, 0.0703988895602766, -0.06897682985318636, 0.0820276604108521, -0.09858537990055302, 0.04421007748379329, -0.08976775813797054, 0.01130665479211073, -0.04803153521675548, 0.06609038485594473, 0.04074042848228699, -0.08160850662324105, 0.031192112362989327, -0.02843606078485155, -0.05341150115819676, -0.06505626524212656, -0.024702877810941964, 0.0914240204808183, 0.015524483009037646, 0.008895489154553142, -0.000635158191600817, -0.07055699396279738, 0.021155861517558813, -0.05561601903374507, -0.07398606068891177, -0.04685690962658763, -0.022450979598459722, 0.043229517085858274, 0.08680356739407238, -0.09785566660475949, -0.05369703583210996, 0.030319650125684695, -0.05581470768620541, -0.005835528871157727, 0.0032971852902040377, -0.06936893677029807, -0.00810537733698367, -0.07302110572128019, 0.05740171887047213, -0.00040561408144497684, 0.04425025468035658, -0.07811662611418448, 0.04540998524944948, 0.08678184153666944, -0.029582490303316826, 0.048056120793298976, -0.025975999964524685, 0.05483514484348459, -0.0495256027993189, 0.05022314108908023, 0.041423055209773504, -0.002123539200788188, 0.019270083713583845, 0.07756883772061123, 0.034236003400508926, -0.043030497833328504, 0.02757244196536116, -0.07319990985623559, -0.0485255297118662, 0.10350968470236813, -0.016943438950428682, -0.0946344025543601, 0.06947180425155015, 0.03475283267954444, -0.08238031756824779, -0.0027161461130164517, -0.022083474245992787, 0.06950068258664215, 0.09529209139669281, 0.05706983851154414, 0.0704581702052025, 0.039346153641711366, 0.05797879612778478, 0.018230691559197123, 0.06296598656245772, -0.02559740916915938, -0.011947107887631234, -0.014455153484412616, -0.04692712204096158, 0.06995428952093073, -0.005852393034341413, -0.10073169132845602, 0.008609155445973338, -0.09576787758414214, -0.10263189693628641, 0.010292026635305677, -0.08863702681461384, -0.023506292674828358, 0.017717759964794112, 0.09075797725719657, -0.034727149306615836, -0.027663808744860352, -0.07080471613693298, 0.08578437640922218, 0.07044318452928154, 0.04779516752039654, -0.0005033251748028563, 0.037909707560757594, -0.010430285107319338, -0.02729667663881995, -0.027527925889303983, 0.08542347264022901, -0.06127060597611669, 0.08625212002163343, -0.032625277188708376, 0.03238639709662797, -0.008713479108281082, 0.07095231595722548, 0.09200296806939756, 0.03188626638614342, -0.08247059612088313, -0.05246246610015893, -0.08442488028593244, -0.08538679130661504, 0.08668835585501687, 0.040703341093809124, 0.0329690475415167, -0.025051508262591705, 0.0738001813759834, 0.08267033512708591, 0.0652771157373981, -0.09829878368387872, 0.04656230631231972, -0.034952863108635476, 0.05777221321344343, -0.014399289044090293, -0.08044786378339486, -0.10836699896389598, -0.0168770423503621, 8.79212800629954e-05, -0.018979534512592194, -0.04347569215467562, -0.06413426687822633, -0.010189558542392974], [0.011032541343606947, 0.030578327637040294, -0.024087882313352772, -0.067538614817802, 0.03276913972172208, 0.008908269205599081, -0.07159092369886122, -0.015514680654411568, -0.023692256405479967, 0.03960488027929632, 0.0879569380256188, 0.018107588612892377, 0.0583866648627392, 0.03884069476230551, 0.04562654983610298, 0.043788293984550294, -0.055409396827399794, 0.044278045747567295, 0.04813833293462418, -0.05510718382606796, 0.03148330321657897, 0.08815854929139597, -0.08792354898305386, 0.009279789966812326, 0.04612495902867707, -0.06043258498493511, 0.06372598249014999, 0.06022157478416136, -0.05067286200122665, 0.000999485313575736, -0.08557866071544064, -0.057308748868743896, -0.07858220870993186, 0.059547242792152594, -0.09162712833147436, 0.05080159398204422, -0.007534501199280331, -0.0924385836299007, 0.024107814548872793, 0.07858074803151437, -0.05076760843196372, -0.009767735890926207, 0.07755582255100815, -0.06572697344338461, -0.09638643476269647, -0.07547290512839372, 0.08514943988529777, 0.09407006613359757, 0.027781890577109856, 0.021926336225582967, 0.030422679687005523, 0.05421229838009044, -0.01673700798479962, -0.03331036004157054, -0.022283913444360693, 0.08918710841574078, -0.036708221603042684, 0.07066999233808073, -0.04292416803985026, 0.004337140645000715, -0.046041563325285556, 0.005939016428686579, -0.03413071751982517, -0.0611079027323392, 0.0976852567526186, -0.006082919415607596, 0.09016844883146753, 0.007885319254429477, 0.008413930869570947, 0.06078832258593578, 0.013710396340549507, 0.052267339566383374, -0.10189523203988167, 0.0724265024347288, -0.011346284751060844, -0.08324022587929925, 0.0030952074920827894, 0.03925154954708393, -0.023159730797936918, -0.02851349485620975, 0.038997962304993326, 0.053947420789819005, 0.08617512567016554, -0.08897065880686378, -0.07146921308005087, -0.09203928171268078, 0.03092942141419943, 0.05360667639489314, 0.06556151409328904, 0.09188287509820289, -0.08249352530216023, 0.03145625422118018, 0.06949848356853454, -0.00836770199190562, 0.06045319162235812, -0.05088742327452171, -0.032832801192973146, 0.05097517445359996, 0.034899936332571754, 0.09738799485991358, -0.04812436282491359, 0.020311172842901404, 0.0915932630721741, 0.08034274999939371, -0.07854295967267491, 0.0044299391781250815, -0.07478231512572373, -0.0837406671404149, 0.07088039225638589, -0.06041291801932864, -0.046908223102036226, -0.011291762206466445, 0.03421766361576112, -0.07572534402207853, 0.0936890777979909, 0.010140949952213265, 0.07510184042276104, -0.0791950938266631, -0.014521046907304904, -0.03720106925881104, -0.0386157672505452, 0.04800677548908517, 0.0515145968641258, -0.07198317634548308, -0.01562248366088064, -0.08303698905189517, -0.030679260447215386, -0.08857384775699793, -0.10855101156825933, -0.053889436503363586, 0.09034351546737995, 0.06787619700698792, -0.03894647095472911, 0.10149805990544485, -0.0017999646183565576, -0.04322436167677594, -0.02487805733826661, 0.09055356686559768, 0.01060651433708232, 0.05022236379029857, 0.07579372572357096, -0.006062171976463108, -0.0893710221337293, 0.0761290937474903, -0.08094933364021337, 0.08405909121839487, 0.08998345383203271, -0.09083550623498303, 0.04977171739092786, -0.06310734865241244, -0.08582092648809117, -0.07770682444212, 0.026400621157009165, -0.015509086282506367, -0.06685384296594715, -0.0792737588047659, -0.0695413801774933, -0.09761252782367603, 0.02105388500387235, -0.03387016730342219, -0.027137055180220505, 0.045502956752515776, 0.05535347146829579, -0.007653444714320133, 0.09263614559700196, 0.07253044683434766, -0.05520905988040791, -0.05233228451756312, 0.0024203006837622944, -0.007204744483742453, -0.08674166259558506, -0.0785856064516387, 0.0779611420633693, 0.062284029902819345, 0.0005555786610039212, 0.07828020857066335, 0.07477943590911404, 0.07938167896850502, 0.007390253850221207, 0.05721024507751811, 0.042650652404360306, -0.09165658791227126, -0.006346764353914021, -0.09224494899256329, -0.08626927480712931, -0.08332686257145445, 0.057480939205896815, 0.09088348805661345, -0.029877040744523315, -0.01851469980770739, -0.1009900157227706, -0.03927423210472163, 0.09209779316469058, 0.009740811267202752, -0.0452997875616268, -0.07312225590783983, 0.018695900252612287, 0.08784920240999645, -0.07154836530561108, -0.09641830507492671], [-0.03813589330270697, 0.052799624504253885, -0.04759419637876916, 0.02225140375020083, 0.1054235953998045, -0.03505389199864825, -0.0353139486450983, -0.09929166370718291, 0.06254810853385431, -0.05093830695580292, -0.10248411474278757, -0.03323672743820884, 0.040153063755350805, -0.016875484651567813, 0.024438354033218698, 0.07712290125077005, 0.06030802592521325, 0.07211202036847138, 0.035730823899993144, 0.003265218774716455, -0.03795466096645782, -0.07813926050761912, 0.0028473831138117146, 0.021243490460234424, -0.09276761035144582, -0.055065575223565026, 0.011912435908320945, 0.05979233108351511, -0.031910542998790495, 0.061352059972980995, -0.08343928328620431, -0.07777314739232623, -0.05409447909244487, -0.021702766717765002, -0.009918584531484169, 0.07739155892213004, -0.009458059599291215, 0.06967736921425292, -0.06084939492634634, -0.07376780179993231, 0.042251291605836544, 0.024516373533348932, 0.003575243124665532, 0.01689588923859643, -0.028821737096867268, -0.08389053625652391, 0.010947863941210565, -0.06811955961745038, -0.07358242305387244, 0.027111442415127678, 0.05671702243346314, 0.05700206290545857, 0.05517031704999611, -0.06247061708763332, 0.03504660478121338, -0.040340042832348086, 0.05640864440689283, 0.02168404578346269, -0.051592195117265593, 0.008004555330347005, 0.018427894742552478, 0.043878998154906625, -0.019277617670502397, -0.029053558039420006, 0.04552524707529624, 0.09231977234882843, -0.017366514369819317, -0.004143577053618852, 0.08572499107387213, -0.0780546014752099, 0.04067980631887319, -0.00388002795890869, -0.051551756978602384, -0.018986272947365317, -0.06168500570869663, -0.001940469810741528, 0.06604834782513697, -0.0031021969739945966, 0.027224213958890228, 0.015437624027151877, -0.032289807100057084, -0.046090500169080756, 0.042718607461371245, 0.031774880125721106, 0.06362954499665804, -0.08710093095713069, 0.009914412094372016, 0.006371105280309413, 0.05841901941102834, -0.0104822914860012, -0.09216952799463123, 0.029956097851405926, 0.07123287143013438, 0.06220759723914161, 0.0015872658584967407, 0.09208298655349169, 0.05197445534103577, -0.04001211617873505, 0.021985645442202783, 0.01832846313195646, 0.08169996166346145, -0.09300064503777174, 0.027673051368116593, -0.04609734558246176, 0.05165794525067538, 0.0024803183459290753, 0.036753709453866176, -0.05025662192788654, -0.10564834096421602, -0.05613955783880455, 0.032000322626945445, 0.03979893381551947, 0.0003161518005203181, 0.014075266503829016, -0.01998734368081544, 0.011246697573999749, -0.06989194726327762, -0.009549515518832983, -0.012908217587497745, 0.09124958923031264, 0.08589513616831135, 0.0054129974220605585, -0.0066889289025547525, 0.004397359429545984, -0.11139179802325874, -0.0063112145635483095, 0.0546482545083687, 0.08894656286520894, 0.0033741799886745465, -0.0667158119913029, -0.013462416760689917, -0.096280690549516, 0.07197614305671048, 0.012655855856764335, 0.006435067550009305, -0.11019427820172711, 0.07498084533344192, 0.027661833126077857, 0.021645861555768163, 0.024408425484290647, 0.040149113073579545, 0.06700714110572087, -0.04682204998086346, -0.0029575468071265636, 0.08473952297758754, 0.031591837516946525, 0.08008227017621865, -0.09533518291173115, 0.03860113337980079, -0.06046495561240131, -0.08804110855912768, 0.027081084332416593, 0.07683271639488541, -0.0566448032570993, -0.08557910401917411, -0.05428504342723781, 0.08707567980952845, 0.03364378010376159, 0.022187104168669754, 0.08166729676895733, 0.02000963290369985, -0.06078478745067143, 0.07531719675514546, 0.06515460098590345, 0.003421535680004562, 0.057991817116592306, -0.05693667163017973, 0.08449332107568291, 0.02560480966122195, 0.06953690319034696, -0.07101730056888485, 0.09134383283017608, -0.08029307957024637, -0.04339398888019831, -0.041672168937735725, -0.07133186961884515, 0.029970094117998933, 0.05414822001829197, -0.0645611158801259, -0.09032842407839425, 0.06579930725524946, -0.013941526300575734, 0.0017059357781532172, -0.04084105243190086, 0.027212172665660308, -0.09322018963926153, -0.08296266643387286, 0.012082457086669952, -0.04264184167763919, -0.006943285755404578, -0.05809729270719803, -0.0695011085930971, 0.0536745405440264, 0.005251240585545227, -0.05722986566196892, -0.009585967630690964, 0.00278688729215272, 0.02908971823775633, -0.017057587688872906, 0.07647845558065568], [-0.09254838233627694, -0.0376719224660279, 0.08665560126290954, 0.005025364093832844, -0.05630098583838299, 0.025478214609090145, -0.09392167888501658, 0.0894146139313982, -0.089975001113967, 0.06709391170445575, 0.09245569402191679, 0.04177305521053159, 0.002942636798275249, -0.0002065303556499918, 0.083052713721307, 0.08339971192829397, -0.07860684261386224, 0.09865154087965189, -0.062293999944187696, 0.08713466529866329, -0.004977044012087379, 0.01975728713486486, -0.053370081377933705, 0.008854410793903648, 0.07200376403622721, -0.06403060905548208, -0.09470657942413538, 0.08114517094664056, 0.0034062942291774702, 0.012948696710907287, 0.050574332353041304, -0.05203169082294601, -0.05056541579979948, -0.027656040751356997, -0.02144307237442714, -0.030565239989471773, 0.0452834484891686, -0.02404720737685233, -0.009156231538702755, 0.01640940326656957, -0.03329829812999887, 0.05017348377608623, -0.005325113584657656, 0.008377378250298275, -0.07034044239207041, -0.033684068155750355, -0.06681145267695747, -0.04470242486794843, -0.08154116347975286, -0.05108138632859459, -0.025855789000565347, -0.058637170656937514, 0.06691819056599499, 0.07629641813651626, 0.07882837360373685, 0.07620905575348164, 0.08318143611584068, -0.09847978525062731, -0.018482781552642914, 0.04041116788112949, 0.06417383956708289, -0.05966754872096619, 0.06302271344715311, -0.05025682527781681, 0.05180561131996144, 0.028195148405315586, 0.0849060052389475, -0.07309768249202579, 0.05777866127868048, 0.00857978406269186, 0.09092168439656031, -0.04530847775727103, 0.06004697070472664, -0.02751570117767702, 0.018452787896879534, -0.021818886011248553, 0.09981024347205646, -0.08746979375216106, 0.07948171437646315, 0.03747208007397827, -0.0684712663033146, 0.010898000993650462, 0.0942775221979925, 0.00821773805489299, -0.05063148363316428, 0.025071711368620637, -0.08278169545835994, 0.04786549250071482, -0.059513145994110374, -0.03327022588764888, 0.034190512954950084, -0.016045582159441477, -0.018077235024722926, -0.013403130038359402, -0.07228352350613022, 0.05148909472430354, 0.08328992767219122, 0.07553070461701811, 0.005601694572619278, 0.09624279878568465, 0.016689892289934227, -0.0250064218090014, 0.06967057705861315, -0.02739625312296595, 0.039380082287177175, 0.05201053733831155, -0.03890635782794367, -0.10212401037203796, -0.09463644650192518, -0.08532329288392572, -0.011743780842060415, 0.0713982969540489, 0.07271943021446096, -0.005832853138456425, 0.09671126208705338, -0.004104310664530987, 0.023084395289093465, 0.011554818252180668, 0.043353916099346614, 0.015293869915207314, 0.07064357318361567, 0.027143093506205425, 0.07500039287264537, 0.03840479071461573, -0.043774150692555684, 0.060385396913524944, 0.06889660719429744, -0.038823591716043694, -0.08909504293773479, 0.008190795569546149, -0.026527527006363856, -0.06150501592592493, 0.036641003199739314, 0.020722345831805385, 0.09869779911169906, 0.0070947306415045965, -0.031890054063433225, 0.008252565002253786, 0.04349116395151136, -0.08855788875639091, 0.008438468205708927, 0.056684704825035896, -0.000675825171659487, -0.0409108656783884, 0.027381577561608646, 0.0766345727824048, 0.03785301894412455, 0.09254475754063336, 0.00149066895154663, 0.09223149510707203, 0.03868444985036948, -0.04537447070839835, 0.06880536574456686, -0.0045054184219149584, 0.07179496872981128, -0.06262608949921517, -0.00017267619350406571, 0.008537334039585787, -0.1056411671118757, -0.07062724094115257, -0.09564874844654651, -0.09598367292203189, 0.044354777735172705, 0.07221126518228059, -0.10114090288464281, 0.09229285195277537, 0.09284784307717789, -0.08535081544662161, -0.07555322658354681, 0.02545297411000707, -0.0010736634144237265, 0.0633039520923584, 0.048771500674986645, -0.10468845459160162, 0.07485292266294212, -0.07540898186876685, -0.01673839076465649, -0.019283687466181795, -0.10364683375262404, 0.08342180434780562, -0.07377230743999248, 0.07706879573491783, -0.08955710633009874, 0.050307382811752455, 0.011617699262755223, -0.025396292665495597, 0.006338493526728405, 0.03508719353802021, 0.04827359265428258, 0.02233537304159018, -0.00692450130673714, -0.06969898351011806, 0.005054777907225243, -0.03557463343098293, 0.07683345077125166, 0.08395075195197943, 0.0839174650850154, 0.0280670693210773, 0.05153395313757588, 0.06617522785999852], [-0.06893455888298416, -0.06536084338714157, -0.05410212113438804, -0.08517557372501211, -0.07458326172344072, 0.023624730949249988, 0.0630152540513163, 0.08514956930008831, 0.08127116593759118, -0.033402140811994496, 0.00952049865926468, 0.08278048533242971, -7.589590708148035e-05, 0.0580927120993276, 0.055053725844607874, 0.09347558375341097, 0.0010282483016065805, -0.06306096451405412, -0.010245739734007928, -0.051140004804499574, -0.034141767695556574, -0.0023970141292823056, -0.050268080402451565, -0.044268106610906334, -0.01526073481808923, -0.02573928187512772, 0.03996970522186309, 0.08829802576575353, 0.07646439234253727, 0.08855833681222827, -0.030006399504217653, 0.07144844662049854, 0.029977874126790267, -0.02722373028308998, 0.020843281855883605, -0.0747512743754032, 0.014697750652371194, -0.07041080690275926, 0.02181891616308686, 0.07444132475998673, 0.08077929724558171, -0.07995386315857363, -0.09957260909899165, -0.06986725822746741, 0.01693931701954053, -0.032004640744669174, -0.023007814794429624, 0.09638126337243344, 0.003833699052703784, 0.03729031313688372, 0.019387685923578254, 0.05878275741214549, 0.016461387058172353, 0.05137132974322771, -0.014803683086254566, -0.03319638818036381, 0.08563021177520724, -0.04832554714031949, -0.06057968375440944, -0.07975228118462893, 0.0948358712761662, -0.028790020153066975, -0.07892783491523607, 0.037505740931546176, 0.03459756037011316, -0.09862285851561006, 0.07259015676965232, -0.036188243366463445, -0.03425417396753751, 0.041185382285105085, -0.07107717864672342, 0.048174160196102794, -0.04742423180369837, -0.020147430903398652, 0.056409265983739326, 0.06844181897022997, -0.016846207926763748, -0.040016964296284235, -0.06829073971935273, -0.09459997449673761, 0.030412051327969637, 0.07409112673841095, -0.06425582728005036, -0.04519156773362402, -0.035381017273005855, -0.07679030335742731, -0.0019445319865843353, 0.08241056751981288, 0.039091886413612796, 0.05593198762470183, 0.013132036063766641, 0.052571973362772945, -0.055198491711837605, -0.06437377795006795, -0.07481279827238096, -0.009458672161888792, 0.08615771384819577, 0.03185620240924275, -0.01609288462397267, -0.07180670023599756, 0.019135511181160834, -0.07383968754388663, 0.0024796774885624006, -0.05575730041299466, -0.02348756515586367, -0.0016441683465662602, -0.011400080241222927, -0.07034474338424186, 0.09389635709416395, -0.05242412195845313, -0.0014980095928954031, 0.026826986124408994, -0.001984403429898858, 0.015449688385753684, -0.007914336266807358, -0.0721389020239645, -0.032704609265326826, -0.0749299946329153, 0.00961494014634207, -0.09541951586789271, 0.02000864797969381, -0.022671289682066366, -0.03739015103250383, -0.04664588768643445, 0.011614375190165364, -0.01818159471102976, -0.020519187385621255, 0.005640569439893174, -0.0574146003742815, -0.034856739458417496, 0.005580868871869637, -0.07457633716572659, 0.07215728713496355, -0.028036468100011414, -0.014488675463456354, 0.0021545408865022548, -0.06961676346518833, 0.05118072526779433, 0.06720224501335921, -0.06132649738385901, 0.04540765375693503, -0.047975294830196524, 0.0672496595188921, -0.04787408912059195, 0.029935541001871672, 0.02248492726710401, -0.09437890801131042, 0.06720419103369546, -0.04014220236916632, 0.0743507832899871, -0.09718251354480012, 0.028034482599702103, 0.07744280677881867, 0.08103734481795533, 0.08958829554619173, 0.0973570763077891, 0.021566750904569252, 0.04305392678870377, 0.003504033558895721, 0.04466062592858807, 0.1019133279926646, 0.07310836247929679, -0.10973748929362726, 0.03269613419041948, 0.050425170548656806, 0.07787536245072843, 0.0936957842596224, -0.07789525082914202, 0.049458479466285905, -0.029534854137271856, 0.06014398593658436, 0.037543335822644984, -0.0008724439852486871, -0.08419866251580017, -0.0897801398547431, -0.0009301699029941536, -0.06151558713859006, 0.06011134726323043, -0.04122316627085178, -0.02229540678530588, 0.002284465407974454, 0.09453089301986706, 0.029540628003732857, -0.06012936395623281, -0.003911196554810496, -0.06176960943440179, 0.06371390491124074, -0.01254267251739024, -0.010773376381237357, -0.0724883845707704, 0.05534436405751315, -0.06630022291151336, 0.040466889235098724, 0.014105366711564118, -0.0708178347080555, -0.003683533783230864, -0.05006220269338678, -0.06725501355401062, -0.06364150431680993, -0.09331089938487126], [-0.035719983631400776, -0.0882202699580271, 0.06971495765283552, -0.05670177463411975, 0.08115854119698006, 0.02095281386306413, 0.019480562651124644, 0.007779273418515126, -0.10450943449672535, -0.08882060113109227, 0.05060087762892974, -0.03674808016539509, -0.034617793992908825, 0.05643150453221102, 0.08598468479619131, -0.03257452426250511, 0.04299654228476916, -0.03011332573166449, 0.05394319006325752, -0.09755755948647592, 0.03306904174613983, 0.06385450605917134, -0.04233649879796009, -0.060727582887560944, 0.023369565137639395, -0.03255293497557101, -0.0258380243450135, -0.058527276557128305, -0.03385801066622464, 0.07566544766320074, -0.08219602693535956, 0.013768760038659502, -0.08849593536896162, -0.07154694968181867, 0.07181419317585085, 0.001966975833965272, 0.04927128163173687, 0.0339580545533776, 0.033820444768756876, -0.058856867177277436, -0.06643603445322506, 0.027481228934430755, 0.04939895675176817, -0.06658701117716269, -0.008529753880388756, 0.014093192097687557, -0.027399698348882284, 0.04286712042391911, 0.026809581974744864, 0.06199791167515217, -0.0430353106065765, 0.06464916963321014, 0.020511725197044247, -0.046794007247014116, -0.05034005288311816, -0.05671197629630037, 0.04229494484719078, -0.04436291669979341, 0.08801239376404181, -0.012447569223857464, -0.03519761574027409, -0.0872696957832614, 0.0921673099904141, -0.07726568783532284, -0.0026570782436886064, -0.03445021446715212, 0.06549077478885172, 0.0037117399538183883, 0.04645560893260728, -0.01694033489164308, 0.0026432839985620704, 0.11514047119278764, 0.07275321312208187, -0.09521805578531839, -0.05524652425336105, -0.01250138573832799, -0.05788336321805668, -0.07688025128718072, -0.048170957280127484, -0.08614420678525815, -0.07207117592070156, -0.08023688835758624, 0.05350180802635761, 0.04516146297115034, 0.00810420182901876, 0.03137713270824124, -0.02435332813890873, -0.08190775931194481, -0.07400154574761461, -0.03866143489941278, -0.05560145395614726, 0.0002750318042831897, 0.01454434079676014, 0.0015221878508488887, 0.046741823832917445, -0.049757533672002766, 0.0002726881149153424, 0.0828806148898328, 0.08440534625671611, -0.08554284831397972, -0.06609333563256, -0.09223133280670817, 0.07244141061222005, 0.04310232147336079, 0.022175164764743134, -0.011809342727876943, -0.07780749336148468, -0.06183177824928952, -0.06274401586329692, 0.05085056236589637, -0.03424460227619081, -0.07079457538303464, -0.008154579208861736, 0.03389104271363123, 0.01633069539043984, 0.03386233382719649, 0.05220406305353987, -0.09150276843930191, -0.06431430124891237, -0.004813610305178571, 0.05730241705268632, -0.09428227878537765, 0.019350856234069867, 0.05862476599588984, -0.024182226066128045, 0.08241171775385883, 0.044133393269898624, -0.05929383346341171, -0.07081259902780528, 0.08080007514218092, 0.028897737130425444, -0.061911692553984404, -0.03375838287992822, -0.02821044413716253, -0.06326228206416709, -0.0822968820486978, 0.022427668672264943, 0.027531729861115305, -0.016131869963947196, -0.06388725206161906, -0.08258517471038399, -0.08965769224717642, 0.03650641692212832, -0.048549596418023144, 0.004019644162734572, -0.07243825479092043, -0.03154954398571682, 0.014342591706156035, -0.07845927133412808, 0.09168308833501812, -0.09128030509717382, 0.060596435817772284, -0.022397387100897052, -0.03331535150258974, -0.017878076204610602, -0.07790057290384833, -0.07289795065819026, -0.021145738949443892, 0.08207485829085155, 0.038216561502223724, 0.013160412022446014, 0.017988027094559347, 0.08631142097040652, 0.08170979341747511, 0.05206851945014099, 0.051782042204628495, -0.08198144409846975, -0.03224908593440754, -0.06970435823975096, -0.03564616818435513, -0.033322052086843724, -0.07624837108744875, -0.09509785609175384, -0.07529404416945312, 0.03838508758860512, -0.008464842232231934, -0.07987911152939436, -0.03482793784578341, 0.04452265394075873, 0.006007628659327141, -0.01354129243680564, 0.06580949834853553, 0.06586763631393666, 0.08464369282714647, -0.09730946884912998, 0.09207987082163435, 0.04916689511486245, 0.07945900681991763, -0.038996281480835976, -0.0384789383757023, -0.00934433941093342, 0.032630124597855144, 0.08383482821118736, 0.05635601607765373, -0.04782250378560113, -0.0402092962517804, -0.07906577032552921, -0.08158882799527319, 0.053274651087995006, -0.06577236971301183], [-0.07200987969297451, 0.01562223711519744, 0.002745556034967824, -0.06257112517401799, -0.0913961109739699, -0.000687382758282731, -0.048647951557169805, 0.006429552844782359, 0.09254974623316622, -0.06293569030424778, 0.03770997042772251, -0.07043351597449145, 0.0014365700417234232, 0.008621863507706919, -0.10508232895919295, 0.0914009049107176, 0.07131619068432014, -0.039563457607076885, -0.014211458497072607, 0.013604271412940414, 0.08745638925596541, -0.0020778644306074607, -0.0026982202318536954, -0.05460932273379065, -0.10312144636247066, 0.0632233796940501, -0.024707812751786514, -0.07332551989371504, -0.03384830505855399, 0.01064716868217226, 0.10867215231200439, -0.05781334114138895, -0.06984459478576076, -0.045737678694250224, -0.00641871593991895, 0.026334693722841095, -0.023230641154583988, -0.01775213594486543, 0.025218422856023187, -0.04393027882366581, -0.08346504726072411, 0.043697234435666865, -0.06928564027863417, 0.1094514553413165, 0.00798983847517467, 0.09545142722690597, -0.03529070215377176, 0.002964900285493544, -0.0817343472040646, 0.003193513974454644, -0.0010817214669794674, -0.0743505382358837, -0.0041782475427541215, -0.03235826474400955, 0.05269941790732122, 0.09845252973349058, 0.04503549099740192, 0.03664094030471311, -0.02190343558704121, -0.01725918399653014, 0.017027135907421373, -0.03969714788395928, -0.02990762700664514, 0.04624826403230771, 0.045487870826347254, -0.06707528485528075, 0.0013407319153791693, -0.11468613193197585, -0.015556445702413869, 0.05152824975948632, 0.07873141249226892, -0.08499142423895369, -0.04071961694983739, 0.00016985921344787598, 0.08372742258166598, 0.02912218524830655, 0.03423815050740628, -0.10986097257274892, -0.004649043796585074, -0.027161588989527256, -0.061221273707579085, -0.03744594061295417, -0.05446177948926102, 0.08262012124927, -0.05252029931887008, 0.03936831242790793, 0.03441371137326926, 0.034106465832824444, -0.039615808157313345, 0.020338604025593277, -0.04941155067789828, -0.025026077468891076, 0.03230807428810128, -0.09752174560237045, -0.11705245124558128, -0.08592264626440226, 0.024248192114864175, -0.022199195761556788, -0.08542963788347774, -0.06146073425546007, -0.06411745194696795, 0.07023062629103914, 0.06818489587692574, -0.0524157386462461, -0.026949057654684215, 0.08195631469329896, 0.08812817320095571, 0.012553641782879316, -0.03095760753428438, -0.0806234564184613, -0.011359515687042175, 0.09016945400730293, -0.08327762300326821, 0.07917244017513052, -0.07152318905987712, 0.040329033765680186, -0.027369772723299882, 0.08379572900962652, 0.016695297752952677, -0.06327803921847766, 0.013232374609722708, -0.05443209003839775, -0.011701536056869964, -0.020183364550316503, 0.048616725275701086, 0.009964575212559954, -0.07534115508621818, -0.017841136699088107, 0.0907754521799549, 0.04364432156673984, 0.01253339064284517, 0.012113811786537384, 0.007863905726958604, -0.053035522014180755, 0.07623940749282013, 0.07498279938687989, 0.04512618743241379, 0.056937018898731, -0.005574465351226577, 0.003287536353626403, 0.11242885607030328, 0.029101239667748816, -0.00700383701351954, 0.05444403000959244, 0.025741214327797222, -0.06896636179157745, 0.02083259463945496, -0.020168785665009483, 0.07921159830771886, -0.0435117462573404, 0.09090714449104355, -0.049014334990401524, 0.06642196783041239, 0.108026088122787, -0.023103605856971656, -0.05099475522222907, 0.022921910454284006, -0.05066135090326979, 0.049116487597652386, -0.01309051859094412, 0.11771800800787914, 0.010998906196916422, -0.0907474807193379, 0.07619293274438532, -0.09222386075362013, -0.10897717664969789, 0.05174713477356414, -0.06586533034590834, -0.08372326662049709, -0.053253898455571456, -0.02873680431197587, -0.08168986206899932, -0.008835030304618583, 0.04021759973369333, 0.04853051696175213, -0.00975147386965122, -0.0433248925691302, -0.051762906732093154, 0.0921019366358612, 0.03497845952735041, 0.06572313438817493, -0.0602045280409298, 0.00981505165988851, 0.08281553435026578, -0.03458523108628374, 0.02448282817191238, -0.04848437785548154, -0.03430051996348788, 0.005655280260686182, 0.01845059952001624, -0.0374851453203213, -0.04024903712260754, 0.004471704265845791, 0.0901438859638631, 0.01184658208947208, -0.035858651798853385, 0.08818718111003418, 0.06654693733401845, 0.030199614649880625, -0.01826385967676298], [-0.04654049746305399, 0.07617513242034338, -0.009577525880843827, 0.08116823225806999, -0.05285011933497813, 0.01362776589040502, -0.06680203719367377, -0.008165238975750755, -0.04290434750854848, 0.05868696429288896, -0.06254573168095033, 0.10714638069974043, -0.03622999163182459, 0.08858792452415376, -0.046730239489205475, 0.023355887904603592, -0.07907296267540193, -0.03075936325988562, 0.03260856716371396, 0.09860217810363041, 0.06024838163656099, 0.05843379839979368, 0.07332651453530976, 0.04871840850396253, -0.0242352938834607, 0.03204321038485029, 0.005169737942793869, -0.07143680695179691, -0.07447346426583137, 0.0756320301724231, 0.008828026662561205, 0.026258029206588117, -0.022694505774551826, -0.031880374129780696, 0.06724493150865378, 0.07513675299611673, 0.041561415616301924, 0.012768047648074073, -0.01818324551462507, -0.08611344897471267, 0.025776424105063474, -0.08320275458336816, 0.08712487242132612, 0.08708523461949952, 0.09272143502057252, 0.032652106235358115, -0.06846659592161297, 0.01590776380233505, -0.06950355931701957, 0.002866994448800125, 0.051190536426685924, 0.017266162134227294, -0.016712590793384056, -0.04485109118761132, -0.005759056262944095, 0.08554033642546488, -0.036399733647487977, 0.08338715810119213, -0.08231149695594307, 0.011209811215272715, 0.05782346822103691, -0.06247733945018094, -0.09316895151924992, 0.08351723572889012, -0.04851649978690774, -0.04164611768209859, 0.08801343118742978, -0.007637567233594912, 0.13023260766449762, 0.021407938019849675, -0.023340481718175085, -0.004432325353043371, 0.07258815237664294, -0.09292873326074151, -0.0918063399534987, -0.045216160176070046, -0.10753776816432906, -0.03145712353854437, 0.08234910926521703, -0.036608657196613326, 0.04466013072802097, 0.07313926556562625, 0.05580807640988626, -0.005630038788404245, -0.06314397106423082, -0.09511100260872547, 0.037915657572733207, -0.003400200493080806, 0.028128662822883725, 0.02811965966101441, 0.014770403714736025, 0.024788078881247805, 0.0725897318752447, -0.09438296510645021, 0.04351667545627474, 0.01849309740581546, -0.0646217813249185, -0.10381039767410476, -0.08286190986102762, 0.09917610362412635, 0.058539963962269, 0.07210302472930055, 0.04510303949935391, 0.009805890782788736, -0.02337981105545352, 0.08510928118460992, 0.019896089544951187, 0.11513572599257427, -0.011806821972259827, -0.0021232852758966215, -0.09236434521882211, -0.013237291832371833, 0.08392065496777903, 0.03456980711940035, 0.011197663078726872, 0.09708005878670152, 0.043065597998023016, -0.06987904326745563, 0.06428677446331506, 0.004693825738701677, -0.04819712633267267, 0.09539824847749404, -0.06846964110275715, 0.10825942194607653, -0.05628080536629656, 0.0351345475957053, 0.09163217527686314, -0.10848498709700938, -0.023787258580408265, 0.05207350483939715, -0.01407289999970551, 0.06890059838957015, 0.02744056728714594, -0.08463860612814544, -0.01285328267383149, 0.0951008018788819, -0.014282950479415524, -0.013455617936085358, 0.009868201044251202, -0.0002549161003608759, 0.00334453893839944, -0.035540398059647794, 0.00032376923563924706, -0.026398029453209203, -0.09965838961422566, -0.09046941986371985, -0.08029882066113156, 0.0957538562767589, -0.08651175692051236, -0.0711101878322447, -0.08273566906301207, 0.032463540128569446, 0.03788435628725418, 0.11245505711741119, -0.026469445372594578, 0.05292425013675601, -0.00020956907426515641, -0.04642525698774176, -0.021304560744286837, -0.09875308789465473, -0.04982995959935348, -0.04743369192508744, -0.03497353096847505, 0.0802164863455967, -0.0005429816076943546, -0.0422201713479556, -0.07695046652802193, -0.02867268313901986, -0.0539638425433138, 0.016166172605277526, 0.0914889982485425, -0.014009695459635822, -0.022176084943140204, -0.04066989293867457, -0.061470038300276225, -0.011444656389149677, -0.028521019489185725, -0.0011799131963468844, 0.020022723855137238, -0.06167210157909515, 0.029882851065536654, -0.04346817883535609, 0.11164131086503856, 0.041666914651452745, -0.019404252865200915, 0.05827898082087083, 0.03428533154780761, 0.010241640570221925, 0.030489286983311156, 0.010183297539950469, -0.039115128027989325, -0.05763126056931616, -0.08377125821040096, 0.020666799031068713, -0.040709011907677416, -0.01517374876023858, -0.03420057254357812, -0.0014717668783398666, 0.02182426048000406, -0.03162324300163079], [-0.09480874134542791, 0.01173120467105129, 0.09978430312425307, -0.01809195697314905, -0.013974160889736107, 0.040793720267959736, 0.011094023660163769, 0.030452178918626085, 0.05911781432023963, -0.049224205417751556, -0.08020913580058515, 0.07696456888235294, 0.09742800424198865, 0.08844790968212739, -0.11796822978833847, 0.04292693419558208, -0.0682554738135223, 0.03914374449324595, -0.10189443947860097, 0.05785749384815836, -0.009243553058314572, -0.0305747324662513, -0.09280820029137164, 0.02812386506704055, -0.0778398293050328, 0.06286160489757392, 0.051793363101368124, -0.03491800360459099, -0.02208516573090263, -0.06343126481094212, 0.043530162535069035, 0.04575494013732448, -0.06091005899366901, 0.07485932610484632, -0.11042746922426593, 0.09247896045296329, -0.04169085729285279, 0.014894180511797382, -0.1102097414108244, 0.048032967439688816, 0.07569744533235433, -0.08106852053569254, -0.04509134883824003, 0.038362857891899665, -0.05165976105005486, 0.04630383847982145, -0.03533223687401156, 0.0655565897317849, -0.0034095525699480225, 0.07291105129222371, 0.05504228402899818, 0.008763785783243713, -0.06316824943370687, 0.003655678234353632, -0.08083159500369494, 0.0026726997650042264, 0.0388342048868568, 0.05075471172663267, -0.02304292426664572, -0.10470892965867555, -0.055903752475599186, 0.036642502385039334, -0.029581271073062708, -0.09383670727972138, -0.08577225675506168, 0.06370846491680301, 0.07500491033542354, -0.06999153543415694, 0.06148836496975692, 0.0538733111824356, 0.08123811874422449, 0.06865820419045181, 0.063653472370989, -0.008184839279254844, -0.021523106262835174, 0.01052504902386106, -0.013401080295236269, -0.09668857789023472, -0.0256222800767862, 0.025110894415468522, 0.022025948438382067, 0.09597066158990912, -0.07031381376755187, -0.0928771131100289, 0.033346621937807464, -0.02953714419040786, -0.03875835997608177, 0.04190526532513488, 0.008536802102098272, 0.028287321979900564, -0.038656345012272546, -0.09843287211120033, -0.07470324462985317, 0.0887573455959696, -0.08930093087838704, -0.020257686321803664, 0.05451521665955715, -0.0949210446275831, 0.07068703349319917, -0.08048507317279957, 0.0346580032459958, -0.008503108291097445, -0.050693403623514294, 0.010447468559115266, 0.08977160829838368, -0.06348812652333277, 0.030964082991896062, -0.056797813834739044, 0.06345929017192788, -0.04130895395732616, -0.08735903563921776, -0.05998316549232135, 0.022185711395277235, -0.10594876286293364, -0.05575370110860307, -0.06683819367874046, -0.033189037663533594, 0.038541666295812634, -0.07757876856037449, 0.03505520921833126, -0.0808198671830204, -0.04162151560120117, 0.11339825002962732, -0.04160858894632995, 0.06305354758087442, 0.09501022880927991, -0.06008014229978045, -0.0841362204090673, -0.035033485424566226, 0.0009577077756436415, 0.08561656389251925, 0.04916722768375515, 0.03752405455494637, -0.07956184221983081, -0.09607946550202459, 0.02574642064851017, 0.035423734731679576, -0.08682793336890102, -0.028822954483043874, -0.06790228787539797, 0.016528501417310007, 0.04666194313256233, -0.05843878080021628, -0.01318591117450109, -0.04155992550000046, -0.01340225492029987, -0.034388906366205264, 0.010318471473355998, -0.0758135760470622, -0.07047085049685281, -0.0026577508243629117, -0.0943356058055012, -0.032637574300749136, -0.09284251935834775, -0.10259045066369077, 0.05449811058612713, -0.062329772574242305, -0.053757745845620104, -0.09596040400731337, -0.07176977508080103, -0.018562997333830586, -0.0682696690711477, -0.05639283854823769, 0.07486749142478046, -0.09430875574658043, -0.0932549484847999, 0.10243116345812239, -0.019033998068409733, 0.0021913883809198016, 0.07361869412007135, 0.05165307787777882, -0.036928554346744275, -0.04815513108337362, 0.02189462268313009, -0.0687797389180664, 0.07614050588643886, -0.09496356107890837, -0.10262122655465424, 0.012791126872403292, 0.000619435373197193, -0.060619066811351305, 0.008891193113660975, 0.04059459577544278, -0.052037579171698434, 0.010192817405515944, -0.042558368655360584, -0.08229809409407027, -0.074811220060699, 0.0603040179091126, -0.03710510998154925, -0.09295198931962191, 0.07649658320142147, -0.020689285382742395, -0.042678420288171794, 0.008888672513743034, -0.007999679215731591, -0.10531287932387874, 0.018148364429203045, -0.03588582165946473, 0.011550380841941448], [0.018131385485000203, 0.037145116002159216, 0.05587533747322306, 0.04548445554788103, 0.03108840395731315, 0.010864903796028785, -0.07611471059692065, 0.08670768407670977, 0.004656691633552906, -0.05245729151040548, -0.018471025772209056, 0.09187803467892405, 0.0823305794186696, 0.024283172026717502, 0.011267868001230206, 0.00011764167155912283, 0.06122270084793831, 0.03549899534755178, -0.05980164186563867, 0.09142862008755968, 0.060200255686656344, -0.02156267455678726, 0.11016158788336348, -0.10902299839241925, 0.015076068867587803, 0.05312596466158661, 0.017004903906382398, 0.09668472722620675, -0.06664465337390148, 0.007434529049632243, -0.04698496326357348, -0.07706724207647125, 0.009734476235907839, 0.0032297655349168655, 0.019451623464019168, 0.05114352399086712, 0.07666631586108029, -0.02432754304647209, 0.001060750686602251, 0.039516343918751265, 0.0236622053348041, 0.11469755815438214, -0.012966520634234485, 0.01643877468769994, 0.002636555002831266, 0.04329402277649873, 0.06788504236211011, 0.006399841052183085, 0.07663048463625728, -0.05659065105576361, 0.10624132208847246, -0.017382695977501385, -0.014945991490035171, 0.037628783814672016, 0.05308855648631799, -0.058935252936890364, -0.08018330402689192, -0.09277799613262483, -0.09319156738115553, -0.11312046688666694, 0.03847287086147925, 0.07801429356634959, 0.019639670373423426, -0.07298883055342457, 0.050902797993739375, 0.005560584047452336, -0.04116147868063888, -0.07091991027065753, -0.06175377551809918, 0.04830277253361733, 0.014672472772589765, 0.005625095966835717, 0.06905852415250409, 0.044117237401716615, 0.006177981284087755, -0.029015964165143533, 0.02808882572525042, 0.07870354637419014, -0.030329887739655184, 0.042746119638468395, 0.03348961065262681, 0.11220962379828085, -0.021322866949208142, -0.06467736080088211, 0.011207167329392373, -0.06735415993559367, 0.036771205877878584, -0.009676511901743106, -0.0359341813712661, 0.008394974139789456, 0.04212798871743943, -0.03417612859581073, -0.010822187330229271, 0.000789084432239811, -0.002119084037692113, 0.028571255896830683, -0.005647773593153714, 0.04339176856656074, 0.017588627838948316, 0.032565117746945586, -0.04447899891696723, -0.05208211899706356, -0.06810749722540604, 0.054588374695383565, 0.002214863019340831, -0.007569337794477174, 0.05323029861257583, 0.0360267192308058, -0.03283404586142468, 0.012450326680523961, 0.04150160591252392, -0.1099800721684219, 0.01265053085639349, 0.07793631626065922, 0.010265135036261119, 0.059271046820059105, -0.027803194396317874, 0.05885520378538547, -0.03467937939716037, 0.048884553656800715, -0.046121715522951114, -0.03195829840392837, 0.08061934848670264, 0.03595396190290883, -0.07653555290458003, -0.019275432566291686, 0.10656569839046018, 0.014961529282758903, -0.09686025092793543, 0.06887959330502019, -0.06393041241873361, 0.015332415029898924, 0.06406182576076866, 0.07076331503865613, -0.043494731132091735, -0.08208166168825126, -0.05931646674257667, -0.0318102215368899, 0.04274178439672537, -0.007226688756127862, -0.037921385277479576, -0.07998159568817782, -0.06738953607627285, 0.0016584637504638308, 0.017144653269023067, -0.06483483584640409, -0.08036227510439327, 0.084077871431547, -0.05201510676952344, 0.08750394112330478, 0.021571132974462375, 0.09272725086741791, 0.11171211048694034, -0.07635502776928448, -0.025776332522818954, 0.023825187982282933, 0.055984345321055076, -0.00374961211386777, -0.002492697440408954, -0.10476276583093179, 0.059917215018156125, -0.08195048152559108, 0.055642495988675836, 0.01939348632803654, 0.01753430105031299, 0.00032542818138616184, 0.0558042665503182, 0.06473752917047053, -0.013728842366358766, -0.04848349368494958, -0.03180427365047419, -0.08591201564252153, -0.019573650485932802, 0.07209234347369373, 0.014757632274866128, 0.003324649922944946, -0.08228000899494982, 0.06525727614637412, 0.030948599876849954, -0.03335152908003744, 0.10765242941137415, -0.014895729033161498, -0.004426254591865546, 0.07480667784934257, 0.0486742068539736, -0.07933208224872539, -0.047582584544993436, -0.039566324349414705, -0.026376884350346103, -0.06676962612592181, -0.009027673065103655, 0.058267397827419035, 0.061904633544393066, 0.020447623339989947, -0.004534732235747599, -0.006426211223124367, 0.06280419400810461, 0.0032384408005746946, 0.05921477618476835, -0.007999542775787296], [-0.11286011028218561, 0.050021472285877014, -0.0327780591710949, 0.008325626064251248, 0.035554226017140936, -0.04641701535775859, -0.07184765975091752, 0.031709125078224126, -0.04228885735155683, -0.05870301802144053, -0.07001472440825851, 0.047681375840710825, 0.0937052877152926, -0.08834112138304394, -0.042023735888917495, -0.07003019408177877, -0.046410941285764264, -0.0019195835018353275, -0.02689686973869302, 0.015313815368737967, -0.001859749674268541, 0.0072190798642234625, 0.06022673326659287, -0.05781867295288617, 0.06887100286825443, -0.07149868474320781, 0.03829687378909547, 0.019229796219618494, 0.07216988364972103, -0.034229760387359684, 0.022076485071921198, 0.010375916868647032, 0.012241394537990195, 0.009241637954692608, -0.1038615910004651, 0.04945736818593187, -0.07120368212907457, 0.07766828363231501, -0.04941595671560316, -0.06775917470093092, 0.009433663246944307, -0.07234604679086727, -0.08696917470203407, 0.019153866082468697, -0.09007654269055022, -0.09100855789766196, 0.0014434534559741201, -0.038313491963236676, -0.06701261902351395, -0.014374492082514036, 0.010256282420101976, 0.042823012383466114, -0.021602300960562322, 0.014541795521615955, 0.054716278147473124, 0.021452276748097188, 0.024658338259076068, -0.07960673638299089, -0.03277402398090694, 0.007538580562752755, 0.05244124374277983, 0.09677446856579965, 0.10584159500772405, 0.0534671808007196, 0.03167002496739449, -0.018736112565146585, 0.10052015889316428, 0.02643380851373304, 0.027503447285328327, 0.05536157054589956, -0.09057611936884188, 0.01487250127329383, -0.05940045153466598, -0.005757160195661872, 0.03465030969770261, 0.013093537964692403, -0.07200575211690873, -0.06757425522729034, -0.0912689230447377, 0.011930488494100534, 0.005351474545000561, -0.03761292693335032, 0.001279069195370552, 0.02807462419996456, -0.08802042331207494, -0.03444660241302856, -0.04897689666729095, 0.039392113985019746, 0.05553364497619351, -0.025311703839770973, -0.11582530534157331, -0.003314233463800458, 0.08301276760625746, 0.03581632284945675, 0.04132497619816011, -0.07105624759852944, -0.06987711225982714, 0.06058986062763261, 0.050541284145639534, -0.07220140732280428, 0.002163110954195204, 0.009338921709414562, 0.07012941504740923, 0.09456345271092513, -0.04067975063189937, 0.06774392060884343, 0.040955035286149494, 0.09720215447805425, -0.08026049938731572, 0.035640464668917154, 0.05957216838700088, -0.09172143918713103, 0.05833081221614894, 0.02864540465293363, -0.04559030621241571, 0.01335868832265283, -0.06653929191385036, -0.06484330948320931, 0.030437571461056346, 0.0667435240411188, -0.11361847714231323, -0.1095778961299863, 0.08703622039940442, -0.042574510627870626, 0.006966636614388188, 0.08624243960833612, -0.03110535826512726, -0.0077521699539290995, 0.01217754366972449, -0.00020373960616049298, 0.0300065089752688, -0.05812729968484454, 0.05763920776191465, -0.010940868085355507, -0.010530760234357001, -0.05059536070044059, 0.06541679152847, -0.08350743901050477, 0.05547105265612368, -0.047287894726157305, 0.042030684593310594, -0.05562514000356161, -0.01212740258433441, -0.041569616797058805, 0.05281315388582082, -0.044628570088513675, 0.0518817218173962, -0.01939328412388367, 0.026757527257944048, -0.08028576169694214, -0.03260086118572585, -0.010984036980954594, 0.014614303455840506, -0.03517842682120004, -0.02852519619981126, 0.07621589574020667, 0.07910778038163732, 0.059358828122768284, -0.05720271164699527, -0.030530190935907472, 0.04105943121232862, 0.0014076466202879146, 0.08363473142450284, -0.07149986650988784, -0.030675420854596756, -0.08572790381894371, 0.09260918359888692, 0.01901948277488853, -0.06706769128588337, 0.05965815655765536, 0.052724700635537636, -0.09842745314801261, -0.08978286223518862, 0.009164971191034519, 0.0843684219501632, -0.036510912504803525, 0.09023781869982174, -0.06758984986305257, -0.10356391555995684, 0.002365040780390513, 0.04725510421442975, -0.06547961502280268, 0.0522447333212805, 0.06137951504463685, 0.07261210631486198, 0.04728858602808934, 0.058694512090332024, 0.02689427490987982, 0.04426855637050323, 0.05084010709592628, -0.09207585643939209, -0.10205086269322804, 0.05402124999082671, -0.03600633703083203, -0.027894974176954166, 0.05912498715043242, 0.04497831718079629, -0.031311972775718774, 0.025141001802150325, -0.07095069663055527], [0.062329283626059634, 0.07524344185289265, -0.006124205239041587, -0.01720696617542842, 0.08036916302889921, 0.07994988189174677, -0.07474788096312436, 0.06390170873735473, 0.05594608362894663, -0.07667701029699371, -0.06269708530283186, -0.025590658737486636, 0.100063886124797, 0.044076697907647976, -0.021937858647562324, -0.09167401358082874, -0.04640525434028971, 0.028516724806922474, 0.04436017284245471, -0.014649259952849441, -0.0683422829793588, -0.10571659561587166, 0.05365258671552276, -0.08879374315264325, -0.06446558381382766, -0.0753792136953032, -0.0850384219568382, -0.0719960704640855, -0.05028836568393331, 0.0770375743845452, -0.09507572043119886, -0.08250427238483903, -0.049345339125228496, -0.02747504187423916, 0.06470682861980426, 0.033868910578891055, 0.02346025765401884, -0.04392088583857763, 0.06471278187079425, 0.017672630883163596, 0.04164656600878834, -0.018906395857980565, -0.07865945847460452, 0.07117594826497205, 0.057485133885176065, -0.027712287038036295, -0.08381225753191755, 0.038402181970229946, -0.104070103826883, -0.07365932766191743, 0.03779209072936016, -0.0668778720450893, -0.042397932251764234, -0.017379063278970947, -0.054611886914341976, -0.057259483187429364, -0.004223247729036017, 0.010077090944169326, -0.06395904130096289, -0.11917070417046548, 0.046604365769309854, 0.02888316643047672, -0.08658042310312654, 0.0314682750706026, -0.05727372207936691, -0.08587965941038828, 0.09462469050619754, 0.08431479528584851, -0.05333921804195987, -0.08563668515012197, 0.06870378736816193, -0.03846824286282782, 0.08756486713569635, 0.07561796590443082, 0.0011082787844826168, -0.03097079451088508, -0.10486284126712542, -0.04629211277971852, -0.06383784863123423, 0.10122341396191704, 0.036931411897382506, 0.09840695683191464, 0.02261849011974707, -0.05418669294788373, 0.08523171327022627, 0.0661780703399813, 0.01734084318278219, 0.037982569029759654, 0.09420666112463238, -0.06866574719152102, -0.027630342040618244, 0.020220653385699908, 0.07756420764521879, 0.06867137526481673, 0.05100701376817696, 0.017359363786359834, 0.026380333625633738, 0.0788065849513608, -0.10454250584994115, -0.07194337148717651, -0.04275054111092342, 0.0038305951716166775, 0.08333985891374358, -0.030139153638892975, -0.03506222576046539, 0.09284445422415216, -0.03782303351794715, 0.07883023401043113, 0.10665839265345228, 0.01658372929391503, 0.02024916530443135, 0.05400048080830111, -0.007833353157310966, -0.0193308923025346, -0.08518420041740345, -0.07769769586220072, 0.09010273412187902, -0.06204084730822279, 0.013905359285350789, 0.038452230225564155, -0.007365321448520174, 0.07075799747579421, 0.00405321983757596, -0.022227599729121153, -0.11335198073292499, 0.02708619387351708, 0.058706625384306224, -0.0092105235697743, 0.012533269232912592, 0.09625277725766299, 0.07713762536528204, -0.0804669722552542, -0.08045577644260919, 0.06738472938227742, -0.104310344123017, 0.022827970419048205, 0.05077562627368239, 0.061172081720223294, -0.0620159393264905, -0.025792243460212534, 0.021477994886041345, 0.0017898310155048769, 0.00228547344051178, -0.08123190871838043, 0.012061918415953242, -0.11869603071682512, 0.0039658687420883005, -0.0030958684835324887, 0.06003792803224265, -0.0897115288710765, 0.05688640105918594, 0.09076130994759184, 0.09979156189780629, 0.05081120075864247, -0.01929238871688859, -0.08530470292300231, 0.0011307134610377347, 0.032917130235384236, -0.001618916272722113, -0.073639069081046, -0.07734595330378498, 0.05142837379007555, 0.00013165409051980675, 0.0361544898738108, -0.00013643866924170173, 0.0427061392097452, -0.052754565958899546, -0.05467290954963211, -0.09888217019200284, 0.053696668145632356, -0.021643908562630047, 0.04294857266374398, 0.0570392940687203, 0.024595092004983853, 0.07329971328250853, -0.045769641777091065, -0.083544936030807, -0.047566398014088074, -0.08504976213278924, -0.04463638437383456, 0.06721828318394513, -0.037450267484634085, 0.06459106258523921, 0.09674548287805168, 0.06504519982693394, 0.06961275754124481, -0.10846457945908132, 0.08500962646843326, 0.02003099239991394, -0.022099272376625154, -0.09264712729682428, -0.10526827284818857, -0.05978464981403685, -0.0410355104760436, -0.001244408911496469, 0.021741726109055504, 0.009017702417453623, -0.06818335946145174, 0.07670548290408323, -0.002723350254445182], [0.025377152606795402, -0.062213610587391756, -0.07895561970150286, -0.034932215288829754, -0.03300861814678432, -0.0700282545177149, -0.09375707303125774, -0.026635747594881208, 0.014225723885897408, 0.09364855149680992, 0.06584257164839555, -0.09879563032036878, 0.03298244940474281, 0.05991498803311258, -0.03299444977662753, 0.04958521937851431, -0.07347184864319528, -0.03960796534188087, 0.015305674389750694, -0.019421869694062812, -0.07168116626608444, -0.10085288149753954, -0.06366058206249328, -0.07937444965907102, -0.02432825000972023, 0.051551914621364915, -0.07592535582379925, -0.0011101904407199705, -0.08744707660248081, -0.10516896119775268, 0.0851425412674915, -0.009483953672867156, 0.004832522706306396, 0.05749360295064751, 0.06451847022728859, -0.07513034665187458, -0.03654908439808378, -0.015933651487725495, 0.07777260068658201, -0.01626658338476838, -0.0692984330458062, -0.0020633791218266796, -0.07915390910165042, 0.049808199958990725, 0.06378879407720715, 0.0911897487291651, 0.02325672861577944, 0.05220116042903494, -0.09579963553290864, -0.09005862277674541, 0.09678223529920503, -0.040963752918395824, 0.06037873835896438, 0.022936777431702467, -0.11021412576951771, 0.04890245171112743, 0.02916742966905894, -0.05885372757889502, -0.09948042938159846, -0.07608023709114695, -0.06997451591745142, 0.06553045482710713, -0.07085633714714053, 0.011562069786372224, 0.014906444069179502, -0.021973774002541527, -0.04533869732035065, 0.001407180539212279, 0.07703158852259889, -0.049802984111651086, -0.08593445480397657, 0.08543456557659873, 0.04973246335019169, -0.024096491944944322, -0.05550099738840692, -0.05034625118629595, 0.0751637801310301, 0.09242921352037156, -0.011219799960919864, -0.0771171284334745, -0.08226443070875922, -0.04130445169262945, 0.07610220055400316, 0.07044169478150607, -0.014967918520188436, 0.02712191976770779, 0.02861934378967716, 0.09344458705856852, 0.10579778094444632, 0.08730349731176819, -0.05856511054907448, -0.0813499337610464, 0.048562121799277866, 0.08994900248050432, 0.007051858341752872, 0.05109439320561388, -0.06864403953385613, -0.04353513871532074, -0.008042375007458146, 0.029941447720117347, 0.033749550894149674, 0.023274589584026183, 0.014589138065367045, 0.03301615380610672, -0.030629289699580082, -0.08274328771075205, 0.07619566934233651, -0.027982588430831744, 0.007138441649877003, 0.061918858321966384, 0.02901829316076377, -0.012412390155352115, -0.058078586291930794, -0.09089157711543223, 0.04290540122063595, 0.07886014094870716, 0.08714080829967474, -0.053628024287233185, -0.04583383385376658, 0.06624679687655319, -0.10413775181267505, 0.02063692296219205, -0.08663708375925612, 0.04110938830880503, -0.06135953071229915, -0.018976451648903034, -0.030285101215259774, -0.10267644353084476, 0.05032545522013781, -0.09789543397438819, -0.0008000129399650703, 0.07963614262417115, -0.010538805870665666, 0.030756123856425552, -0.038283955715814444, -0.06918757134509332, 0.079798680934957, 0.06418661064229006, -0.1163617519901356, -0.04869078592113658, -0.11845602186065775, -0.09423474756954596, 0.02142769340364404, 0.04077378227417021, 0.08156684081390196, 0.05214788297071819, 0.028900563386781614, 0.06313441353800742, 0.0010791515821886092, 0.03859880021983426, 0.016154145639340756, 0.03608958171765953, 0.031431944569978706, 0.09663613377862426, -0.10254800179760096, -0.0472450709102587, -0.021787812618879954, 0.01542129378767984, -0.07397785166489443, -0.11384850701412765, -0.04438004290932093, -0.10968212483447418, -0.029508168672697423, 0.09275344631812214, -0.08448131523729328, -0.06934680347596867, 0.08073708484220539, -0.025404363063083895, -0.03150860375016339, 0.030664732582535104, -0.01247710350482505, -0.04869348580819213, -0.10062410690482565, -0.050213271053932536, 0.09440133967897293, -0.03500526941464427, -0.0217064112877497, -0.06379697713385922, 0.0554474413974334, -0.007895425552109061, 0.025216220137568825, -0.01669497057758848, 0.0015026964925862376, 0.07973122735776975, 0.02799714751641296, -0.10760872209124932, -0.11332369300512764, -0.09334017292498013, -0.001577740819192584, -0.016560860943725143, 0.02411371305378116, 0.05128162784895003, 0.03546977870020754, -0.02980855442899307, 0.08843521958851515, 0.027502496858292053, 0.03662931627701666, -0.09357071463175351, -0.08841963660302284, -0.07441092060361534], [-0.10051584112729506, 0.0676555456304992, -0.07248615859330071, -0.07035979575684531, -0.021734436446595697, 0.1044525587143352, 0.06838033236661831, -0.06512043391696565, -0.03075821026966611, -0.0012294494958784337, -0.039284471828990565, -0.05968737828127666, 0.06493522647300108, 0.016755720468972727, -0.012424070613211035, 0.0013385418619119606, 0.08033375184862819, 0.03219020144777916, -0.07961477306557267, -0.012535550795865602, -0.07963071332443632, 0.014329139423178382, -0.03422432539180964, -0.11199024571280615, -0.09807227637858848, 0.08796196292256216, 0.01042677637679819, 0.06951120677533154, -0.08145529383575527, 0.05298378874277041, -0.06508079872348713, 0.034046659605315714, -0.029405051171282604, -0.10670119007103694, 0.00916571682946574, -0.06654801643996591, 0.10265770323636288, 0.05837193717577067, -0.09343799885956787, 0.0054777201938385825, 0.006520333696851225, 0.021270687463373877, -0.03351092892895292, -0.0831063016594445, 0.0623512068434001, -0.09727762005357078, -0.09481912223708779, -0.038802907626930457, -0.05141905654688329, -0.0532483820586713, 0.0990761134880003, -0.004531077231069658, -0.02604305984752793, 0.0826208845946157, -0.09025534209920047, -0.01105554781600729, 0.03345407928928713, 0.008290848538875458, 0.03646656125672789, 0.055951975259846354, 0.023255007436409632, 0.011728187080835402, 0.07366027025699946, -0.0703582199488299, -0.014044649282047168, -0.04548591138088323, 0.1025371519535394, 0.0026821128556364354, 0.034832005905907217, 0.026618136730183418, -0.033250242995921046, 0.042167070573799856, 0.09055177207479653, -0.06987594734357201, 0.009388830167662988, -0.0065443499306089385, 0.06601417584809684, 0.018425404458966527, -0.10509823685468705, -0.05984705312406601, 0.07980486702617796, -0.012425081961942837, -0.08257193895649449, -0.07048143169257044, -0.025224685463890464, -0.0057950019246664364, -0.08859579771044732, 0.05222624239926371, -0.08097374208088137, 0.05148035430480252, 0.057303202310766195, 0.001503372358657441, 0.00374118911028305, 0.09444734514519051, 0.07305688342086136, 0.06850114183215003, 0.03580252631226741, 0.01995655339500241, -0.05904109508864547, -0.0752212875956753, 0.08693452798146452, -0.0010990795855177634, -0.04589795942452412, -0.08412840839831358, 0.058714808621455936, -0.01644927644436146, 0.08053276038357265, -0.034180310817491996, -0.03613991382267636, 0.033437194361300125, 0.0768071728382217, -0.10320107808287701, -0.07642951240153355, 0.06523706786164538, -0.042768429861287156, 0.07662865418721508, 0.0010541784616650391, 0.06132630366583227, 0.07108901027719415, -0.04774096694965042, 0.06943539485257005, -0.10981255327980916, -0.04647164955463617, -0.06928038657777888, -0.10532802688143024, -0.0103420792272118, -0.06771038579580733, 0.0642816048118361, -0.0930255889228799, -0.0782413025932792, 0.05536772752435595, 0.02601856321044646, 0.04577835342696261, -0.07585746312553478, 0.040578563877279115, -0.0712396612367251, -0.05815750587335544, -0.07671832029875379, -0.04673406334362975, -0.06621368734525286, -0.016712196598133142, 0.013235180437701846, 0.07764770453274696, 0.017859800437587153, 0.04477131962123789, 0.0485271708968415, 0.010491258498148337, 0.05378487781573366, -0.01033885601289305, 0.01938839442857557, -0.06798290638878562, -0.07323430687294942, -0.003933152743088917, 0.011098276844621899, -0.022198735742572973, 0.029910178940534604, -0.06953169397442172, 0.04120725989600089, -0.06284628386352227, -0.013469748972902202, -0.04610836701028867, -0.013581066355126738, 0.007250616268063992, 0.01987192376672253, 0.0037583947112784467, -0.025511156819533504, -0.052372339140799466, 0.04839205318188319, -0.08890185034507977, -0.048510977710569454, -0.045516912067237514, -0.02787852552419027, -0.07579499817573337, -0.006344398727859544, 0.0005601588733089522, 0.02042815966834294, -0.03883560483172593, -0.012758253733965268, -0.002009296936360867, 0.05539175072646846, -0.06006503587369631, 0.05191865028759664, -0.06955313165668796, 0.0025024723141375037, -0.007394381839952168, -0.07256164975419707, -0.03838245770363628, 0.012947042655316566, 0.05844340219317284, -0.08546109564305975, 0.015143209487628094, 0.023911813105819135, 0.06259319999476226, -0.08480486947965407, -0.10510387610418667, 0.045729076299848376, 0.03835671805229117, -0.0897480342533017, -0.08153210902753394, 0.08308691041834577], [0.08574639057430035, -0.05995771312931523, 0.030255900313166037, 0.09063366817178181, -0.08812398066798993, -0.02719870674551518, -0.04481060843350233, 0.0845927646613428, 0.01900954073346297, -0.016753954921685306, -0.0767387975734088, -0.0003852653202504343, -0.0059927472076320865, -0.02683063081656926, -0.10299549564403415, -0.014202042617631047, 0.011132941106649344, -0.06781989192229941, -0.041800387263284035, 0.0544890303337165, 0.09742322191998681, 0.010405287096058327, -0.002110783316870581, 0.08151267490203405, 0.08033580697508093, 0.08140121862161036, -0.04841359824480502, -0.08773098777819541, 0.012908941167292116, -0.05123740434449417, 0.09689323015469462, 0.0009614986229288146, -0.06021403119524759, -0.03777016766190843, 0.0956487396446142, 0.004273591973754206, -0.06406198061741364, -0.06082889218690557, 0.06881486561396274, -0.049955386041935224, -0.10519594375242916, -0.08286343171786535, 0.034099108767029075, 0.04005746094852707, -0.02736713974984787, 0.0022094981128454585, 0.014062250642141843, 0.002766985980064113, 0.05014880382405125, -0.012056881532855205, -0.05436904625739417, -0.09950492949274342, -0.06477721104553, -0.04667492014041169, 0.008779488659930721, -0.04501362199650613, -0.07437533611150977, -0.029906428200400105, -0.055241694873512784, 0.05872724236955489, 0.008013098922363822, 0.07460976786115607, -0.009581493413925245, 0.0829897389504104, -0.0700791629317089, -0.05332192502976752, 0.04344325945222418, 0.07823408759708327, -0.04252369782717226, -0.07083153557978049, 0.04563756603278022, -0.06646253322084782, 0.06931040653153567, 0.031480227310272745, 0.06548795446980434, -0.01611026543523306, -0.10886638332166795, 0.08054468070146972, -0.0677264658372592, -0.05133061985894333, 0.0487612323806775, 0.054978759937168706, -0.027377259162686282, -0.10075347540385717, -0.07687626365334593, -0.007643623119539123, -0.1155079919513327, 0.0030610109864147683, 0.07836321014033115, -0.08177502266486558, 0.07238712421075404, 0.05221851129267903, -0.06299898985512638, -0.04952793046631929, 0.026085763569929605, 0.05143899943867967, 0.09599166922729771, -0.11183267189066234, -0.0039033524704442106, 0.03327356506722632, 0.10478909916315032, -0.07031809535231254, -0.016201126282847457, -0.045862531136811255, 0.08406387712130327, 0.037107074742205017, -0.041353720250006804, -0.08932632107404999, -0.005524907527814256, -0.0010124743933447489, 0.0761322839633543, -0.07931479085175444, -0.045573490463919335, 0.014848107712101915, -0.04825265361529372, -0.08914783709154063, -0.07090486755788543, 0.07321982138834032, 0.027694222926643176, -0.06721725563318778, 0.047443394226408565, 0.034593323287874546, 0.0058197664006712805, -0.08167347331847286, 0.002413338560495198, -0.0892137706876513, -0.008305859348943718, -0.034159223265425386, 0.07024189093591679, 0.11291592494517796, 0.08855961712853287, -0.01230072267301199, -0.03921977267167841, -0.0666771379614163, 0.03322550246994347, 0.08560559072580788, 0.02794206446933725, 0.061475797449507735, 0.06266875302807208, -0.09018485281146914, 0.08085142563129136, 0.000251390487546627, 0.01054398645091714, -0.09623578543713139, 0.011111506426558962, -0.027294915275910003, 0.07078187493823469, -0.028238093504939922, 0.035507069739645625, -0.004967441770928088, 0.03754155217118177, -0.04581292020164888, 0.11215263539980387, 0.051180297245436795, 0.013145488667460209, -0.024148325996587446, -0.08208639308621878, -0.09437738715614831, -0.03647649484224011, -0.03852899422445005, -0.06091436759906372, 0.03958622786970345, -0.02408172091457197, 0.010754206264377671, -0.020866253120139133, 0.08486151581766699, 0.09321969231569976, -0.037888951340977174, -0.03249593968057988, 0.007061813420036631, -0.09208959470524684, -0.06228675576532852, -0.019891161253451275, -0.01727940486858882, -0.033936943169049855, 0.06859167240701848, 0.07470364567431818, 0.007334646618917587, -0.10231470731696768, -0.07260681585844612, 0.017625274062375112, 0.08341851569618866, 0.0662631406019897, -0.04661671565890502, 0.013583474294944468, -0.10333274380106575, -0.07466811461345266, -0.017173439660460553, 0.054544336419223405, 0.012015039104862443, -0.029458277515700276, 0.06567176581385047, -0.015705462763767608, 0.01612937241085488, -0.09699900177668956, -0.08102599690891801, 0.0182337697588021, -0.0545598753017387, -0.01028777256163444, 0.032440720706896124], [0.07734472158831897, 0.05021756819416815, 0.10086513086397131, -0.030276838763880598, -0.06485850427600777, 0.06426961944846073, -0.07700002181757763, -0.03363869432103446, 0.0776366454258926, 0.06691493473019104, 0.03648670162717727, 0.030221547087924593, -0.07864967196847202, -0.029967534759332344, -0.06068143931282572, -0.09674840906494231, -0.020921691205411763, -0.01582951867775032, -0.08457733424084123, -0.06547376744472443, 0.0531962579166171, -0.08131556859266785, 0.07486681554773882, -0.10852444377628878, -0.031693906931652395, 0.07545508990120105, -0.008921841255988385, -0.09725382029575974, 0.0838202121172965, -0.06817334464363985, -0.08670793822640513, 0.0548158917267445, -0.051636914237114855, 0.039293593626937386, 0.042658636556732056, 0.052848846813401254, 0.008177680806577142, 0.03842642275472371, 0.05039328756737319, -0.04425244121947171, 0.05538671319319024, -0.11597497559309825, 0.013118999251088703, -0.07419178461998484, -0.039844696269224336, -0.014034988898493727, -0.04738112993132046, 0.03438790205857177, -0.0678434879951957, 0.011042019777756937, -0.07727196812841029, -0.02349535886195084, -0.008412978869596278, -0.008475280945835804, 0.05717429853748594, 0.042159636776963424, -0.006242938197879802, 0.0711853705293939, 0.056481657540783776, 0.04714589034779989, 0.04257904132840413, -0.07868687804755271, 0.0610491551112549, -0.024961657138562788, -0.08661216518295259, 0.0882623730734515, 0.00022771989918738198, 0.065906851037637, 0.04267040279293544, -0.048592952548677355, 0.037125045480836665, -0.04676226906697631, -0.06986902669846652, 0.040235146086202066, 0.051392632734144746, -0.10872848578326265, -0.06366611983563099, -0.003392179951686579, -0.10986701079111702, 0.02516625970218067, -0.11490067739406343, 0.018229938056024388, 0.0001715288202965955, -0.011896219638584173, -0.06438377300799168, -0.03881105316154063, -0.0589106436089236, 0.019162438712275624, -0.06377125619994886, -0.04081309627221869, -0.05635636216233661, 0.054877910395900405, -0.050942843376992834, 0.11595181821572731, -0.09334567342746505, -0.011047044852458781, -0.01892082000029879, -0.034701352532852135, -0.014119062316433641, 0.10134957352162662, -0.0686599850539646, 0.023402267110610466, 0.013220118645094795, -0.0016652849851287585, 0.01303366872722319, -0.07254658414355605, 0.07431540102232306, 0.09467954550904795, 0.04546767736967053, 0.012553274253815565, 0.10324468805772752, 0.00037693857565238, -0.019584152670847624, 0.050629281624900276, -0.001236425641426672, 0.003265566147077384, -0.06543129623908561, 0.05829720707394566, -0.004500765113644616, -0.0004941949916117003, -0.05596570034047129, -0.1150997240646942, -0.10488969080375757, 0.08934469220864266, 0.05539633244432535, 0.05494437462026315, 0.021535793936600437, 0.01346598109903512, 0.0679328770469008, -0.01771928629752609, 0.025989223283783648, -0.0934586361049545, -0.07373889250932834, -0.023829007813546438, 0.06913483963682436, -0.10430577403876348, 0.004876566800160564, 0.04495629279399793, -0.023455220464122472, -0.06832881930418276, -0.07718548502620569, 0.01569093561365749, -0.032402690246690354, 0.06613878003136842, -0.0836108057259366, -0.1226529539549627, -0.06643895946474558, -0.014127965054514979, 0.09421217031374514, 0.01274523190956138, 0.002730856551367119, 0.08835679155558748, -0.014790457355211378, 0.05421699399506173, 0.001392277777939987, -0.05607099788267313, -0.027339788576444025, -0.018231434030305086, 0.030772580336225038, -0.08669325080350183, 0.04281472942083403, -0.0794382629995027, -0.05952358706490939, 0.08014324443890836, -0.0011837285411441841, 0.016901892862660084, 0.08949710460236576, 0.021680702279688612, 0.067645505561822, 0.07526471164637903, -0.06897605043118521, -0.010631951613933115, 0.07163810047371111, 0.013252060634002277, -0.08506956760477939, -0.08472819766421863, 0.02494415575249213, -0.0347956687303662, 0.08097251036662997, -0.022502222391533353, -0.0948852800697287, 0.06318358510365159, -0.037573681739799115, -0.03949266971712767, -0.09988027325566849, -0.0056373087207748475, 0.011448772489133346, -0.0467205227583558, 0.033801011930934564, -0.08128479024035982, 0.013189238446916017, -0.04815068259492738, -0.05390429950029284, 0.01987430287752808, 0.08163330246522177, -0.06703762988368665, -0.019293797359330338, -0.07441581952292235, -0.007004932841915091, 0.014132574346128695], [0.06496864947351548, 0.07782541798585302, 0.08178924441483283, 0.08840343488862025, 0.04396825660109036, 0.02058210182722174, 0.09370428832524225, 0.020182382787828333, 0.07005127246527917, -0.04145034119775014, 0.030043033481239285, -0.030081502920131963, 0.10198884754048748, -0.08211448357177002, 0.03744178494843046, -0.015384654780337622, 0.008195733278148848, 0.0660402854398275, -0.03743649046554212, -0.01061843099400993, -0.04550127717378385, 0.06318278809726927, 0.09040543571732823, -0.05997895829475205, 0.019269562142787217, 0.012735034419221254, 0.013243802702026733, -0.0771156834247294, 0.04132255495188608, -0.06939773601488383, -0.053415806686034885, -0.09374302389578873, 0.048973000769574476, -0.031036505216431892, -0.09494677715295911, -0.003424824928508406, 0.020364067993175115, -0.057997170828082964, -0.03196141800169075, -0.00012705636327385193, -0.028239552501454306, 0.08628501978939279, -0.08321352823069456, 0.08772176292545435, -0.08742022911634278, 0.018992738585160276, -0.044974853687268876, 0.06579531554958798, 0.05094146999457329, 0.03103787811119611, 0.08254340759300556, -0.0021576034998981026, 0.07202607897046504, 0.033282293061967436, -0.04483877225340502, 0.05626919356912086, 0.0980566977208428, 0.04543156840562478, -0.09176662335407275, 0.008294779351195635, 0.048489684049683034, -0.010028036831329305, -0.00989348544068978, 0.07078887198712419, 0.06329714202269991, 0.00935024098443046, -0.015791658310222213, -0.04654490886016646, -0.017504467419331007, -0.09393812150584419, -0.02928231515552244, 0.03898562815867464, -0.044143878765558586, 0.06560953794533066, -0.01822386915499645, 0.016100711221150827, 0.06370313527767651, -0.042858709100212874, -0.0371748795945455, 0.007562035844035285, 0.06979981407428729, 0.09533802380906531, -0.02244967536450479, -0.034396800920201975, 0.01002464875162622, -0.044711915630983146, -0.06880577112515116, 0.051343526319038484, -0.09849268667852022, 0.05886150158842649, -0.035184361433044715, -0.11191074743547182, -0.0079134527612943, -0.05516775582355858, -0.0007633016727467686, 0.02266000996274352, 0.08726295702799562, -0.07071348641231902, -0.0009091534217997893, 0.00288008109127284, 0.037401452618723234, -0.11233528190169184, -0.025555379023899497, 0.022484286976830015, 0.07910320118297635, 0.07968159407034056, 0.04675056082734143, 0.06921390387300497, -0.024821018738213293, -0.035701323871793963, 0.015125799057599842, 0.037243593737924324, 0.019080030261458818, 0.025819719173211624, -0.10109202868251445, -0.06272220850868099, 0.058756010904228294, 0.08289844246113866, 0.06029015989350292, -0.034025595135131655, -0.08530489752961555, -0.10047516075063789, 0.06657942178749107, 0.05565046498620409, -0.04003029953255336, 0.04758924495311115, 0.04794458412107502, 0.07205917219145615, 0.022713418107850214, -0.014205751663357902, 0.017347381053472936, -0.058453017931044925, 0.022160152276228917, 0.03983883698195928, -0.005921184029548924, -0.040712695905627067, 0.009121398995862116, -0.05551395344363458, 0.04376201886711348, -0.07381916753005786, -0.04286266334975126, 0.024823953352186803, -0.0008819654295618391, -0.031012801348270443, -0.07184269498084435, -0.002605762072302624, 0.04866337240513744, 0.04458355824001141, 0.0166434409831055, 0.061473894330560136, 0.050734850455761316, 0.057735478678689944, -0.06937862938998156, 0.08112321395937602, -0.03809841858952138, -0.10106013406615211, 0.01410014644077268, 0.04151346400453274, -0.047748273795999656, 0.08163679553021165, 0.014733776712633753, -0.04371034560526218, 0.060188205529647425, -0.021709917026076286, 0.052779363731093834, -0.0032963532053141877, 0.07867047872924224, 0.07713124308439921, 0.053557889556381195, 0.0169260531700637, -0.006752982274646895, -0.0316345296046828, -0.10974435570373216, -0.003375718822105164, -0.003748088199460665, -0.09937134802590074, 0.0934949501605089, 0.06485564563734411, -0.04501350814910751, -0.04908052739721487, -0.10812287436633918, -0.040234742716866945, 0.04104908626363646, -0.03974616950912766, -0.03936053782429357, 0.026884998258397273, -0.05569473305856132, -0.09197898589684375, -0.05464157256443844, -0.032130008198741074, 0.018829853793785878, 0.04877189561950029, 0.05703010807486804, 0.009994805383964979, 0.004190951483023114, 0.04231679747309553, -0.052614771239358524, 0.08998762498206736, 0.018061234177032245, 0.03651162882425527], [-0.0491367682358678, 0.06950743502928206, 0.04520515394476561, 0.08751097386152333, 0.014830496948634286, -0.03385574123053954, -0.015269060619904759, 0.018823288592851057, 0.033893691343800166, 0.02784529833747501, -0.0715021365117685, -0.05129536594706144, 0.009275565014275905, 0.03724088105174777, 0.09007747366610348, -0.04320366309188197, -0.03499991452231363, 0.01020227330317995, -0.005349145667113272, -0.03224861661421402, -0.024350426892430867, 0.08441071268979682, -0.07606566251000971, 0.030534230903250036, -0.03417364948929058, 0.02312287305789316, -0.04702621246524272, -0.006042571178483097, -0.04005833881367994, -0.004646908768363386, 0.03987682203001548, 0.06093334067424595, -0.012863637707127501, -0.0660735942317549, -0.10008734388021778, 0.00702680984536283, 0.08619048757653955, 0.09327077477479692, 0.03583067831465551, 0.10437516081343244, -0.060990118214479236, -0.10321722778699058, -0.08395056627013829, -0.014064424088624029, 0.00503125522727026, -0.023039525476673116, 0.06786904469404677, -0.07695553655937777, -0.05380614890693004, -0.020861345954451823, -0.06468017719128219, -0.09803129526542984, -0.07784306034647288, 0.06279692643889766, -0.030079620433518053, 0.0029488303770298973, 0.09533999774079127, 0.08182846665603669, -0.028843701340754726, -0.0364410208187363, -0.09482114614074176, -0.05036797011860524, 0.07828621915613644, -0.0863359245722345, 0.08892272250418218, -0.02031688463394106, 0.0026978504225484883, 0.08240247502222803, 0.0699582362998755, -0.09450056839347752, -0.06274139300201648, 0.04819667161132063, -0.09541478927489373, 0.014797127460231914, 0.022909062342862906, -0.02172987917818131, -0.007537187942438949, 0.0074799518981925476, -0.05964450504768022, 0.03853639290691015, -0.03313683848006694, 0.013242363354039593, -0.081125467111471, 0.05598223439576719, 0.0036412935631807337, 0.005720529335173491, -0.08576769195353806, -0.008329557722698472, -0.08618506257530445, -0.08916254563220674, 0.07431284137048613, 0.07189231948420022, 0.06028741544065211, 0.0386108027124027, 0.04910593602139183, 0.06132132881568818, -0.005593270986001457, 0.033301178755185096, -0.0495759976228961, 0.08743895467226998, -0.036452361180565454, -0.08281640430743442, 0.01277070172476088, -0.07795976081824332, 0.03082903441561971, -0.05477146477032201, 0.03179561967515603, -0.012694609090416689, -0.07434184344736199, 0.08112940640154184, -0.07291499949640376, -0.05739893264219391, 0.012317038497221603, 0.0908780262702844, -0.03479880273660571, 0.09209289913778018, -0.02722510516427278, -0.030892400215920685, 0.011272881755644549, -0.07245887844317953, 0.031746719384638536, -0.020149730294595533, 0.07058739302232142, -0.08421944450038142, -0.024413707903055706, -0.09751821380015926, -0.09146909327648182, 0.004262810534761095, -0.04327125937349285, -0.09029768372196124, 0.00607586995055715, 0.05436911966423361, -0.032646837985681666, -0.05179647821239803, -0.013902257802385829, 0.01664663469579519, 0.01716024586503923, 0.08970965591748105, -0.008722018199019601, -0.04949579483196429, -0.08499213987289597, 0.06013131024951343, -0.05137576962356236, 0.001781500547346753, 0.0628910675772924, 0.005327402961174647, 0.0640410123022133, -0.07692266944431357, 0.041268126939842185, -0.046808187436176305, 0.08072361303304854, -0.055284359840241964, -0.07454723282555283, 0.03748378961196719, 0.03928616018060586, 0.013541903514791422, -0.08463229345719907, 0.024903187776177803, 0.05033781630149485, -0.022904030837039475, -0.08467097339107571, 0.07236064716035329, -0.010132098122356235, 0.007646791906143925, -0.05556537683161337, -0.008534669539820884, 0.0947704807401148, -0.006496527990746291, -0.08197676676169781, -0.05190633791038713, -0.08330565343237378, -0.07104846357831356, -0.05635728395043175, -0.08117211427941344, 0.09836542368415127, 0.0477420662636733, -0.06453112202052425, -0.0006474436626398414, 0.02795144322053222, 0.006482215843804856, -0.08208389390885693, 